%YAML:1.0
opencv_ml_svm:
   format: 3
   svmType: C_SVC
   kernel:
      type: POLY
      degree: 3.
      gamma: 1.
      coef0: 0.
   C: 1.
   term_criteria: { iterations:100 }
   var_count: 196
   class_count: 2
   class_labels: !!opencv-matrix
      rows: 2
      cols: 1
      dt: i
      data: [ 0, 1 ]
   sv_total: 199
   support_vectors:
      - [ 0., 0., 128., 63., 0., 0., 0., 0., 0., 0., 160., 64., 0., 0.,
          0., 0., 0., 0., 0., 0., 0., 0., 0., 0., 0., 0., 0., 0., 0., 0.,
          28., 66., 0., 0., 224., 64., 0., 0., 216., 65., 0., 0., 0., 0.,
          136., 65., 0., 0., 196., 66., 0., 0., 172., 66., 0., 0., 0.,
          0., 184., 65., 0., 0., 32., 66., 0., 0., 136., 66., 0., 0., 0.,
          0., 72., 66., 0., 0., 184., 65., 0., 0., 168., 65., 0., 0., 0.,
          0., 48., 65., 0., 0., 150., 66., 0., 0., 220., 66., 0., 0., 0.,
          0., 226., 66., 0., 0., 216., 65., 0., 0., 28., 66., 0., 0., 0.,
          0., 160., 64., 0., 0., 0., 65., 0., 0., 144., 65., 0., 0., 0.,
          0., 64., 65., 0., 0., 116., 66., 0., 0., 176., 66., 0., 0., 0.,
          0., 184., 65., 0., 0., 160., 64., 0., 0., 160., 64., 0., 0.,
          0., 0., 216., 65., 0., 0., 16., 65., 0., 0., 160., 65., 0., 0.,
          0., 0., 64., 65., 0., 0., 176., 65., 0., 0., 232., 65., 0., 0.,
          0., 0., 128., 64., 0., 0., 64., 65., 0., 0., 232., 65., 0., 0. ]
      - [ 0., 0., 158., 66., 0., 0., 2., 67., 0., 0., 96., 65., 0., 0.,
          0., 0., 232., 65., 0., 0., 0., 0., 0., 0., 0., 0., 0., 0., 0.,
          0., 40., 66., 0., 0., 168., 65., 0., 0., 64., 64., 0., 0., 0.,
          0., 128., 64., 0., 0., 0., 64., 0., 0., 216., 65., 0., 0., 0.,
          0., 64., 65., 0., 0., 232., 65., 0., 0., 64., 64., 0., 0., 0.,
          0., 0., 0., 0., 0., 128., 63., 0., 0., 128., 64., 0., 0., 0.,
          0., 0., 0., 0., 0., 0., 0., 0., 0., 0., 0., 0., 0., 0., 0.,
          192., 64., 0., 0., 160., 65., 0., 0., 128., 65., 0., 0., 0.,
          0., 0., 64., 0., 0., 224., 64., 0., 0., 64., 65., 0., 0., 0.,
          0., 32., 65., 0., 0., 192., 64., 0., 0., 28., 66., 0., 0., 0.,
          0., 184., 65., 0., 0., 156., 66., 0., 0., 200., 65., 0., 0.,
          0., 0., 0., 0., 0., 0., 160., 64., 0., 0., 178., 66., 0., 0.,
          0., 0., 0., 64., 0., 0., 0., 64., 0., 0., 224., 64., 0., 0.,
          0., 0., 168., 65., 0., 0., 128., 63., 0., 0., 128., 63., 0.,
          0. ]
      - [ 0., 0., 170., 66., 0., 0., 72., 66., 0., 0., 0., 64., 0., 0.,
          0., 0., 0., 0., 0., 0., 0., 0., 0., 0., 0., 0., 0., 0., 0., 0.,
          188., 66., 0., 0., 242., 66., 0., 0., 160., 64., 0., 0., 0.,
          0., 32., 65., 0., 0., 128., 64., 0., 0., 168., 65., 0., 0., 0.,
          0., 4., 66., 0., 0., 184., 65., 0., 0., 224., 64., 0., 0., 0.,
          0., 206., 66., 0., 0., 32., 66., 0., 0., 64., 64., 0., 0., 0.,
          0., 134., 66., 0., 0., 224., 64., 0., 0., 0., 0., 0., 0., 0.,
          0., 40., 66., 0., 0., 0., 64., 0., 0., 0., 64., 0., 0., 0., 0.,
          32., 66., 0., 0., 244., 66., 0., 0., 128., 64., 0., 0., 0., 0.,
          160., 64., 0., 0., 128., 63., 0., 0., 128., 64., 0., 0., 0.,
          0., 56., 66., 0., 0., 248., 66., 0., 0., 112., 65., 0., 0., 0.,
          0., 64., 65., 0., 0., 224., 64., 0., 0., 192., 64., 0., 0., 0.,
          0., 128., 63., 0., 0., 224., 64., 0., 0., 64., 64., 0., 0., 0.,
          0., 92., 66., 0., 0., 160., 64., 0., 0., 0., 0., 0., 0. ]
      - [ 0., 0., 192., 64., 0., 0., 0., 65., 0., 0., 0., 64., 0., 0.,
          0., 0., 128., 65., 0., 0., 128., 64., 0., 0., 0., 0., 0., 0.,
          0., 0., 224., 65., 0., 0., 128., 64., 0., 0., 128., 63., 0.,
          0., 0., 0., 0., 64., 0., 0., 128., 63., 0., 0., 0., 0., 0., 0.,
          0., 0., 16., 65., 0., 0., 248., 66., 0., 0., 248., 66., 0., 0.,
          0., 0., 152., 66., 0., 0., 176., 65., 0., 0., 128., 63., 0.,
          0., 0., 0., 80., 65., 0., 0., 200., 65., 0., 0., 116., 66., 0.,
          0., 0., 0., 96., 66., 0., 0., 248., 65., 0., 0., 44., 66., 0.,
          0., 0., 0., 15., 67., 0., 0., 116., 66., 0., 0., 0., 0., 0.,
          0., 0., 0., 232., 65., 0., 0., 20., 66., 0., 0., 166., 66., 0.,
          0., 0., 0., 224., 64., 0., 0., 11., 67., 0., 0., 92., 66., 0.,
          0., 0., 0., 48., 65., 0., 0., 168., 65., 0., 0., 0., 65., 0.,
          0., 0., 0., 144., 65., 0., 0., 160., 65., 0., 0., 224., 64.,
          0., 0., 0., 0., 234., 66., 0., 0., 134., 66., 0., 0., 80., 66.,
          0., 0. ]
      - [ 0., 0., 128., 63., 0., 0., 128., 63., 0., 0., 0., 0., 0., 0.,
          0., 0., 128., 63., 0., 0., 128., 63., 0., 0., 0., 0., 0., 0.,
          0., 0., 64., 65., 0., 0., 20., 66., 0., 0., 32., 65., 0., 0.,
          0., 0., 162., 66., 0., 0., 216., 65., 0., 0., 0., 64., 0., 0.,
          0., 0., 224., 65., 0., 0., 80., 65., 0., 0., 168., 65., 0., 0.,
          0., 0., 0., 66., 0., 0., 152., 65., 0., 0., 138., 66., 0., 0.,
          0., 0., 220., 66., 0., 0., 214., 66., 0., 0., 0., 64., 0., 0.,
          0., 0., 128., 65., 0., 0., 0., 64., 0., 0., 0., 0., 0., 0., 0.,
          0., 224., 64., 0., 0., 128., 64., 0., 0., 0., 65., 0., 0., 0.,
          0., 8., 66., 0., 0., 224., 65., 0., 0., 224., 64., 0., 0., 0.,
          0., 232., 65., 0., 0., 248., 65., 0., 0., 0., 0., 0., 0., 0.,
          0., 208., 65., 0., 0., 48., 65., 0., 0., 136., 65., 0., 0., 0.,
          0., 244., 66., 0., 0., 144., 65., 0., 0., 0., 0., 0., 0., 0.,
          0., 96., 65., 0., 0., 76., 66., 0., 0., 72., 66., 0., 0. ]
      - [ 0., 0., 0., 64., 0., 0., 128., 63., 0., 0., 224., 65., 0., 0.,
          0., 0., 16., 66., 0., 0., 128., 63., 0., 0., 0., 0., 0., 0.,
          0., 0., 154., 66., 0., 0., 186., 66., 0., 0., 160., 64., 0.,
          0., 0., 0., 164., 66., 0., 0., 136., 66., 0., 0., 128., 63.,
          0., 0., 0., 0., 0., 0., 0., 0., 0., 0., 0., 0., 136., 65., 0.,
          0., 0., 0., 168., 65., 0., 0., 0., 65., 0., 0., 224., 64., 0.,
          0., 0., 0., 240., 66., 0., 0., 9., 67., 0., 0., 64., 64., 0.,
          0., 0., 0., 184., 65., 0., 0., 128., 63., 0., 0., 0., 0., 0.,
          0., 0., 0., 0., 0., 0., 0., 0., 0., 0., 0., 0., 0., 0., 0., 0.,
          0., 232., 65., 0., 0., 128., 63., 0., 0., 0., 0., 0., 0., 0.,
          0., 232., 66., 0., 0., 0., 64., 0., 0., 0., 0., 0., 0., 0., 0.,
          250., 66., 0., 0., 224., 64., 0., 0., 0., 0., 0., 0., 0., 0.,
          208., 66., 0., 0., 152., 65., 0., 0., 0., 0., 0., 0., 0., 0.,
          168., 65., 0., 0., 236., 66., 0., 0., 28., 66., 0., 0. ]
      - [ 0., 0., 184., 65., 0., 0., 160., 64., 0., 0., 160., 64., 0.,
          0., 0., 0., 128., 63., 0., 0., 240., 65., 0., 0., 4., 66., 0.,
          0., 0., 0., 192., 65., 0., 0., 32., 66., 0., 0., 0., 65., 0.,
          0., 0., 0., 0., 0., 0., 0., 0., 0., 0., 0., 136., 65., 0., 0.,
          0., 0., 24., 66., 0., 0., 0., 65., 0., 0., 0., 0., 0., 0., 0.,
          0., 220., 66., 0., 0., 224., 64., 0., 0., 128., 63., 0., 0.,
          0., 0., 128., 65., 0., 0., 32., 66., 0., 0., 142., 66., 0., 0.,
          0., 0., 64., 64., 0., 0., 128., 63., 0., 0., 128., 63., 0., 0.,
          0., 0., 0., 0., 0., 0., 128., 63., 0., 0., 128., 63., 0., 0.,
          0., 0., 170., 66., 0., 0., 224., 64., 0., 0., 0., 0., 0., 0.,
          0., 0., 200., 65., 0., 0., 184., 65., 0., 0., 48., 65., 0., 0.,
          0., 0., 128., 64., 0., 0., 0., 0., 0., 0., 0., 0., 0., 0., 0.,
          0., 32., 65., 0., 0., 96., 66., 0., 0., 254., 66., 0., 0., 0.,
          0., 240., 66., 0., 0., 16., 65., 0., 0., 0., 0., 0., 0. ]
      - [ 0., 0., 0., 64., 0., 0., 128., 63., 0., 0., 0., 0., 0., 0., 0.,
          0., 160., 64., 0., 0., 16., 66., 0., 0., 0., 64., 0., 0., 0.,
          0., 128., 63., 0., 0., 0., 64., 0., 0., 128., 63., 0., 0., 0.,
          0., 160., 64., 0., 0., 16., 65., 0., 0., 128., 64., 0., 0., 0.,
          0., 48., 66., 0., 0., 208., 65., 0., 0., 32., 65., 0., 0., 0.,
          0., 192., 65., 0., 0., 192., 64., 0., 0., 0., 0., 0., 0., 0.,
          0., 192., 65., 0., 0., 112., 65., 0., 0., 0., 0., 0., 0., 0.,
          0., 0., 0., 0., 0., 224., 64., 0., 0., 64., 65., 0., 0., 0.,
          0., 128., 63., 0., 0., 128., 65., 0., 0., 128., 64., 0., 0.,
          0., 0., 72., 66., 0., 0., 200., 65., 0., 0., 216., 65., 0., 0.,
          0., 0., 40., 66., 0., 0., 224., 64., 0., 0., 0., 0., 0., 0.,
          0., 0., 128., 64., 0., 0., 0., 65., 0., 0., 224., 64., 0., 0.,
          0., 0., 20., 67., 0., 0., 32., 65., 0., 0., 0., 0., 0., 0., 0.,
          0., 128., 63., 0., 0., 216., 65., 0., 0., 160., 66., 0., 0. ]
      - [ 0., 0., 216., 65., 0., 0., 138., 66., 0., 0., 222., 66., 0.,
          0., 0., 0., 226., 66., 0., 0., 160., 66., 0., 0., 208., 65.,
          0., 0., 0., 0., 32., 66., 0., 0., 144., 65., 0., 0., 160., 64.,
          0., 0., 0., 0., 0., 0., 0., 0., 16., 65., 0., 0., 60., 66., 0.,
          0., 0., 0., 248., 65., 0., 0., 184., 65., 0., 0., 248., 65.,
          0., 0., 0., 0., 2., 67., 0., 0., 120., 66., 0., 0., 128., 65.,
          0., 0., 0., 0., 64., 64., 0., 0., 32., 65., 0., 0., 240., 65.,
          0., 0., 0., 0., 0., 0., 0., 0., 128., 63., 0., 0., 112., 65.,
          0., 0., 0., 0., 136., 65., 0., 0., 32., 65., 0., 0., 216., 65.,
          0., 0., 0., 0., 164., 66., 0., 0., 128., 64., 0., 0., 4., 66.,
          0., 0., 0., 0., 112., 66., 0., 0., 40., 66., 0., 0., 178., 66.,
          0., 0., 0., 0., 0., 0., 0., 0., 0., 0., 0., 0., 0., 0., 0., 0.,
          0., 0., 68., 66., 0., 0., 20., 66., 0., 0., 152., 65., 0., 0.,
          0., 0., 64., 64., 0., 0., 0., 64., 0., 0., 208., 65., 0., 0. ]
      - [ 0., 0., 0., 0., 0., 0., 0., 0., 0., 0., 226., 66., 0., 0., 0.,
          0., 0., 64., 0., 0., 0., 0., 0., 0., 128., 63., 0., 0., 0., 0.,
          224., 64., 0., 0., 0., 0., 0., 0., 0., 0., 0., 0., 0., 0., 80.,
          65., 0., 0., 0., 0., 0., 0., 0., 0., 0., 0., 0., 0., 0., 0.,
          0., 0., 232., 65., 0., 0., 214., 66., 0., 0., 0., 0., 0., 0.,
          0., 0., 128., 63., 0., 0., 112., 65., 0., 0., 0., 0., 96., 66.,
          0., 0., 0., 64., 0., 0., 128., 63., 0., 0., 0., 0., 176., 66.,
          0., 0., 200., 65., 0., 0., 0., 64., 0., 0., 0., 0., 0., 0., 0.,
          0., 160., 64., 0., 0., 216., 65., 0., 0., 0., 0., 128., 63.,
          0., 0., 60., 66., 0., 0., 198., 66., 0., 0., 0., 0., 0., 0.,
          0., 0., 128., 64., 0., 0., 72., 66., 0., 0., 0., 0., 0., 0.,
          0., 0., 224., 65., 0., 0., 240., 65., 0., 0., 0., 0., 64., 64.,
          0., 0., 128., 64., 0., 0., 160., 64., 0., 0., 0., 0., 0., 0.,
          0., 0., 128., 63., 0., 0., 32., 65., 0., 0. ]
      - [ 0., 0., 16., 65., 0., 0., 224., 64., 0., 0., 0., 0., 0., 0.,
          0., 0., 244., 66., 0., 0., 248., 65., 0., 0., 160., 64., 0.,
          0., 0., 0., 56., 66., 0., 0., 144., 65., 0., 0., 96., 65., 0.,
          0., 0., 0., 64., 64., 0., 0., 128., 65., 0., 0., 160., 66., 0.,
          0., 0., 0., 198., 66., 0., 0., 192., 65., 0., 0., 64., 64., 0.,
          0., 0., 0., 92., 66., 0., 0., 20., 66., 0., 0., 128., 64., 0.,
          0., 0., 0., 176., 65., 0., 0., 160., 64., 0., 0., 0., 64., 0.,
          0., 0., 0., 144., 66., 0., 0., 128., 64., 0., 0., 0., 0., 0.,
          0., 0., 0., 224., 65., 0., 0., 20., 66., 0., 0., 232., 65., 0.,
          0., 0., 0., 240., 65., 0., 0., 32., 65., 0., 0., 128., 63., 0.,
          0., 0., 0., 160., 65., 0., 0., 240., 65., 0., 0., 128., 66.,
          0., 0., 0., 0., 248., 65., 0., 0., 192., 65., 0., 0., 160.,
          64., 0., 0., 0., 0., 192., 65., 0., 0., 0., 0., 0., 0., 0., 0.,
          0., 0., 0., 0., 96., 66., 0., 0., 80., 66., 0., 0., 112., 65.,
          0., 0. ]
      - [ 0., 0., 0., 65., 0., 0., 208., 65., 0., 0., 4., 66., 0., 0.,
          0., 0., 64., 64., 0., 0., 160., 64., 0., 0., 208., 65., 0., 0.,
          0., 0., 0., 64., 0., 0., 0., 64., 0., 0., 224., 64., 0., 0.,
          0., 0., 24., 66., 0., 0., 224., 64., 0., 0., 128., 63., 0., 0.,
          0., 0., 0., 66., 0., 0., 72., 66., 0., 0., 192., 64., 0., 0.,
          0., 0., 0., 64., 0., 0., 200., 65., 0., 0., 16., 65., 0., 0.,
          0., 0., 10., 67., 0., 0., 0., 0., 0., 0., 0., 0., 0., 0., 0.,
          0., 166., 66., 0., 0., 250., 66., 0., 0., 0., 65., 0., 0., 0.,
          0., 240., 65., 0., 0., 64., 65., 0., 0., 192., 64., 0., 0., 0.,
          0., 234., 66., 0., 0., 166., 66., 0., 0., 24., 66., 0., 0., 0.,
          0., 0., 65., 0., 0., 224., 64., 0., 0., 56., 66., 0., 0., 0.,
          0., 144., 65., 0., 0., 224., 64., 0., 0., 192., 64., 0., 0.,
          0., 0., 224., 64., 0., 0., 64., 64., 0., 0., 152., 65., 0., 0.,
          0., 0., 190., 66., 0., 0., 4., 66., 0., 0., 0., 64., 0., 0. ]
      - [ 0., 0., 224., 64., 0., 0., 48., 65., 0., 0., 36., 66., 0., 0.,
          0., 0., 128., 64., 0., 0., 192., 64., 0., 0., 232., 65., 0.,
          0., 0., 0., 0., 0., 0., 0., 128., 63., 0., 0., 192., 65., 0.,
          0., 0., 0., 64., 66., 0., 0., 240., 65., 0., 0., 64., 64., 0.,
          0., 0., 0., 240., 65., 0., 0., 216., 65., 0., 0., 160., 64.,
          0., 0., 0., 0., 200., 66., 0., 0., 152., 65., 0., 0., 16., 65.,
          0., 0., 0., 0., 140., 66., 0., 0., 184., 66., 0., 0., 192.,
          65., 0., 0., 0., 0., 244., 66., 0., 0., 32., 65., 0., 0., 128.,
          63., 0., 0., 0., 0., 64., 66., 0., 0., 0., 66., 0., 0., 112.,
          65., 0., 0., 0., 0., 44., 66., 0., 0., 224., 64., 0., 0., 128.,
          64., 0., 0., 0., 0., 64., 64., 0., 0., 0., 65., 0., 0., 232.,
          65., 0., 0., 0., 0., 208., 65., 0., 0., 64., 65., 0., 0., 136.,
          65., 0., 0., 0., 0., 168., 65., 0., 0., 160., 64., 0., 0.,
          124., 66., 0., 0., 0., 0., 128., 63., 0., 0., 192., 64., 0.,
          0., 184., 65., 0., 0. ]
      - [ 0., 0., 232., 66., 0., 0., 172., 66., 0., 0., 48., 65., 0., 0.,
          0., 0., 224., 64., 0., 0., 192., 64., 0., 0., 160., 64., 0.,
          0., 0., 0., 240., 65., 0., 0., 210., 66., 0., 0., 224., 66.,
          0., 0., 0., 0., 40., 66., 0., 0., 0., 64., 0., 0., 0., 0., 0.,
          0., 0., 0., 4., 66., 0., 0., 128., 64., 0., 0., 0., 0., 0., 0.,
          0., 0., 32., 65., 0., 0., 182., 66., 0., 0., 48., 66., 0., 0.,
          0., 0., 9., 67., 0., 0., 144., 65., 0., 0., 0., 0., 0., 0., 0.,
          0., 44., 66., 0., 0., 84., 66., 0., 0., 4., 66., 0., 0., 0.,
          0., 128., 63., 0., 0., 0., 0., 0., 0., 0., 0., 0., 0., 0., 0.,
          0., 65., 0., 0., 158., 66., 0., 0., 252., 66., 0., 0., 0., 0.,
          104., 66., 0., 0., 192., 64., 0., 0., 0., 0., 0., 0., 0., 0.,
          200., 65., 0., 0., 12., 66., 0., 0., 192., 65., 0., 0., 0., 0.,
          144., 65., 0., 0., 112., 65., 0., 0., 48., 65., 0., 0., 0., 0.,
          192., 64., 0., 0., 0., 64., 0., 0., 128., 64., 0., 0. ]
      - [ 0., 0., 32., 65., 0., 0., 128., 63., 0., 0., 0., 0., 0., 0.,
          0., 0., 184., 65., 0., 0., 16., 65., 0., 0., 128., 64., 0., 0.,
          0., 0., 112., 65., 0., 0., 48., 65., 0., 0., 128., 63., 0., 0.,
          0., 0., 202., 66., 0., 0., 240., 65., 0., 0., 64., 64., 0., 0.,
          0., 0., 0., 0., 0., 0., 64., 64., 0., 0., 72., 66., 0., 0., 0.,
          0., 1., 67., 0., 0., 152., 65., 0., 0., 0., 0., 0., 0., 0., 0.,
          0., 64., 0., 0., 224., 64., 0., 0., 224., 64., 0., 0., 0., 0.,
          128., 64., 0., 0., 192., 64., 0., 0., 64., 65., 0., 0., 0., 0.,
          240., 65., 0., 0., 224., 64., 0., 0., 224., 64., 0., 0., 0.,
          0., 32., 65., 0., 0., 200., 65., 0., 0., 232., 65., 0., 0., 0.,
          0., 96., 65., 0., 0., 64., 64., 0., 0., 192., 64., 0., 0., 0.,
          0., 142., 66., 0., 0., 158., 66., 0., 0., 200., 65., 0., 0.,
          0., 0., 128., 63., 0., 0., 168., 65., 0., 0., 224., 65., 0.,
          0., 0., 0., 128., 64., 0., 0., 208., 65., 0., 0., 176., 65.,
          0., 0. ]
      - [ 0., 0., 224., 64., 0., 0., 128., 63., 0., 0., 0., 0., 0., 0.,
          0., 0., 64., 65., 0., 0., 64., 64., 0., 0., 160., 64., 0., 0.,
          0., 0., 208., 65., 0., 0., 160., 65., 0., 0., 184., 65., 0.,
          0., 0., 0., 192., 66., 0., 0., 76., 66., 0., 0., 192., 64., 0.,
          0., 0., 0., 76., 66., 0., 0., 108., 66., 0., 0., 0., 64., 0.,
          0., 0., 0., 64., 64., 0., 0., 132., 66., 0., 0., 88., 66., 0.,
          0., 0., 0., 128., 64., 0., 0., 164., 66., 0., 0., 184., 65.,
          0., 0., 0., 0., 158., 66., 0., 0., 224., 64., 0., 0., 0., 0.,
          0., 0., 0., 0., 0., 0., 0., 0., 128., 63., 0., 0., 168., 65.,
          0., 0., 0., 0., 212., 66., 0., 0., 192., 64., 0., 0., 128.,
          63., 0., 0., 0., 0., 36., 66., 0., 0., 0., 65., 0., 0., 192.,
          64., 0., 0., 0., 0., 192., 64., 0., 0., 120., 66., 0., 0.,
          226., 66., 0., 0., 0., 0., 16., 65., 0., 0., 96., 65., 0., 0.,
          202., 66., 0., 0., 0., 0., 0., 0., 0., 0., 48., 65., 0., 0.,
          248., 65., 0., 0. ]
      - [ 0., 0., 52., 66., 0., 0., 4., 66., 0., 0., 160., 64., 0., 0.,
          0., 0., 200., 65., 0., 0., 152., 65., 0., 0., 216., 65., 0.,
          0., 0., 0., 228., 66., 0., 0., 0., 64., 0., 0., 0., 0., 0., 0.,
          0., 0., 32., 65., 0., 0., 128., 63., 0., 0., 0., 0., 0., 0.,
          0., 0., 174., 66., 0., 0., 248., 66., 0., 0., 0., 0., 0., 0.,
          0., 0., 128., 63., 0., 0., 64., 64., 0., 0., 192., 65., 0., 0.,
          0., 0., 230., 66., 0., 0., 16., 65., 0., 0., 0., 0., 0., 0.,
          0., 0., 100., 66., 0., 0., 128., 63., 0., 0., 0., 0., 0., 0.,
          0., 0., 160., 64., 0., 0., 72., 66., 0., 0., 248., 66., 0., 0.,
          0., 0., 232., 65., 0., 0., 12., 66., 0., 0., 0., 64., 0., 0.,
          0., 0., 184., 66., 0., 0., 40., 66., 0., 0., 128., 63., 0., 0.,
          0., 0., 176., 65., 0., 0., 32., 65., 0., 0., 0., 0., 0., 0.,
          0., 0., 64., 65., 0., 0., 128., 64., 0., 0., 192., 64., 0., 0.,
          0., 0., 232., 65., 0., 0., 48., 65., 0., 0., 64., 64., 0., 0. ]
      - [ 0., 0., 248., 65., 0., 0., 232., 65., 0., 0., 48., 66., 0., 0.,
          0., 0., 200., 65., 0., 0., 92., 66., 0., 0., 32., 65., 0., 0.,
          0., 0., 4., 66., 0., 0., 176., 65., 0., 0., 48., 65., 0., 0.,
          0., 0., 232., 65., 0., 0., 40., 66., 0., 0., 200., 65., 0., 0.,
          0., 0., 64., 65., 0., 0., 0., 66., 0., 0., 208., 65., 0., 0.,
          0., 0., 0., 0., 0., 0., 128., 64., 0., 0., 226., 66., 0., 0.,
          0., 0., 96., 65., 0., 0., 64., 66., 0., 0., 32., 65., 0., 0.,
          0., 0., 48., 66., 0., 0., 160., 64., 0., 0., 32., 65., 0., 0.,
          0., 0., 128., 63., 0., 0., 100., 66., 0., 0., 222., 66., 0.,
          0., 0., 0., 104., 66., 0., 0., 64., 65., 0., 0., 0., 0., 0.,
          0., 0., 0., 206., 66., 0., 0., 184., 65., 0., 0., 0., 0., 0.,
          0., 0., 0., 224., 65., 0., 0., 176., 65., 0., 0., 232., 65.,
          0., 0., 0., 0., 0., 0., 0., 0., 0., 0., 0., 0., 208., 65., 0.,
          0., 0., 0., 0., 0., 0., 0., 128., 63., 0., 0., 100., 66., 0.,
          0. ]
      - [ 0., 0., 208., 65., 0., 0., 200., 65., 0., 0., 0., 64., 0., 0.,
          0., 0., 128., 63., 0., 0., 0., 0., 0., 0., 0., 0., 0., 0., 0.,
          0., 16., 65., 0., 0., 192., 64., 0., 0., 32., 65., 0., 0., 0.,
          0., 242., 66., 0., 0., 242., 66., 0., 0., 128., 64., 0., 0.,
          0., 0., 152., 65., 0., 0., 0., 0., 0., 0., 0., 0., 0., 0., 0.,
          0., 128., 63., 0., 0., 64., 64., 0., 0., 112., 66., 0., 0., 0.,
          0., 140., 66., 0., 0., 5., 67., 0., 0., 208., 65., 0., 0., 0.,
          0., 64., 64., 0., 0., 200., 65., 0., 0., 3., 67., 0., 0., 0.,
          0., 48., 65., 0., 0., 192., 65., 0., 0., 232., 66., 0., 0., 0.,
          0., 32., 66., 0., 0., 252., 66., 0., 0., 96., 65., 0., 0., 0.,
          0., 0., 64., 0., 0., 192., 65., 0., 0., 212., 66., 0., 0., 0.,
          0., 72., 66., 0., 0., 0., 0., 0., 0., 0., 0., 0., 0., 0., 0.,
          144., 65., 0., 0., 216., 65., 0., 0., 96., 65., 0., 0., 0., 0.,
          0., 64., 0., 0., 0., 0., 0., 0., 128., 63., 0., 0. ]
      - [ 0., 0., 128., 63., 0., 0., 0., 64., 0., 0., 184., 66., 0., 0.,
          0., 0., 0., 0., 0., 0., 128., 63., 0., 0., 64., 64., 0., 0.,
          0., 0., 0., 0., 0., 0., 0., 0., 0., 0., 0., 0., 0., 0., 0., 0.,
          0., 0., 0., 0., 0., 0., 0., 0., 0., 0., 0., 0., 0., 0., 0., 0.,
          0., 0., 0., 0., 0., 0., 0., 0., 0., 0., 0., 0., 68., 66., 0.,
          0., 52., 66., 0., 0., 48., 65., 0., 0., 0., 0., 160., 64., 0.,
          0., 68., 66., 0., 0., 32., 65., 0., 0., 0., 0., 128., 63., 0.,
          0., 160., 64., 0., 0., 200., 65., 0., 0., 0., 0., 128., 64.,
          0., 0., 0., 0., 0., 0., 0., 0., 0., 0., 0., 0., 64., 65., 0.,
          0., 144., 65., 0., 0., 48., 66., 0., 0., 0., 0., 136., 65., 0.,
          0., 192., 64., 0., 0., 0., 65., 0., 0., 0., 0., 224., 65., 0.,
          0., 234., 66., 0., 0., 168., 65., 0., 0., 0., 0., 68., 66., 0.,
          0., 248., 65., 0., 0., 224., 64., 0., 0., 0., 0., 148., 66.,
          0., 0., 232., 65., 0., 0., 248., 65., 0., 0. ]
      - [ 0., 0., 64., 64., 0., 0., 80., 65., 0., 0., 248., 65., 0., 0.,
          0., 0., 162., 66., 0., 0., 194., 66., 0., 0., 0., 65., 0., 0.,
          0., 0., 240., 65., 0., 0., 224., 64., 0., 0., 208., 65., 0.,
          0., 0., 0., 0., 64., 0., 0., 0., 64., 0., 0., 80., 65., 0., 0.,
          0., 0., 96., 66., 0., 0., 248., 65., 0., 0., 192., 64., 0., 0.,
          0., 0., 236., 66., 0., 0., 162., 66., 0., 0., 64., 64., 0., 0.,
          0., 0., 64., 64., 0., 0., 16., 65., 0., 0., 192., 64., 0., 0.,
          0., 0., 64., 65., 0., 0., 224., 65., 0., 0., 192., 64., 0., 0.,
          0., 0., 112., 65., 0., 0., 200., 65., 0., 0., 16., 65., 0., 0.,
          0., 0., 100., 66., 0., 0., 0., 65., 0., 0., 0., 64., 0., 0.,
          0., 0., 80., 65., 0., 0., 64., 65., 0., 0., 192., 64., 0., 0.,
          0., 0., 236., 66., 0., 0., 214., 66., 0., 0., 160., 64., 0.,
          0., 0., 0., 204., 66., 0., 0., 128., 65., 0., 0., 0., 64., 0.,
          0., 0., 0., 80., 65., 0., 0., 128., 64., 0., 0., 224., 64., 0.,
          0. ]
      - [ 0., 0., 36., 66., 0., 0., 72., 66., 0., 0., 240., 65., 0., 0.,
          0., 0., 224., 64., 0., 0., 36., 66., 0., 0., 92., 66., 0., 0.,
          0., 0., 240., 65., 0., 0., 128., 63., 0., 0., 0., 0., 0., 0.,
          0., 0., 152., 65., 0., 0., 0., 65., 0., 0., 0., 0., 0., 0., 0.,
          0., 128., 63., 0., 0., 168., 65., 0., 0., 146., 66., 0., 0.,
          0., 0., 160., 64., 0., 0., 0., 64., 0., 0., 128., 63., 0., 0.,
          0., 0., 192., 64., 0., 0., 124., 66., 0., 0., 80., 65., 0., 0.,
          0., 0., 0., 64., 0., 0., 0., 0., 0., 0., 0., 0., 0., 0., 0.,
          0., 128., 63., 0., 0., 152., 65., 0., 0., 246., 66., 0., 0.,
          0., 0., 192., 64., 0., 0., 224., 64., 0., 0., 0., 65., 0., 0.,
          0., 0., 224., 65., 0., 0., 84., 66., 0., 0., 0., 65., 0., 0.,
          0., 0., 192., 64., 0., 0., 0., 65., 0., 0., 96., 65., 0., 0.,
          0., 0., 140., 66., 0., 0., 186., 66., 0., 0., 128., 63., 0.,
          0., 0., 0., 64., 64., 0., 0., 64., 64., 0., 0., 0., 0., 0., 0. ]
      - [ 0., 0., 64., 64., 0., 0., 128., 64., 0., 0., 0., 65., 0., 0.,
          0., 0., 128., 63., 0., 0., 128., 64., 0., 0., 92., 66., 0., 0.,
          0., 0., 224., 65., 0., 0., 0., 65., 0., 0., 0., 65., 0., 0.,
          0., 0., 192., 64., 0., 0., 216., 65., 0., 0., 232., 65., 0.,
          0., 0., 0., 0., 64., 0., 0., 128., 64., 0., 0., 96., 65., 0.,
          0., 0., 0., 16., 65., 0., 0., 160., 65., 0., 0., 12., 66., 0.,
          0., 0., 0., 128., 64., 0., 0., 176., 66., 0., 0., 28., 66., 0.,
          0., 0., 0., 128., 63., 0., 0., 80., 65., 0., 0., 64., 64., 0.,
          0., 0., 0., 0., 0., 0., 0., 0., 0., 0., 0., 0., 0., 0., 0., 0.,
          0., 192., 64., 0., 0., 128., 64., 0., 0., 0., 64., 0., 0., 0.,
          0., 214., 66., 0., 0., 64., 64., 0., 0., 128., 63., 0., 0., 0.,
          0., 0., 0., 0., 0., 0., 0., 0., 0., 128., 63., 0., 0., 0., 0.,
          0., 65., 0., 0., 128., 64., 0., 0., 64., 64., 0., 0., 0., 0.,
          12., 66., 0., 0., 108., 66., 0., 0., 128., 64., 0., 0. ]
      - [ 0., 0., 206., 66., 0., 0., 192., 65., 0., 0., 128., 63., 0.,
          0., 0., 0., 180., 66., 0., 0., 0., 0., 0., 0., 0., 0., 0., 0.,
          0., 0., 240., 66., 0., 0., 64., 64., 0., 0., 0., 0., 0., 0.,
          0., 0., 220., 66., 0., 0., 128., 64., 0., 0., 0., 0., 0., 0.,
          0., 0., 194., 66., 0., 0., 160., 64., 0., 0., 0., 0., 0., 0.,
          0., 0., 202., 66., 0., 0., 128., 63., 0., 0., 0., 0., 0., 0.,
          0., 0., 252., 66., 0., 0., 80., 65., 0., 0., 0., 0., 0., 0.,
          0., 0., 152., 65., 0., 0., 192., 64., 0., 0., 0., 64., 0., 0.,
          0., 0., 176., 65., 0., 0., 128., 64., 0., 0., 0., 0., 0., 0.,
          0., 0., 60., 66., 0., 0., 104., 66., 0., 0., 128., 64., 0., 0.,
          0., 0., 80., 65., 0., 0., 0., 64., 0., 0., 160., 64., 0., 0.,
          0., 0., 230., 66., 0., 0., 144., 65., 0., 0., 0., 64., 0., 0.,
          0., 0., 194., 66., 0., 0., 248., 65., 0., 0., 192., 64., 0.,
          0., 0., 0., 104., 66., 0., 0., 64., 65., 0., 0., 64., 64., 0.,
          0. ]
      - [ 0., 0., 16., 66., 0., 0., 248., 65., 0., 0., 48., 66., 0., 0.,
          0., 0., 32., 65., 0., 0., 192., 64., 0., 0., 0., 64., 0., 0.,
          0., 0., 184., 65., 0., 0., 0., 65., 0., 0., 224., 64., 0., 0.,
          0., 0., 56., 66., 0., 0., 144., 65., 0., 0., 0., 0., 0., 0.,
          0., 0., 0., 0., 0., 0., 0., 0., 0., 0., 0., 0., 0., 0., 0., 0.,
          124., 66., 0., 0., 0., 0., 0., 0., 0., 0., 0., 0., 0., 0.,
          170., 66., 0., 0., 48., 66., 0., 0., 224., 64., 0., 0., 0., 0.,
          226., 66., 0., 0., 48., 65., 0., 0., 128., 63., 0., 0., 0., 0.,
          16., 65., 0., 0., 240., 65., 0., 0., 160., 64., 0., 0., 0., 0.,
          88., 66., 0., 0., 48., 65., 0., 0., 96., 65., 0., 0., 0., 0.,
          160., 64., 0., 0., 0., 65., 0., 0., 48., 65., 0., 0., 0., 0.,
          4., 66., 0., 0., 16., 65., 0., 0., 128., 63., 0., 0., 0., 0.,
          140., 66., 0., 0., 136., 65., 0., 0., 224., 64., 0., 0., 0.,
          0., 134., 66., 0., 0., 242., 66., 0., 0., 16., 66., 0., 0. ]
      - [ 0., 0., 84., 66., 0., 0., 10., 67., 0., 0., 136., 65., 0., 0.,
          0., 0., 160., 64., 0., 0., 40., 66., 0., 0., 204., 66., 0., 0.,
          0., 0., 128., 64., 0., 0., 192., 65., 0., 0., 96., 65., 0., 0.,
          0., 0., 48., 65., 0., 0., 232., 65., 0., 0., 192., 64., 0., 0.,
          0., 0., 64., 64., 0., 0., 4., 66., 0., 0., 15., 67., 0., 0.,
          0., 0., 16., 66., 0., 0., 128., 65., 0., 0., 108., 66., 0., 0.,
          0., 0., 64., 65., 0., 0., 112., 65., 0., 0., 80., 65., 0., 0.,
          0., 0., 0., 64., 0., 0., 144., 66., 0., 0., 220., 66., 0., 0.,
          0., 0., 0., 0., 0., 0., 128., 63., 0., 0., 160., 65., 0., 0.,
          0., 0., 232., 65., 0., 0., 152., 66., 0., 0., 248., 65., 0.,
          0., 0., 0., 208., 65., 0., 0., 254., 66., 0., 0., 224., 64.,
          0., 0., 0., 0., 128., 64., 0., 0., 0., 64., 0., 0., 0., 0., 0.,
          0., 0., 0., 224., 64., 0., 0., 136., 65., 0., 0., 152., 65.,
          0., 0., 0., 0., 0., 64., 0., 0., 200., 65., 0., 0., 12., 66.,
          0., 0. ]
      - [ 0., 0., 248., 65., 0., 0., 0., 64., 0., 0., 0., 0., 0., 0., 0.,
          0., 0., 64., 0., 0., 32., 65., 0., 0., 224., 64., 0., 0., 0.,
          0., 128., 65., 0., 0., 232., 65., 0., 0., 0., 65., 0., 0., 0.,
          0., 72., 66., 0., 0., 128., 63., 0., 0., 160., 64., 0., 0., 0.,
          0., 192., 64., 0., 0., 0., 64., 0., 0., 0., 0., 0., 0., 0., 0.,
          19., 67., 0., 0., 0., 65., 0., 0., 0., 0., 0., 0., 0., 0.,
          138., 66., 0., 0., 64., 64., 0., 0., 0., 0., 0., 0., 0., 0.,
          216., 65., 0., 0., 128., 64., 0., 0., 64., 64., 0., 0., 0., 0.,
          248., 65., 0., 0., 216., 65., 0., 0., 136., 65., 0., 0., 0.,
          0., 64., 65., 0., 0., 16., 65., 0., 0., 248., 65., 0., 0., 0.,
          0., 192., 65., 0., 0., 224., 64., 0., 0., 160., 64., 0., 0.,
          0., 0., 28., 66., 0., 0., 120., 66., 0., 0., 0., 64., 0., 0.,
          0., 0., 248., 66., 0., 0., 76., 66., 0., 0., 160., 64., 0., 0.,
          0., 0., 180., 66., 0., 0., 80., 65., 0., 0., 0., 65., 0., 0. ]
      - [ 0., 0., 246., 66., 0., 0., 176., 65., 0., 0., 0., 0., 0., 0.,
          0., 0., 48., 65., 0., 0., 64., 64., 0., 0., 0., 64., 0., 0.,
          0., 0., 7., 67., 0., 0., 112., 65., 0., 0., 4., 66., 0., 0.,
          0., 0., 0., 0., 0., 0., 0., 0., 0., 0., 0., 0., 0., 0., 0., 0.,
          208., 65., 0., 0., 208., 65., 0., 0., 64., 65., 0., 0., 0., 0.,
          16., 66., 0., 0., 184., 65., 0., 0., 128., 64., 0., 0., 0., 0.,
          248., 65., 0., 0., 16., 65., 0., 0., 64., 64., 0., 0., 0., 0.,
          0., 64., 0., 0., 128., 63., 0., 0., 0., 64., 0., 0., 0., 0.,
          128., 63., 0., 0., 224., 64., 0., 0., 128., 65., 0., 0., 0.,
          0., 196., 66., 0., 0., 40., 66., 0., 0., 0., 64., 0., 0., 0.,
          0., 64., 64., 0., 0., 16., 65., 0., 0., 176., 66., 0., 0., 0.,
          0., 60., 66., 0., 0., 44., 66., 0., 0., 112., 65., 0., 0., 0.,
          0., 168., 65., 0., 0., 0., 64., 0., 0., 0., 0., 0., 0., 0., 0.,
          0., 0., 0., 0., 0., 0., 0., 0., 128., 63., 0., 0. ]
      - [ 0., 0., 248., 65., 0., 0., 200., 65., 0., 0., 32., 65., 0., 0.,
          0., 0., 116., 66., 0., 0., 242., 66., 0., 0., 216., 65., 0.,
          0., 0., 0., 0., 65., 0., 0., 0., 65., 0., 0., 160., 65., 0.,
          0., 0., 0., 128., 65., 0., 0., 240., 66., 0., 0., 152., 66.,
          0., 0., 0., 0., 24., 66., 0., 0., 216., 65., 0., 0., 144., 65.,
          0., 0., 0., 0., 112., 65., 0., 0., 96., 65., 0., 0., 224., 64.,
          0., 0., 0., 0., 144., 65., 0., 0., 160., 64., 0., 0., 160.,
          64., 0., 0., 0., 0., 100., 66., 0., 0., 216., 65., 0., 0., 96.,
          66., 0., 0., 0., 0., 128., 63., 0., 0., 64., 64., 0., 0., 64.,
          65., 0., 0., 0., 0., 130., 66., 0., 0., 200., 65., 0., 0.,
          144., 65., 0., 0., 0., 0., 192., 64., 0., 0., 48., 65., 0., 0.,
          160., 64., 0., 0., 0., 0., 44., 66., 0., 0., 192., 64., 0., 0.,
          0., 65., 0., 0., 0., 0., 12., 66., 0., 0., 24., 66., 0., 0.,
          216., 65., 0., 0., 0., 0., 128., 63., 0., 0., 160., 64., 0.,
          0., 64., 66., 0., 0. ]
      - [ 0., 0., 0., 0., 0., 0., 0., 0., 0., 0., 0., 0., 0., 0., 0., 0.,
          80., 65., 0., 0., 32., 67., 0., 0., 64., 65., 0., 0., 0., 0.,
          224., 64., 0., 0., 128., 65., 0., 0., 184., 65., 0., 0., 0.,
          0., 56., 66., 0., 0., 128., 65., 0., 0., 168., 65., 0., 0., 0.,
          0., 116., 66., 0., 0., 150., 66., 0., 0., 240., 65., 0., 0.,
          0., 0., 116., 66., 0., 0., 168., 65., 0., 0., 176., 65., 0.,
          0., 0., 0., 48., 65., 0., 0., 16., 65., 0., 0., 76., 66., 0.,
          0., 0., 0., 160., 65., 0., 0., 132., 66., 0., 0., 224., 65.,
          0., 0., 0., 0., 84., 66., 0., 0., 240., 66., 0., 0., 64., 66.,
          0., 0., 0., 0., 216., 65., 0., 0., 252., 66., 0., 0., 176.,
          65., 0., 0., 0., 0., 210., 66., 0., 0., 160., 64., 0., 0.,
          192., 64., 0., 0., 0., 0., 252., 66., 0., 0., 48., 65., 0., 0.,
          16., 65., 0., 0., 0., 0., 160., 64., 0., 0., 144., 65., 0., 0.,
          134., 66., 0., 0., 0., 0., 64., 65., 0., 0., 214., 66., 0., 0.,
          178., 66., 0., 0. ]
      - [ 0., 0., 160., 64., 0., 0., 0., 0., 0., 0., 0., 0., 0., 0., 0.,
          0., 216., 65., 0., 0., 80., 65., 0., 0., 192., 64., 0., 0., 0.,
          0., 0., 0., 0., 0., 192., 64., 0., 0., 192., 64., 0., 0., 0.,
          0., 216., 65., 0., 0., 226., 66., 0., 0., 142., 66., 0., 0.,
          0., 0., 0., 64., 0., 0., 0., 65., 0., 0., 72., 66., 0., 0., 0.,
          0., 48., 66., 0., 0., 144., 65., 0., 0., 160., 64., 0., 0., 0.,
          0., 192., 64., 0., 0., 16., 65., 0., 0., 76., 66., 0., 0., 0.,
          0., 232., 66., 0., 0., 200., 65., 0., 0., 0., 66., 0., 0., 0.,
          0., 136., 65., 0., 0., 160., 64., 0., 0., 64., 65., 0., 0., 0.,
          0., 108., 66., 0., 0., 234., 66., 0., 0., 128., 64., 0., 0.,
          0., 0., 230., 66., 0., 0., 180., 66., 0., 0., 16., 65., 0., 0.,
          0., 0., 140., 66., 0., 0., 128., 64., 0., 0., 128., 63., 0.,
          0., 0., 0., 152., 65., 0., 0., 20., 66., 0., 0., 0., 66., 0.,
          0., 0., 0., 28., 66., 0., 0., 252., 66., 0., 0., 16., 66., 0.,
          0. ]
      - [ 0., 0., 0., 64., 0., 0., 160., 64., 0., 0., 0., 0., 0., 0., 0.,
          0., 248., 66., 0., 0., 8., 66., 0., 0., 0., 0., 0., 0., 0., 0.,
          192., 64., 0., 0., 0., 64., 0., 0., 192., 64., 0., 0., 0., 0.,
          0., 0., 0., 0., 80., 65., 0., 0., 150., 66., 0., 0., 0., 0.,
          4., 66., 0., 0., 240., 65., 0., 0., 224., 64., 0., 0., 0., 0.,
          170., 66., 0., 0., 240., 65., 0., 0., 128., 64., 0., 0., 0.,
          0., 192., 64., 0., 0., 224., 65., 0., 0., 224., 65., 0., 0.,
          0., 0., 16., 65., 0., 0., 0., 0., 0., 0., 0., 0., 0., 0., 0.,
          0., 128., 63., 0., 0., 0., 64., 0., 0., 0., 64., 0., 0., 0.,
          0., 8., 66., 0., 0., 20., 66., 0., 0., 48., 66., 0., 0., 0.,
          0., 144., 65., 0., 0., 0., 65., 0., 0., 96., 65., 0., 0., 0.,
          0., 210., 66., 0., 0., 248., 65., 0., 0., 0., 65., 0., 0., 0.,
          0., 128., 65., 0., 0., 0., 65., 0., 0., 240., 65., 0., 0., 0.,
          0., 64., 64., 0., 0., 216., 65., 0., 0., 112., 66., 0., 0. ]
      - [ 0., 0., 224., 65., 0., 0., 186., 66., 0., 0., 166., 66., 0.,
          0., 0., 0., 128., 63., 0., 0., 0., 0., 0., 0., 128., 63., 0.,
          0., 0., 0., 240., 65., 0., 0., 192., 64., 0., 0., 40., 66., 0.,
          0., 0., 0., 128., 63., 0., 0., 224., 65., 0., 0., 158., 66.,
          0., 0., 0., 0., 0., 0., 0., 0., 160., 64., 0., 0., 192., 64.,
          0., 0., 0., 0., 0., 0., 0., 0., 0., 0., 0., 0., 0., 0., 0., 0.,
          0., 0., 24., 66., 0., 0., 128., 64., 0., 0., 128., 64., 0., 0.,
          0., 0., 0., 64., 0., 0., 160., 66., 0., 0., 242., 66., 0., 0.,
          0., 0., 160., 64., 0., 0., 192., 65., 0., 0., 130., 66., 0.,
          0., 0., 0., 128., 63., 0., 0., 200., 65., 0., 0., 9., 67., 0.,
          0., 0., 0., 0., 0., 0., 0., 128., 63., 0., 0., 128., 63., 0.,
          0., 0., 0., 0., 0., 0., 0., 0., 0., 0., 0., 164., 66., 0., 0.,
          0., 0., 224., 65., 0., 0., 160., 64., 0., 0., 128., 63., 0.,
          0., 0., 0., 182., 66., 0., 0., 220., 66., 0., 0., 128., 63.,
          0., 0. ]
      - [ 0., 0., 0., 64., 0., 0., 192., 64., 0., 0., 224., 65., 0., 0.,
          0., 0., 128., 63., 0., 0., 224., 64., 0., 0., 244., 66., 0.,
          0., 0., 0., 128., 63., 0., 0., 128., 64., 0., 0., 0., 0., 0.,
          0., 0., 0., 248., 65., 0., 0., 176., 65., 0., 0., 224., 64.,
          0., 0., 0., 0., 0., 0., 0., 0., 0., 64., 0., 0., 112., 66., 0.,
          0., 0., 0., 184., 65., 0., 0., 36., 66., 0., 0., 72., 66., 0.,
          0., 0., 0., 160., 65., 0., 0., 200., 65., 0., 0., 192., 65.,
          0., 0., 0., 0., 76., 66., 0., 0., 164., 66., 0., 0., 224., 65.,
          0., 0., 0., 0., 248., 65., 0., 0., 28., 66., 0., 0., 136., 65.,
          0., 0., 0., 0., 104., 66., 0., 0., 204., 66., 0., 0., 96., 66.,
          0., 0., 0., 0., 152., 65., 0., 0., 192., 65., 0., 0., 144.,
          65., 0., 0., 0., 0., 240., 65., 0., 0., 200., 65., 0., 0.,
          136., 65., 0., 0., 0., 0., 152., 65., 0., 0., 248., 65., 0.,
          0., 160., 65., 0., 0., 0., 0., 128., 63., 0., 0., 64., 65., 0.,
          0., 96., 65., 0., 0. ]
      - [ 0., 0., 128., 63., 0., 0., 128., 63., 0., 0., 64., 64., 0., 0.,
          0., 0., 248., 65., 0., 0., 9., 67., 0., 0., 128., 65., 0., 0.,
          0., 0., 168., 65., 0., 0., 208., 65., 0., 0., 32., 65., 0., 0.,
          0., 0., 184., 66., 0., 0., 248., 65., 0., 0., 128., 63., 0.,
          0., 0., 0., 176., 65., 0., 0., 24., 66., 0., 0., 36., 66., 0.,
          0., 0., 0., 182., 66., 0., 0., 128., 65., 0., 0., 128., 63.,
          0., 0., 0., 0., 32., 66., 0., 0., 32., 66., 0., 0., 16., 65.,
          0., 0., 0., 0., 0., 0., 0., 0., 160., 64., 0., 0., 174., 66.,
          0., 0., 0., 0., 128., 64., 0., 0., 64., 65., 0., 0., 64., 66.,
          0., 0., 0., 0., 32., 66., 0., 0., 232., 66., 0., 0., 160., 64.,
          0., 0., 0., 0., 80., 66., 0., 0., 184., 66., 0., 0., 128., 63.,
          0., 0., 0., 0., 24., 66., 0., 0., 214., 66., 0., 0., 168., 65.,
          0., 0., 0., 0., 40., 66., 0., 0., 128., 64., 0., 0., 0., 0.,
          0., 0., 0., 0., 130., 66., 0., 0., 128., 63., 0., 0., 128.,
          63., 0., 0. ]
      - [ 0., 0., 16., 65., 0., 0., 224., 64., 0., 0., 232., 65., 0., 0.,
          0., 0., 224., 64., 0., 0., 0., 0., 0., 0., 0., 0., 0., 0., 0.,
          0., 128., 65., 0., 0., 0., 0., 0., 0., 0., 0., 0., 0., 0., 0.,
          184., 65., 0., 0., 48., 65., 0., 0., 16., 65., 0., 0., 0., 0.,
          0., 0., 0., 0., 128., 63., 0., 0., 234., 66., 0., 0., 0., 0.,
          232., 65., 0., 0., 128., 65., 0., 0., 192., 64., 0., 0., 0.,
          0., 52., 66., 0., 0., 128., 65., 0., 0., 0., 0., 0., 0., 0.,
          0., 20., 66., 0., 0., 244., 66., 0., 0., 224., 64., 0., 0., 0.,
          0., 0., 66., 0., 0., 170., 66., 0., 0., 216., 65., 0., 0., 0.,
          0., 204., 66., 0., 0., 128., 64., 0., 0., 0., 0., 0., 0., 0.,
          0., 240., 66., 0., 0., 152., 65., 0., 0., 0., 0., 0., 0., 0.,
          0., 112., 65., 0., 0., 176., 65., 0., 0., 208., 65., 0., 0.,
          0., 0., 64., 65., 0., 0., 120., 66., 0., 0., 176., 66., 0., 0.,
          0., 0., 64., 65., 0., 0., 0., 0., 0., 0., 128., 63., 0., 0. ]
      - [ 0., 0., 0., 65., 0., 0., 176., 66., 0., 0., 144., 66., 0., 0.,
          0., 0., 0., 64., 0., 0., 12., 66., 0., 0., 64., 66., 0., 0.,
          0., 0., 72., 66., 0., 0., 160., 65., 0., 0., 128., 63., 0., 0.,
          0., 0., 224., 64., 0., 0., 64., 64., 0., 0., 0., 64., 0., 0.,
          0., 0., 200., 65., 0., 0., 248., 66., 0., 0., 192., 64., 0.,
          0., 0., 0., 128., 65., 0., 0., 0., 0., 0., 0., 0., 0., 0., 0.,
          0., 0., 128., 64., 0., 0., 128., 63., 0., 0., 128., 63., 0.,
          0., 0., 0., 16., 65., 0., 0., 208., 65., 0., 0., 176., 65., 0.,
          0., 0., 0., 64., 64., 0., 0., 0., 0., 0., 0., 64., 65., 0., 0.,
          0., 0., 160., 64., 0., 0., 128., 64., 0., 0., 224., 64., 0.,
          0., 0., 0., 248., 65., 0., 0., 174., 66., 0., 0., 16., 66., 0.,
          0., 0., 0., 0., 64., 0., 0., 168., 65., 0., 0., 0., 66., 0.,
          0., 0., 0., 192., 64., 0., 0., 16., 65., 0., 0., 32., 65., 0.,
          0., 0., 0., 208., 66., 0., 0., 184., 65., 0., 0., 0., 0., 0.,
          0. ]
      - [ 0., 0., 16., 66., 0., 0., 64., 66., 0., 0., 224., 65., 0., 0.,
          0., 0., 0., 0., 0., 0., 0., 0., 0., 0., 0., 0., 0., 0., 0., 0.,
          116., 66., 0., 0., 9., 67., 0., 0., 96., 65., 0., 0., 0., 0.,
          64., 65., 0., 0., 192., 64., 0., 0., 32., 65., 0., 0., 0., 0.,
          128., 63., 0., 0., 184., 66., 0., 0., 142., 66., 0., 0., 0.,
          0., 0., 0., 0., 0., 0., 64., 0., 0., 230., 66., 0., 0., 0., 0.,
          0., 67., 0., 0., 158., 66., 0., 0., 216., 65., 0., 0., 0., 0.,
          160., 64., 0., 0., 192., 64., 0., 0., 160., 65., 0., 0., 0.,
          0., 192., 64., 0., 0., 68., 66., 0., 0., 250., 66., 0., 0., 0.,
          0., 128., 64., 0., 0., 32., 65., 0., 0., 224., 64., 0., 0., 0.,
          0., 232., 65., 0., 0., 2., 67., 0., 0., 216., 65., 0., 0., 0.,
          0., 160., 64., 0., 0., 0., 0., 0., 0., 0., 0., 0., 0., 0., 0.,
          0., 0., 0., 0., 0., 0., 0., 0., 0., 0., 0., 0., 0., 0., 0., 0.,
          0., 0., 0., 0., 0., 0., 0., 0., 0., 0. ]
      - [ 0., 0., 80., 65., 0., 0., 0., 65., 0., 0., 20., 66., 0., 0.,
          0., 0., 112., 65., 0., 0., 16., 66., 0., 0., 96., 66., 0., 0.,
          0., 0., 108., 66., 0., 0., 224., 65., 0., 0., 16., 65., 0., 0.,
          0., 0., 40., 66., 0., 0., 200., 66., 0., 0., 208., 66., 0., 0.,
          0., 0., 168., 65., 0., 0., 248., 65., 0., 0., 208., 65., 0.,
          0., 0., 0., 224., 64., 0., 0., 176., 65., 0., 0., 4., 66., 0.,
          0., 0., 0., 128., 65., 0., 0., 56., 66., 0., 0., 200., 65., 0.,
          0., 0., 0., 168., 65., 0., 0., 92., 66., 0., 0., 4., 66., 0.,
          0., 0., 0., 0., 0., 0., 0., 128., 63., 0., 0., 168., 65., 0.,
          0., 0., 0., 128., 64., 0., 0., 192., 64., 0., 0., 128., 63.,
          0., 0., 0., 0., 192., 64., 0., 0., 128., 63., 0., 0., 128.,
          63., 0., 0., 0., 0., 128., 63., 0., 0., 16., 66., 0., 0., 218.,
          66., 0., 0., 0., 0., 96., 65., 0., 0., 248., 65., 0., 0., 0.,
          0., 0., 0., 0., 0., 240., 65., 0., 0., 192., 64., 0., 0., 0.,
          0., 0., 0. ]
      - [ 0., 0., 128., 63., 0., 0., 160., 64., 0., 0., 248., 65., 0.,
          0., 0., 0., 128., 63., 0., 0., 128., 63., 0., 0., 0., 0., 0.,
          0., 0., 0., 0., 64., 0., 0., 0., 0., 0., 0., 0., 64., 0., 0.,
          0., 0., 214., 66., 0., 0., 192., 66., 0., 0., 148., 66., 0.,
          0., 0., 0., 0., 64., 0., 0., 224., 64., 0., 0., 128., 63., 0.,
          0., 0., 0., 16., 65., 0., 0., 40., 66., 0., 0., 240., 65., 0.,
          0., 0., 0., 128., 63., 0., 0., 88., 66., 0., 0., 210., 66., 0.,
          0., 0., 0., 152., 65., 0., 0., 64., 66., 0., 0., 16., 65., 0.,
          0., 0., 0., 20., 66., 0., 0., 192., 64., 0., 0., 0., 0., 0.,
          0., 0., 0., 200., 66., 0., 0., 192., 66., 0., 0., 128., 65.,
          0., 0., 0., 0., 8., 66., 0., 0., 172., 66., 0., 0., 176., 65.,
          0., 0., 0., 0., 224., 64., 0., 0., 184., 65., 0., 0., 0., 64.,
          0., 0., 0., 0., 0., 64., 0., 0., 96., 65., 0., 0., 200., 65.,
          0., 0., 0., 0., 0., 65., 0., 0., 20., 66., 0., 0., 60., 66.,
          0., 0. ]
      - [ 0., 0., 8., 66., 0., 0., 200., 66., 0., 0., 236., 66., 0., 0.,
          0., 0., 0., 0., 0., 0., 0., 0., 0., 0., 0., 64., 0., 0., 0.,
          0., 36., 66., 0., 0., 64., 64., 0., 0., 0., 0., 0., 0., 0., 0.,
          156., 66., 0., 0., 148., 66., 0., 0., 0., 0., 0., 0., 0., 0.,
          224., 65., 0., 0., 198., 66., 0., 0., 104., 66., 0., 0., 0.,
          0., 192., 64., 0., 0., 192., 65., 0., 0., 238., 66., 0., 0.,
          0., 0., 0., 0., 0., 0., 168., 65., 0., 0., 190., 66., 0., 0.,
          0., 0., 0., 64., 0., 0., 16., 65., 0., 0., 16., 65., 0., 0.,
          0., 0., 128., 63., 0., 0., 0., 64., 0., 0., 200., 65., 0., 0.,
          0., 0., 128., 63., 0., 0., 144., 65., 0., 0., 120., 66., 0.,
          0., 0., 0., 0., 0., 0., 0., 128., 63., 0., 0., 0., 64., 0., 0.,
          0., 0., 128., 63., 0., 0., 36., 66., 0., 0., 238., 66., 0., 0.,
          0., 0., 0., 64., 0., 0., 184., 65., 0., 0., 238., 66., 0., 0.,
          0., 0., 160., 65., 0., 0., 208., 66., 0., 0., 224., 66., 0.,
          0. ]
      - [ 0., 0., 130., 66., 0., 0., 0., 0., 0., 0., 0., 0., 0., 0., 0.,
          0., 168., 66., 0., 0., 176., 66., 0., 0., 16., 65., 0., 0., 0.,
          0., 64., 64., 0., 0., 32., 65., 0., 0., 190., 66., 0., 0., 0.,
          0., 60., 66., 0., 0., 8., 66., 0., 0., 224., 64., 0., 0., 0.,
          0., 72., 66., 0., 0., 208., 65., 0., 0., 0., 0., 0., 0., 0.,
          0., 224., 64., 0., 0., 32., 65., 0., 0., 224., 64., 0., 0., 0.,
          0., 0., 65., 0., 0., 0., 0., 0., 0., 128., 64., 0., 0., 0., 0.,
          56., 66., 0., 0., 60., 66., 0., 0., 128., 65., 0., 0., 0., 0.,
          152., 65., 0., 0., 128., 64., 0., 0., 0., 0., 0., 0., 0., 0.,
          204., 66., 0., 0., 224., 65., 0., 0., 136., 65., 0., 0., 0.,
          0., 64., 64., 0., 0., 0., 0., 0., 0., 0., 0., 0., 0., 0., 0.,
          80., 66., 0., 0., 0., 66., 0., 0., 160., 64., 0., 0., 0., 0.,
          128., 63., 0., 0., 160., 64., 0., 0., 4., 66., 0., 0., 0., 0.,
          0., 0., 0., 0., 96., 65., 0., 0., 254., 66., 0., 0. ]
      - [ 0., 0., 238., 66., 0., 0., 198., 66., 0., 0., 80., 65., 0., 0.,
          0., 0., 0., 65., 0., 0., 166., 66., 0., 0., 146., 66., 0., 0.,
          0., 0., 224., 64., 0., 0., 160., 64., 0., 0., 64., 64., 0., 0.,
          0., 0., 236., 66., 0., 0., 200., 65., 0., 0., 0., 0., 0., 0.,
          0., 0., 0., 0., 0., 0., 0., 0., 0., 0., 128., 63., 0., 0., 0.,
          0., 144., 65., 0., 0., 80., 65., 0., 0., 8., 66., 0., 0., 0.,
          0., 160., 64., 0., 0., 0., 0., 0., 0., 0., 0., 0., 0., 0., 0.,
          224., 64., 0., 0., 184., 65., 0., 0., 154., 66., 0., 0., 0.,
          0., 128., 63., 0., 0., 144., 65., 0., 0., 3., 67., 0., 0., 0.,
          0., 0., 64., 0., 0., 178., 66., 0., 0., 52., 66., 0., 0., 0.,
          0., 0., 0., 0., 0., 0., 0., 0., 0., 140., 66., 0., 0., 0., 0.,
          0., 0., 0., 0., 128., 63., 0., 0., 152., 65., 0., 0., 0., 0.,
          184., 65., 0., 0., 128., 63., 0., 0., 0., 0., 0., 0., 0., 0.,
          0., 65., 0., 0., 232., 65., 0., 0., 168., 66., 0., 0. ]
      - [ 0., 0., 192., 64., 0., 0., 48., 65., 0., 0., 128., 65., 0., 0.,
          0., 0., 92., 66., 0., 0., 136., 65., 0., 0., 0., 0., 0., 0.,
          0., 0., 24., 66., 0., 0., 128., 65., 0., 0., 0., 0., 0., 0.,
          0., 0., 44., 66., 0., 0., 14., 67., 0., 0., 0., 64., 0., 0.,
          0., 0., 16., 65., 0., 0., 128., 63., 0., 0., 0., 0., 0., 0.,
          0., 0., 128., 63., 0., 0., 0., 64., 0., 0., 160., 64., 0., 0.,
          0., 0., 160., 64., 0., 0., 248., 66., 0., 0., 212., 66., 0.,
          0., 0., 0., 0., 64., 0., 0., 216., 65., 0., 0., 140., 66., 0.,
          0., 0., 0., 158., 66., 0., 0., 128., 63., 0., 0., 128., 63.,
          0., 0., 0., 0., 124., 66., 0., 0., 248., 65., 0., 0., 0., 0.,
          0., 0., 0., 0., 168., 65., 0., 0., 64., 64., 0., 0., 0., 0.,
          0., 0., 0., 0., 192., 64., 0., 0., 0., 64., 0., 0., 0., 0., 0.,
          0., 0., 0., 224., 65., 0., 0., 128., 64., 0., 0., 0., 0., 0.,
          0., 0., 0., 92., 66., 0., 0., 240., 65., 0., 0., 96., 65., 0.,
          0. ]
      - [ 0., 0., 112., 66., 0., 0., 0., 64., 0., 0., 0., 0., 0., 0., 0.,
          0., 200., 65., 0., 0., 32., 65., 0., 0., 192., 64., 0., 0., 0.,
          0., 112., 66., 0., 0., 160., 64., 0., 0., 128., 63., 0., 0.,
          0., 0., 64., 64., 0., 0., 144., 65., 0., 0., 212., 66., 0., 0.,
          0., 0., 138., 66., 0., 0., 16., 66., 0., 0., 184., 65., 0., 0.,
          0., 0., 0., 64., 0., 0., 248., 65., 0., 0., 128., 66., 0., 0.,
          0., 0., 136., 65., 0., 0., 144., 65., 0., 0., 192., 64., 0.,
          0., 0., 0., 182., 66., 0., 0., 176., 65., 0., 0., 64., 64., 0.,
          0., 0., 0., 0., 0., 0., 0., 0., 64., 0., 0., 80., 66., 0., 0.,
          0., 0., 184., 65., 0., 0., 64., 65., 0., 0., 128., 63., 0., 0.,
          0., 0., 128., 65., 0., 0., 200., 65., 0., 0., 20., 66., 0., 0.,
          0., 0., 152., 65., 0., 0., 192., 64., 0., 0., 64., 64., 0., 0.,
          0., 0., 16., 65., 0., 0., 168., 65., 0., 0., 16., 66., 0., 0.,
          0., 0., 144., 65., 0., 0., 184., 65., 0., 0., 128., 63., 0.,
          0. ]
      - [ 0., 0., 28., 66., 0., 0., 88., 66., 0., 0., 0., 66., 0., 0.,
          0., 0., 136., 65., 0., 0., 192., 64., 0., 0., 16., 65., 0., 0.,
          0., 0., 108., 66., 0., 0., 112., 65., 0., 0., 96., 65., 0., 0.,
          0., 0., 64., 64., 0., 0., 224., 64., 0., 0., 112., 65., 0., 0.,
          0., 0., 64., 65., 0., 0., 112., 65., 0., 0., 240., 65., 0., 0.,
          0., 0., 232., 66., 0., 0., 80., 66., 0., 0., 48., 66., 0., 0.,
          0., 0., 234., 66., 0., 0., 136., 65., 0., 0., 224., 64., 0.,
          0., 0., 0., 224., 64., 0., 0., 64., 65., 0., 0., 216., 66., 0.,
          0., 0., 0., 232., 66., 0., 0., 28., 66., 0., 0., 128., 64., 0.,
          0., 0., 0., 64., 65., 0., 0., 0., 64., 0., 0., 128., 63., 0.,
          0., 0., 0., 64., 65., 0., 0., 152., 65., 0., 0., 248., 65., 0.,
          0., 0., 0., 160., 64., 0., 0., 112., 65., 0., 0., 224., 65.,
          0., 0., 0., 0., 136., 65., 0., 0., 128., 63., 0., 0., 0., 0.,
          0., 0., 0., 0., 250., 66., 0., 0., 68., 66., 0., 0., 0., 0.,
          0., 0. ]
      - [ 0., 0., 192., 64., 0., 0., 200., 65., 0., 0., 116., 66., 0.,
          0., 0., 0., 64., 64., 0., 0., 248., 65., 0., 0., 60., 66., 0.,
          0., 0., 0., 192., 64., 0., 0., 128., 63., 0., 0., 0., 0., 0.,
          0., 0., 0., 32., 66., 0., 0., 32., 65., 0., 0., 0., 64., 0.,
          0., 0., 0., 64., 64., 0., 0., 128., 64., 0., 0., 64., 65., 0.,
          0., 0., 0., 36., 66., 0., 0., 96., 65., 0., 0., 248., 65., 0.,
          0., 0., 0., 160., 65., 0., 0., 192., 64., 0., 0., 168., 65.,
          0., 0., 0., 0., 136., 66., 0., 0., 208., 65., 0., 0., 224.,
          64., 0., 0., 0., 0., 0., 64., 0., 0., 0., 64., 0., 0., 128.,
          63., 0., 0., 0., 0., 160., 64., 0., 0., 16., 65., 0., 0., 152.,
          65., 0., 0., 0., 0., 64., 64., 0., 0., 32., 65., 0., 0., 192.,
          65., 0., 0., 0., 0., 40., 66., 0., 0., 216., 65., 0., 0., 160.,
          64., 0., 0., 0., 0., 32., 65., 0., 0., 192., 64., 0., 0., 160.,
          64., 0., 0., 0., 0., 128., 64., 0., 0., 248., 65., 0., 0.,
          150., 66., 0., 0. ]
      - [ 0., 0., 128., 63., 0., 0., 216., 65., 0., 0., 64., 66., 0., 0.,
          0., 0., 36., 66., 0., 0., 128., 66., 0., 0., 128., 63., 0., 0.,
          0., 0., 252., 66., 0., 0., 234., 66., 0., 0., 240., 65., 0.,
          0., 0., 0., 48., 65., 0., 0., 0., 0., 0., 0., 0., 0., 0., 0.,
          0., 0., 0., 65., 0., 0., 128., 65., 0., 0., 0., 64., 0., 0.,
          0., 0., 234., 66., 0., 0., 100., 66., 0., 0., 224., 64., 0.,
          0., 0., 0., 160., 65., 0., 0., 208., 65., 0., 0., 96., 66., 0.,
          0., 0., 0., 96., 65., 0., 0., 144., 65., 0., 0., 128., 63., 0.,
          0., 0., 0., 104., 66., 0., 0., 0., 65., 0., 0., 128., 63., 0.,
          0., 0., 0., 64., 64., 0., 0., 192., 64., 0., 0., 32., 65., 0.,
          0., 0., 0., 48., 65., 0., 0., 240., 65., 0., 0., 64., 65., 0.,
          0., 0., 0., 96., 65., 0., 0., 160., 65., 0., 0., 0., 65., 0.,
          0., 0., 0., 60., 66., 0., 0., 28., 66., 0., 0., 0., 65., 0.,
          0., 0., 0., 32., 65., 0., 0., 0., 0., 0., 0., 0., 0., 0., 0. ]
      - [ 0., 0., 160., 66., 0., 0., 216., 65., 0., 0., 80., 65., 0., 0.,
          0., 0., 108., 66., 0., 0., 60., 66., 0., 0., 192., 64., 0., 0.,
          0., 0., 248., 66., 0., 0., 132., 66., 0., 0., 0., 64., 0., 0.,
          0., 0., 80., 65., 0., 0., 128., 63., 0., 0., 128., 63., 0., 0.,
          0., 0., 224., 64., 0., 0., 240., 66., 0., 0., 240., 66., 0.,
          0., 0., 0., 80., 66., 0., 0., 24., 66., 0., 0., 0., 0., 0., 0.,
          0., 0., 224., 65., 0., 0., 8., 66., 0., 0., 0., 65., 0., 0.,
          0., 0., 208., 65., 0., 0., 184., 65., 0., 0., 0., 64., 0., 0.,
          0., 0., 144., 65., 0., 0., 96., 65., 0., 0., 128., 63., 0., 0.,
          0., 0., 192., 64., 0., 0., 128., 64., 0., 0., 140., 66., 0.,
          0., 0., 0., 64., 64., 0., 0., 224., 65., 0., 0., 92., 66., 0.,
          0., 0., 0., 128., 63., 0., 0., 128., 65., 0., 0., 154., 66.,
          0., 0., 0., 0., 224., 65., 0., 0., 136., 66., 0., 0., 88., 66.,
          0., 0., 0., 0., 80., 65., 0., 0., 16., 65., 0., 0., 80., 65.,
          0., 0. ]
      - [ 0., 0., 108., 66., 0., 0., 184., 65., 0., 0., 168., 65., 0.,
          0., 0., 0., 170., 66., 0., 0., 240., 65., 0., 0., 224., 64.,
          0., 0., 0., 0., 20., 66., 0., 0., 136., 65., 0., 0., 0., 64.,
          0., 0., 0., 0., 64., 65., 0., 0., 160., 64., 0., 0., 128., 64.,
          0., 0., 0., 0., 192., 64., 0., 0., 184., 65., 0., 0., 44., 66.,
          0., 0., 0., 0., 192., 64., 0., 0., 0., 65., 0., 0., 128., 63.,
          0., 0., 0., 0., 0., 0., 0., 0., 0., 0., 0., 0., 144., 65., 0.,
          0., 0., 0., 80., 65., 0., 0., 208., 66., 0., 0., 198., 66., 0.,
          0., 0., 0., 128., 65., 0., 0., 216., 65., 0., 0., 64., 64., 0.,
          0., 0., 0., 48., 65., 0., 0., 192., 64., 0., 0., 128., 63., 0.,
          0., 0., 0., 128., 63., 0., 0., 128., 64., 0., 0., 176., 65.,
          0., 0., 0., 0., 0., 65., 0., 0., 240., 65., 0., 0., 248., 65.,
          0., 0., 0., 0., 128., 63., 0., 0., 64., 64., 0., 0., 0., 64.,
          0., 0., 0., 0., 140., 66., 0., 0., 192., 64., 0., 0., 16., 65.,
          0., 0. ]
      - [ 0., 0., 0., 0., 0., 0., 0., 0., 0., 0., 0., 0., 0., 0., 0., 0.,
          240., 65., 0., 0., 136., 65., 0., 0., 68., 66., 0., 0., 0., 0.,
          48., 65., 0., 0., 96., 65., 0., 0., 176., 65., 0., 0., 0., 0.,
          0., 0., 0., 0., 0., 0., 0., 0., 0., 0., 0., 0., 0., 0., 224.,
          65., 0., 0., 4., 66., 0., 0., 40., 66., 0., 0., 0., 0., 0.,
          64., 0., 0., 206., 66., 0., 0., 246., 66., 0., 0., 0., 0.,
          192., 64., 0., 0., 152., 65., 0., 0., 96., 66., 0., 0., 0., 0.,
          64., 64., 0., 0., 92., 66., 0., 0., 250., 66., 0., 0., 0., 0.,
          192., 64., 0., 0., 0., 0., 0., 0., 0., 0., 0., 0., 0., 0., 96.,
          65., 0., 0., 160., 64., 0., 0., 0., 64., 0., 0., 0., 0., 160.,
          65., 0., 0., 128., 63., 0., 0., 64., 64., 0., 0., 0., 0., 0.,
          66., 0., 0., 144., 65., 0., 0., 224., 64., 0., 0., 0., 0.,
          136., 65., 0., 0., 244., 66., 0., 0., 152., 65., 0., 0., 0.,
          0., 0., 0., 0., 0., 128., 63., 0., 0., 160., 64., 0., 0. ]
      - [ 0., 0., 144., 65., 0., 0., 136., 65., 0., 0., 192., 64., 0.,
          0., 0., 0., 192., 64., 0., 0., 224., 64., 0., 0., 80., 65., 0.,
          0., 0., 0., 56., 66., 0., 0., 128., 63., 0., 0., 0., 0., 0.,
          0., 0., 0., 0., 66., 0., 0., 64., 64., 0., 0., 0., 64., 0., 0.,
          0., 0., 120., 66., 0., 0., 8., 66., 0., 0., 136., 65., 0., 0.,
          0., 0., 152., 65., 0., 0., 224., 64., 0., 0., 0., 0., 0., 0.,
          0., 0., 208., 65., 0., 0., 64., 64., 0., 0., 0., 0., 0., 0.,
          0., 0., 80., 66., 0., 0., 128., 64., 0., 0., 0., 0., 0., 0.,
          0., 0., 24., 66., 0., 0., 0., 64., 0., 0., 0., 0., 0., 0., 0.,
          0., 204., 66., 0., 0., 32., 66., 0., 0., 112., 65., 0., 0., 0.,
          0., 176., 65., 0., 0., 48., 65., 0., 0., 200., 65., 0., 0., 0.,
          0., 184., 65., 0., 0., 128., 64., 0., 0., 128., 63., 0., 0.,
          0., 0., 168., 65., 0., 0., 192., 65., 0., 0., 96., 65., 0., 0.,
          0., 0., 48., 65., 0., 0., 224., 65., 0., 0., 36., 66., 0., 0. ]
      - [ 0., 0., 176., 65., 0., 0., 44., 66., 0., 0., 196., 66., 0., 0.,
          0., 0., 176., 65., 0., 0., 160., 65., 0., 0., 88., 66., 0., 0.,
          0., 0., 0., 0., 0., 0., 0., 0., 0., 0., 160., 64., 0., 0., 0.,
          0., 128., 63., 0., 0., 16., 65., 0., 0., 160., 64., 0., 0., 0.,
          0., 96., 65., 0., 0., 76., 66., 0., 0., 192., 65., 0., 0., 0.,
          0., 128., 63., 0., 0., 192., 64., 0., 0., 128., 64., 0., 0.,
          0., 0., 108., 66., 0., 0., 176., 65., 0., 0., 32., 65., 0., 0.,
          0., 0., 160., 65., 0., 0., 4., 66., 0., 0., 142., 66., 0., 0.,
          0., 0., 16., 66., 0., 0., 200., 65., 0., 0., 150., 66., 0., 0.,
          0., 0., 134., 66., 0., 0., 200., 65., 0., 0., 0., 66., 0., 0.,
          0., 0., 0., 0., 0., 0., 128., 64., 0., 0., 166., 66., 0., 0.,
          0., 0., 240., 65., 0., 0., 184., 65., 0., 0., 216., 65., 0.,
          0., 0., 0., 28., 66., 0., 0., 218., 66., 0., 0., 160., 64., 0.,
          0., 0., 0., 216., 66., 0., 0., 178., 66., 0., 0., 112., 66.,
          0., 0. ]
      - [ 0., 0., 0., 0., 0., 0., 224., 64., 0., 0., 128., 66., 0., 0.,
          0., 0., 252., 66., 0., 0., 254., 66., 0., 0., 192., 65., 0.,
          0., 0., 0., 4., 66., 0., 0., 16., 65., 0., 0., 224., 65., 0.,
          0., 0., 0., 0., 0., 0., 0., 0., 0., 0., 0., 0., 0., 0., 0., 0.,
          0., 64., 65., 0., 0., 16., 66., 0., 0., 224., 65., 0., 0., 0.,
          0., 128., 64., 0., 0., 160., 64., 0., 0., 162., 66., 0., 0.,
          0., 0., 96., 65., 0., 0., 128., 66., 0., 0., 240., 65., 0., 0.,
          0., 0., 96., 66., 0., 0., 140., 66., 0., 0., 64., 65., 0., 0.,
          0., 0., 20., 66., 0., 0., 164., 66., 0., 0., 176., 65., 0., 0.,
          0., 0., 136., 65., 0., 0., 220., 66., 0., 0., 198., 66., 0.,
          0., 0., 0., 128., 63., 0., 0., 0., 64., 0., 0., 128., 63., 0.,
          0., 0., 0., 0., 0., 0., 0., 0., 0., 0., 0., 0., 0., 0., 0., 0.,
          0., 32., 65., 0., 0., 224., 64., 0., 0., 96., 65., 0., 0., 0.,
          0., 226., 66., 0., 0., 192., 64., 0., 0., 128., 64., 0., 0. ]
      - [ 0., 0., 232., 65., 0., 0., 36., 66., 0., 0., 0., 0., 0., 0.,
          0., 0., 60., 66., 0., 0., 52., 66., 0., 0., 0., 65., 0., 0.,
          0., 0., 0., 0., 0., 0., 0., 0., 0., 0., 0., 0., 0., 0., 0., 0.,
          218., 66., 0., 0., 5., 67., 0., 0., 224., 64., 0., 0., 0., 0.,
          142., 66., 0., 0., 0., 64., 0., 0., 0., 0., 0., 0., 0., 0.,
          12., 66., 0., 0., 128., 63., 0., 0., 0., 0., 0., 0., 0., 0.,
          84., 66., 0., 0., 0., 64., 0., 0., 48., 65., 0., 0., 0., 0.,
          246., 66., 0., 0., 0., 65., 0., 0., 0., 0., 0., 0., 0., 0.,
          128., 63., 0., 0., 128., 63., 0., 0., 16., 65., 0., 0., 0., 0.,
          28., 66., 0., 0., 64., 64., 0., 0., 128., 64., 0., 0., 0., 0.,
          32., 66., 0., 0., 80., 65., 0., 0., 160., 64., 0., 0., 0., 0.,
          0., 0., 0., 0., 128., 63., 0., 0., 192., 64., 0., 0., 0., 0.,
          64., 64., 0., 0., 0., 64., 0., 0., 128., 64., 0., 0., 0., 0.,
          152., 65., 0., 0., 16., 65., 0., 0., 128., 63., 0., 0. ]
      - [ 0., 0., 0., 0., 0., 0., 0., 0., 0., 0., 0., 0., 0., 0., 0., 0.,
          7., 67., 0., 0., 200., 65., 0., 0., 0., 64., 0., 0., 0., 0.,
          138., 66., 0., 0., 32., 65., 0., 0., 224., 64., 0., 0., 0., 0.,
          176., 65., 0., 0., 144., 65., 0., 0., 142., 66., 0., 0., 0.,
          0., 64., 64., 0., 0., 192., 64., 0., 0., 128., 64., 0., 0., 0.,
          0., 154., 66., 0., 0., 192., 66., 0., 0., 96., 65., 0., 0., 0.,
          0., 242., 66., 0., 0., 132., 66., 0., 0., 0., 0., 0., 0., 0.,
          0., 216., 65., 0., 0., 136., 65., 0., 0., 128., 64., 0., 0.,
          0., 0., 116., 66., 0., 0., 168., 65., 0., 0., 152., 65., 0.,
          0., 0., 0., 128., 63., 0., 0., 224., 64., 0., 0., 150., 66.,
          0., 0., 0., 0., 128., 63., 0., 0., 128., 63., 0., 0., 128.,
          63., 0., 0., 0., 0., 16., 66., 0., 0., 150., 66., 0., 0., 48.,
          65., 0., 0., 0., 0., 224., 65., 0., 0., 202., 66., 0., 0.,
          232., 65., 0., 0., 0., 0., 224., 65., 0., 0., 96., 65., 0., 0.,
          224., 64., 0., 0. ]
      - [ 0., 0., 224., 64., 0., 0., 160., 64., 0., 0., 192., 64., 0.,
          0., 0., 0., 160., 64., 0., 0., 216., 65., 0., 0., 132., 66.,
          0., 0., 0., 0., 80., 65., 0., 0., 192., 65., 0., 0., 18., 67.,
          0., 0., 0., 0., 0., 65., 0., 0., 194., 66., 0., 0., 186., 66.,
          0., 0., 0., 0., 120., 66., 0., 0., 146., 66., 0., 0., 128.,
          64., 0., 0., 0., 0., 160., 65., 0., 0., 64., 64., 0., 0., 160.,
          64., 0., 0., 0., 0., 0., 0., 0., 0., 0., 0., 0., 0., 128., 63.,
          0., 0., 0., 0., 32., 65., 0., 0., 136., 65., 0., 0., 160., 64.,
          0., 0., 0., 0., 0., 65., 0., 0., 192., 64., 0., 0., 16., 65.,
          0., 0., 0., 0., 80., 65., 0., 0., 64., 65., 0., 0., 224., 65.,
          0., 0., 0., 0., 160., 64., 0., 0., 192., 64., 0., 0., 28., 66.,
          0., 0., 0., 0., 116., 66., 0., 0., 128., 64., 0., 0., 128.,
          63., 0., 0., 0., 0., 240., 65., 0., 0., 43., 67., 0., 0., 128.,
          65., 0., 0., 0., 0., 224., 64., 0., 0., 32., 65., 0., 0., 224.,
          64., 0., 0. ]
      - [ 0., 0., 24., 66., 0., 0., 0., 0., 0., 0., 0., 0., 0., 0., 0.,
          0., 252., 66., 0., 0., 192., 64., 0., 0., 0., 0., 0., 0., 0.,
          0., 100., 66., 0., 0., 248., 65., 0., 0., 192., 64., 0., 0.,
          0., 0., 96., 66., 0., 0., 224., 64., 0., 0., 224., 64., 0., 0.,
          0., 0., 112., 66., 0., 0., 64., 64., 0., 0., 224., 64., 0., 0.,
          0., 0., 250., 66., 0., 0., 240., 65., 0., 0., 128., 64., 0.,
          0., 0., 0., 174., 66., 0., 0., 28., 66., 0., 0., 0., 0., 0.,
          0., 0., 0., 248., 66., 0., 0., 204., 66., 0., 0., 0., 0., 0.,
          0., 0., 0., 136., 66., 0., 0., 192., 64., 0., 0., 192., 64.,
          0., 0., 0., 0., 240., 66., 0., 0., 160., 64., 0., 0., 0., 0.,
          0., 0., 0., 0., 192., 66., 0., 0., 128., 63., 0., 0., 0., 0.,
          0., 0., 0., 0., 0., 0., 0., 0., 128., 63., 0., 0., 128., 63.,
          0., 0., 0., 0., 10., 67., 0., 0., 0., 0., 0., 0., 0., 0., 0.,
          0., 0., 0., 20., 66., 0., 0., 128., 63., 0., 0., 0., 0., 0.,
          0. ]
      - [ 0., 0., 230., 66., 0., 0., 136., 66., 0., 0., 0., 0., 0., 0.,
          0., 0., 24., 66., 0., 0., 160., 64., 0., 0., 0., 0., 0., 0.,
          0., 0., 252., 66., 0., 0., 120., 66., 0., 0., 0., 0., 0., 0.,
          0., 0., 200., 65., 0., 0., 16., 65., 0., 0., 128., 63., 0., 0.,
          0., 0., 184., 65., 0., 0., 242., 66., 0., 0., 32., 65., 0., 0.,
          0., 0., 64., 64., 0., 0., 0., 0., 0., 0., 0., 0., 0., 0., 0.,
          0., 13., 67., 0., 0., 13., 67., 0., 0., 0., 0., 0., 0., 0., 0.,
          160., 65., 0., 0., 64., 64., 0., 0., 0., 0., 0., 0., 0., 0.,
          32., 65., 0., 0., 160., 64., 0., 0., 0., 0., 0., 0., 0., 0.,
          4., 66., 0., 0., 64., 64., 0., 0., 0., 64., 0., 0., 0., 0.,
          250., 66., 0., 0., 222., 66., 0., 0., 128., 64., 0., 0., 0.,
          0., 128., 63., 0., 0., 28., 66., 0., 0., 5., 67., 0., 0., 0.,
          0., 112., 66., 0., 0., 206., 66., 0., 0., 160., 64., 0., 0.,
          0., 0., 112., 66., 0., 0., 192., 65., 0., 0., 176., 65., 0.,
          0. ]
      - [ 0., 0., 208., 65., 0., 0., 136., 65., 0., 0., 128., 63., 0.,
          0., 0., 0., 128., 63., 0., 0., 0., 0., 0., 0., 0., 0., 0., 0.,
          0., 0., 196., 66., 0., 0., 116., 66., 0., 0., 0., 64., 0., 0.,
          0., 0., 160., 64., 0., 0., 64., 65., 0., 0., 80., 65., 0., 0.,
          0., 0., 96., 65., 0., 0., 48., 65., 0., 0., 128., 63., 0., 0.,
          0., 0., 148., 66., 0., 0., 68., 66., 0., 0., 192., 64., 0., 0.,
          0., 0., 224., 64., 0., 0., 216., 65., 0., 0., 254., 66., 0.,
          0., 0., 0., 216., 65., 0., 0., 68., 66., 0., 0., 248., 65., 0.,
          0., 0., 0., 0., 0., 0., 0., 0., 0., 0., 0., 160., 64., 0., 0.,
          0., 0., 0., 64., 0., 0., 40., 66., 0., 0., 194., 66., 0., 0.,
          0., 0., 250., 66., 0., 0., 212., 66., 0., 0., 64., 65., 0., 0.,
          0., 0., 32., 65., 0., 0., 224., 64., 0., 0., 128., 63., 0., 0.,
          0., 0., 144., 65., 0., 0., 0., 64., 0., 0., 0., 0., 0., 0., 0.,
          0., 48., 65., 0., 0., 176., 65., 0., 0., 32., 65., 0., 0. ]
      - [ 0., 0., 128., 64., 0., 0., 160., 65., 0., 0., 176., 65., 0.,
          0., 0., 0., 48., 66., 0., 0., 32., 65., 0., 0., 128., 63., 0.,
          0., 0., 0., 224., 65., 0., 0., 20., 66., 0., 0., 184., 65., 0.,
          0., 0., 0., 224., 64., 0., 0., 192., 65., 0., 0., 20., 66., 0.,
          0., 0., 0., 60., 66., 0., 0., 48., 66., 0., 0., 232., 65., 0.,
          0., 0., 0., 214., 66., 0., 0., 184., 65., 0., 0., 64., 65., 0.,
          0., 0., 0., 40., 66., 0., 0., 188., 66., 0., 0., 160., 65., 0.,
          0., 0., 0., 64., 66., 0., 0., 216., 65., 0., 0., 224., 64., 0.,
          0., 0., 0., 0., 0., 0., 0., 0., 0., 0., 0., 0., 0., 0., 0., 0.,
          0., 128., 64., 0., 0., 0., 64., 0., 0., 160., 64., 0., 0., 0.,
          0., 152., 65., 0., 0., 0., 64., 0., 0., 224., 64., 0., 0., 0.,
          0., 224., 64., 0., 0., 64., 65., 0., 0., 116., 66., 0., 0., 0.,
          0., 248., 65., 0., 0., 142., 66., 0., 0., 32., 65., 0., 0., 0.,
          0., 216., 65., 0., 0., 162., 66., 0., 0., 232., 65., 0., 0. ]
      - [ 0., 0., 112., 66., 0., 0., 204., 66., 0., 0., 224., 65., 0.,
          0., 0., 0., 154., 66., 0., 0., 152., 65., 0., 0., 128., 63.,
          0., 0., 0., 0., 208., 65., 0., 0., 80., 65., 0., 0., 64., 64.,
          0., 0., 0., 0., 192., 64., 0., 0., 128., 63., 0., 0., 16., 65.,
          0., 0., 0., 0., 192., 64., 0., 0., 16., 65., 0., 0., 36., 66.,
          0., 0., 0., 0., 194., 66., 0., 0., 4., 66., 0., 0., 0., 64.,
          0., 0., 0., 0., 152., 65., 0., 0., 32., 65., 0., 0., 192., 64.,
          0., 0., 0., 0., 240., 65., 0., 0., 248., 65., 0., 0., 0., 64.,
          0., 0., 0., 0., 160., 64., 0., 0., 64., 64., 0., 0., 80., 65.,
          0., 0., 0., 0., 128., 63., 0., 0., 248., 65., 0., 0., 162.,
          66., 0., 0., 0., 0., 0., 64., 0., 0., 232., 65., 0., 0., 222.,
          66., 0., 0., 0., 0., 128., 64., 0., 0., 160., 64., 0., 0.,
          128., 65., 0., 0., 0., 0., 146., 66., 0., 0., 128., 65., 0.,
          0., 96., 65., 0., 0., 0., 0., 0., 66., 0., 0., 160., 64., 0.,
          0., 128., 64., 0., 0. ]
      - [ 0., 0., 40., 66., 0., 0., 238., 66., 0., 0., 234., 66., 0., 0.,
          0., 0., 208., 66., 0., 0., 16., 65., 0., 0., 0., 0., 0., 0.,
          0., 0., 0., 65., 0., 0., 0., 64., 0., 0., 0., 64., 0., 0., 0.,
          0., 160., 64., 0., 0., 192., 64., 0., 0., 168., 65., 0., 0.,
          0., 0., 192., 65., 0., 0., 136., 65., 0., 0., 128., 63., 0.,
          0., 0., 0., 196., 66., 0., 0., 7., 67., 0., 0., 160., 64., 0.,
          0., 0., 0., 152., 65., 0., 0., 160., 65., 0., 0., 16., 65., 0.,
          0., 0., 0., 128., 63., 0., 0., 144., 65., 0., 0., 224., 65.,
          0., 0., 0., 0., 144., 65., 0., 0., 224., 64., 0., 0., 192.,
          64., 0., 0., 0., 0., 224., 64., 0., 0., 128., 63., 0., 0., 0.,
          65., 0., 0., 0., 0., 136., 65., 0., 0., 96., 65., 0., 0., 136.,
          65., 0., 0., 0., 0., 64., 64., 0., 0., 0., 64., 0., 0., 64.,
          65., 0., 0., 0., 0., 136., 65., 0., 0., 154., 66., 0., 0.,
          112., 65., 0., 0., 0., 0., 200., 65., 0., 0., 112., 65., 0.,
          0., 80., 65., 0., 0. ]
      - [ 0., 0., 160., 64., 0., 0., 96., 65., 0., 0., 198., 66., 0., 0.,
          0., 0., 160., 65., 0., 0., 20., 67., 0., 0., 88., 66., 0., 0.,
          0., 0., 64., 64., 0., 0., 128., 63., 0., 0., 0., 0., 0., 0.,
          0., 0., 92., 66., 0., 0., 124., 66., 0., 0., 224., 64., 0., 0.,
          0., 0., 192., 64., 0., 0., 168., 65., 0., 0., 176., 65., 0.,
          0., 0., 0., 248., 66., 0., 0., 220., 66., 0., 0., 164., 66.,
          0., 0., 0., 0., 224., 64., 0., 0., 192., 64., 0., 0., 128.,
          63., 0., 0., 0., 0., 152., 65., 0., 0., 64., 64., 0., 0., 128.,
          64., 0., 0., 0., 0., 144., 65., 0., 0., 64., 64., 0., 0., 0.,
          0., 0., 0., 0., 0., 0., 64., 0., 0., 128., 64., 0., 0., 64.,
          65., 0., 0., 0., 0., 104., 66., 0., 0., 152., 65., 0., 0., 0.,
          0., 0., 0., 0., 0., 100., 66., 0., 0., 224., 64., 0., 0., 64.,
          64., 0., 0., 0., 0., 168., 66., 0., 0., 184., 65., 0., 0.,
          160., 64., 0., 0., 0., 0., 72., 66., 0., 0., 4., 66., 0., 0.,
          0., 0., 0., 0. ]
      - [ 0., 0., 154., 66., 0., 0., 184., 65., 0., 0., 0., 65., 0., 0.,
          0., 0., 232., 66., 0., 0., 240., 65., 0., 0., 216., 65., 0.,
          0., 0., 0., 64., 66., 0., 0., 160., 64., 0., 0., 80., 65., 0.,
          0., 0., 0., 0., 0., 0., 0., 0., 0., 0., 0., 0., 0., 0., 0., 0.,
          0., 16., 66., 0., 0., 128., 63., 0., 0., 16., 65., 0., 0., 0.,
          0., 130., 66., 0., 0., 108., 66., 0., 0., 96., 65., 0., 0., 0.,
          0., 200., 65., 0., 0., 96., 65., 0., 0., 200., 65., 0., 0., 0.,
          0., 162., 66., 0., 0., 136., 65., 0., 0., 224., 65., 0., 0.,
          0., 0., 168., 65., 0., 0., 160., 64., 0., 0., 200., 65., 0.,
          0., 0., 0., 160., 64., 0., 0., 16., 65., 0., 0., 140., 66., 0.,
          0., 0., 0., 248., 65., 0., 0., 128., 64., 0., 0., 160., 64.,
          0., 0., 0., 0., 48., 65., 0., 0., 96., 65., 0., 0., 104., 66.,
          0., 0., 0., 0., 160., 65., 0., 0., 160., 64., 0., 0., 128.,
          64., 0., 0., 0., 0., 192., 65., 0., 0., 160., 65., 0., 0., 56.,
          66., 0., 0. ]
      - [ 0., 0., 224., 65., 0., 0., 128., 64., 0., 0., 0., 64., 0., 0.,
          0., 0., 64., 66., 0., 0., 32., 65., 0., 0., 128., 63., 0., 0.,
          0., 0., 146., 66., 0., 0., 172., 66., 0., 0., 224., 64., 0.,
          0., 0., 0., 48., 65., 0., 0., 192., 64., 0., 0., 16., 65., 0.,
          0., 0., 0., 198., 66., 0., 0., 100., 66., 0., 0., 64., 64., 0.,
          0., 0., 0., 64., 65., 0., 0., 156., 66., 0., 0., 160., 65., 0.,
          0., 0., 0., 224., 64., 0., 0., 0., 0., 0., 0., 0., 64., 0., 0.,
          0., 0., 0., 64., 0., 0., 128., 64., 0., 0., 192., 64., 0., 0.,
          0., 0., 218., 66., 0., 0., 160., 65., 0., 0., 128., 63., 0.,
          0., 0., 0., 0., 64., 0., 0., 196., 66., 0., 0., 15., 67., 0.,
          0., 0., 0., 0., 64., 0., 0., 156., 66., 0., 0., 9., 67., 0.,
          0., 0., 0., 51., 67., 0., 0., 208., 65., 0., 0., 0., 0., 0.,
          0., 0., 0., 64., 64., 0., 0., 160., 64., 0., 0., 160., 64., 0.,
          0., 0., 0., 234., 66., 0., 0., 0., 0., 0., 0., 0., 0., 0., 0. ]
      - [ 0., 0., 0., 0., 0., 0., 0., 0., 0., 0., 0., 0., 0., 0., 0., 0.,
          142., 66., 0., 0., 240., 66., 0., 0., 24., 66., 0., 0., 0., 0.,
          80., 65., 0., 0., 128., 63., 0., 0., 0., 0., 0., 0., 0., 0.,
          40., 66., 0., 0., 128., 63., 0., 0., 0., 0., 0., 0., 0., 0.,
          16., 66., 0., 0., 200., 65., 0., 0., 0., 0., 0., 0., 0., 0.,
          224., 64., 0., 0., 128., 63., 0., 0., 0., 64., 0., 0., 0., 0.,
          220., 66., 0., 0., 186., 66., 0., 0., 0., 0., 0., 0., 0., 0.,
          36., 66., 0., 0., 128., 63., 0., 0., 128., 63., 0., 0., 0., 0.,
          112., 66., 0., 0., 222., 66., 0., 0., 128., 63., 0., 0., 0.,
          0., 16., 65., 0., 0., 152., 65., 0., 0., 152., 65., 0., 0., 0.,
          0., 64., 64., 0., 0., 128., 63., 0., 0., 48., 65., 0., 0., 0.,
          0., 80., 65., 0., 0., 176., 66., 0., 0., 234., 66., 0., 0., 0.,
          0., 64., 64., 0., 0., 80., 65., 0., 0., 36., 66., 0., 0., 0.,
          0., 0., 0., 0., 0., 0., 0., 0., 0., 136., 65., 0., 0. ]
      - [ 0., 0., 96., 66., 0., 0., 150., 66., 0., 0., 0., 64., 0., 0.,
          0., 0., 0., 0., 0., 0., 128., 63., 0., 0., 128., 63., 0., 0.,
          0., 0., 52., 66., 0., 0., 164., 66., 0., 0., 238., 66., 0., 0.,
          0., 0., 0., 65., 0., 0., 40., 66., 0., 0., 240., 66., 0., 0.,
          0., 0., 128., 63., 0., 0., 0., 0., 0., 0., 0., 64., 0., 0., 0.,
          0., 192., 64., 0., 0., 128., 65., 0., 0., 238., 66., 0., 0.,
          0., 0., 0., 65., 0., 0., 236., 66., 0., 0., 192., 66., 0., 0.,
          0., 0., 0., 0., 0., 0., 128., 63., 0., 0., 128., 64., 0., 0.,
          0., 0., 128., 63., 0., 0., 128., 65., 0., 0., 252., 66., 0.,
          0., 0., 0., 170., 66., 0., 0., 164., 66., 0., 0., 16., 65., 0.,
          0., 0., 0., 80., 65., 0., 0., 160., 64., 0., 0., 224., 64., 0.,
          0., 0., 0., 218., 66., 0., 0., 232., 65., 0., 0., 20., 66., 0.,
          0., 0., 0., 166., 66., 0., 0., 228., 66., 0., 0., 144., 65.,
          0., 0., 0., 0., 112., 65., 0., 0., 188., 66., 0., 0., 176.,
          65., 0., 0. ]
      - [ 0., 0., 0., 0., 0., 0., 128., 63., 0., 0., 0., 64., 0., 0., 0.,
          0., 136., 65., 0., 0., 128., 65., 0., 0., 160., 64., 0., 0.,
          0., 0., 128., 65., 0., 0., 224., 64., 0., 0., 64., 64., 0., 0.,
          0., 0., 192., 64., 0., 0., 32., 66., 0., 0., 152., 65., 0., 0.,
          0., 0., 128., 65., 0., 0., 192., 64., 0., 0., 0., 64., 0., 0.,
          0., 0., 0., 0., 0., 0., 128., 63., 0., 0., 128., 65., 0., 0.,
          0., 0., 112., 65., 0., 0., 224., 65., 0., 0., 168., 65., 0.,
          0., 0., 0., 160., 64., 0., 0., 0., 66., 0., 0., 246., 66., 0.,
          0., 0., 0., 80., 65., 0., 0., 64., 64., 0., 0., 64., 64., 0.,
          0., 0., 0., 248., 65., 0., 0., 224., 64., 0., 0., 32., 65., 0.,
          0., 0., 0., 224., 64., 0., 0., 182., 66., 0., 0., 254., 66.,
          0., 0., 0., 0., 224., 66., 0., 0., 178., 66., 0., 0., 224.,
          64., 0., 0., 0., 0., 240., 65., 0., 0., 128., 65., 0., 0.,
          224., 65., 0., 0., 0., 0., 36., 66., 0., 0., 8., 66., 0., 0.,
          200., 65., 0., 0. ]
      - [ 0., 0., 48., 65., 0., 0., 240., 65., 0., 0., 132., 66., 0., 0.,
          0., 0., 216., 65., 0., 0., 136., 65., 0., 0., 80., 65., 0., 0.,
          0., 0., 1., 67., 0., 0., 224., 64., 0., 0., 0., 64., 0., 0.,
          0., 0., 184., 65., 0., 0., 144., 65., 0., 0., 48., 66., 0., 0.,
          0., 0., 40., 66., 0., 0., 232., 65., 0., 0., 112., 65., 0., 0.,
          0., 0., 224., 64., 0., 0., 216., 65., 0., 0., 76., 66., 0., 0.,
          0., 0., 0., 0., 0., 0., 0., 0., 0., 0., 0., 67., 0., 0., 0.,
          0., 240., 65., 0., 0., 146., 66., 0., 0., 32., 65., 0., 0., 0.,
          0., 168., 66., 0., 0., 64., 65., 0., 0., 0., 0., 0., 0., 0.,
          0., 224., 64., 0., 0., 160., 64., 0., 0., 96., 65., 0., 0., 0.,
          0., 160., 66., 0., 0., 244., 66., 0., 0., 64., 64., 0., 0., 0.,
          0., 112., 65., 0., 0., 128., 63., 0., 0., 0., 0., 0., 0., 0.,
          0., 16., 65., 0., 0., 112., 65., 0., 0., 128., 64., 0., 0., 0.,
          0., 250., 66., 0., 0., 88., 66., 0., 0., 0., 0., 0., 0. ]
      - [ 0., 0., 32., 65., 0., 0., 152., 65., 0., 0., 208., 65., 0., 0.,
          0., 0., 0., 0., 0., 0., 32., 65., 0., 0., 192., 65., 0., 0.,
          0., 0., 208., 65., 0., 0., 184., 65., 0., 0., 20., 66., 0., 0.,
          0., 0., 0., 64., 0., 0., 192., 64., 0., 0., 160., 64., 0., 0.,
          0., 0., 184., 65., 0., 0., 200., 66., 0., 0., 16., 66., 0., 0.,
          0., 0., 224., 65., 0., 0., 160., 65., 0., 0., 80., 65., 0., 0.,
          0., 0., 136., 65., 0., 0., 112., 65., 0., 0., 152., 65., 0.,
          0., 0., 0., 192., 65., 0., 0., 136., 66., 0., 0., 242., 66.,
          0., 0., 0., 0., 64., 65., 0., 0., 72., 66., 0., 0., 92., 66.,
          0., 0., 0., 0., 202., 66., 0., 0., 192., 65., 0., 0., 208.,
          65., 0., 0., 0., 0., 152., 65., 0., 0., 32., 65., 0., 0., 160.,
          64., 0., 0., 0., 0., 64., 64., 0., 0., 208., 65., 0., 0., 48.,
          66., 0., 0., 0., 0., 152., 65., 0., 0., 64., 64., 0., 0., 128.,
          63., 0., 0., 0., 0., 234., 66., 0., 0., 240., 65., 0., 0.,
          176., 65., 0., 0. ]
      - [ 0., 0., 128., 64., 0., 0., 128., 63., 0., 0., 0., 0., 0., 0.,
          0., 0., 48., 66., 0., 0., 0., 64., 0., 0., 0., 0., 0., 0., 0.,
          0., 16., 66., 0., 0., 0., 65., 0., 0., 160., 64., 0., 0., 0.,
          0., 144., 65., 0., 0., 160., 64., 0., 0., 64., 65., 0., 0., 0.,
          0., 68., 66., 0., 0., 16., 65., 0., 0., 0., 0., 0., 0., 0., 0.,
          192., 65., 0., 0., 152., 65., 0., 0., 0., 65., 0., 0., 0., 0.,
          0., 66., 0., 0., 112., 65., 0., 0., 160., 64., 0., 0., 0., 0.,
          64., 65., 0., 0., 56., 66., 0., 0., 226., 66., 0., 0., 0., 0.,
          192., 64., 0., 0., 254., 66., 0., 0., 64., 66., 0., 0., 0., 0.,
          224., 65., 0., 0., 128., 63., 0., 0., 0., 0., 0., 0., 0., 0.,
          64., 65., 0., 0., 0., 0., 0., 0., 0., 0., 0., 0., 0., 0., 240.,
          65., 0., 0., 64., 64., 0., 0., 0., 64., 0., 0., 0., 0., 0., 0.,
          0., 0., 112., 65., 0., 0., 17., 67., 0., 0., 0., 0., 0., 64.,
          0., 0., 210., 66., 0., 0., 16., 66., 0., 0. ]
      - [ 0., 0., 0., 64., 0., 0., 160., 64., 0., 0., 32., 65., 0., 0.,
          0., 0., 198., 66., 0., 0., 248., 66., 0., 0., 192., 64., 0.,
          0., 0., 0., 200., 65., 0., 0., 176., 65., 0., 0., 248., 65.,
          0., 0., 0., 0., 128., 63., 0., 0., 232., 66., 0., 0., 232.,
          65., 0., 0., 0., 0., 216., 65., 0., 0., 218., 66., 0., 0., 36.,
          66., 0., 0., 0., 0., 128., 65., 0., 0., 128., 63., 0., 0., 0.,
          0., 0., 0., 0., 0., 4., 66., 0., 0., 232., 66., 0., 0., 112.,
          65., 0., 0., 0., 0., 32., 66., 0., 0., 48., 65., 0., 0., 0.,
          0., 0., 0., 0., 0., 20., 66., 0., 0., 224., 64., 0., 0., 0.,
          64., 0., 0., 0., 0., 10., 67., 0., 0., 160., 64., 0., 0., 0.,
          0., 0., 0., 0., 0., 192., 64., 0., 0., 0., 0., 0., 0., 0., 0.,
          0., 0., 0., 0., 44., 66., 0., 0., 160., 64., 0., 0., 128., 63.,
          0., 0., 0., 0., 224., 64., 0., 0., 136., 65., 0., 0., 16., 65.,
          0., 0., 0., 0., 0., 0., 0., 0., 0., 0., 0., 0., 0., 0., 0., 0. ]
      - [ 0., 0., 0., 0., 0., 0., 0., 0., 0., 0., 0., 0., 0., 0., 0., 0.,
          64., 65., 0., 0., 0., 0., 0., 0., 0., 0., 0., 0., 0., 0., 232.,
          66., 0., 0., 212., 66., 0., 0., 224., 64., 0., 0., 0., 0.,
          224., 66., 0., 0., 96., 65., 0., 0., 0., 0., 0., 0., 0., 0.,
          208., 65., 0., 0., 232., 65., 0., 0., 96., 65., 0., 0., 0., 0.,
          84., 66., 0., 0., 52., 66., 0., 0., 0., 64., 0., 0., 0., 0.,
          64., 64., 0., 0., 224., 64., 0., 0., 0., 64., 0., 0., 0., 0.,
          48., 65., 0., 0., 0., 0., 0., 0., 0., 0., 0., 0., 0., 0., 21.,
          67., 0., 0., 164., 66., 0., 0., 0., 0., 0., 0., 0., 0., 112.,
          65., 0., 0., 0., 0., 0., 0., 0., 0., 0., 0., 0., 0., 112., 66.,
          0., 0., 128., 65., 0., 0., 0., 0., 0., 0., 0., 0., 128., 63.,
          0., 0., 128., 63., 0., 0., 128., 63., 0., 0., 0., 0., 160.,
          65., 0., 0., 186., 66., 0., 0., 136., 65., 0., 0., 0., 0.,
          184., 65., 0., 0., 224., 65., 0., 0., 168., 65., 0., 0. ]
      - [ 0., 0., 160., 64., 0., 0., 96., 65., 0., 0., 76., 66., 0., 0.,
          0., 0., 184., 65., 0., 0., 224., 64., 0., 0., 192., 64., 0.,
          0., 0., 0., 140., 66., 0., 0., 170., 66., 0., 0., 160., 65.,
          0., 0., 0., 0., 128., 63., 0., 0., 36., 66., 0., 0., 56., 66.,
          0., 0., 0., 0., 0., 0., 0., 0., 64., 64., 0., 0., 208., 65.,
          0., 0., 0., 0., 248., 65., 0., 0., 160., 64., 0., 0., 128.,
          63., 0., 0., 0., 0., 184., 65., 0., 0., 248., 66., 0., 0., 32.,
          66., 0., 0., 0., 0., 208., 65., 0., 0., 60., 66., 0., 0., 160.,
          65., 0., 0., 0., 0., 112., 65., 0., 0., 248., 65., 0., 0.,
          204., 66., 0., 0., 0., 0., 248., 65., 0., 0., 224., 66., 0.,
          0., 208., 65., 0., 0., 0., 0., 128., 63., 0., 0., 128., 64.,
          0., 0., 192., 64., 0., 0., 0., 0., 216., 65., 0., 0., 168.,
          65., 0., 0., 64., 64., 0., 0., 0., 0., 64., 64., 0., 0., 128.,
          63., 0., 0., 160., 64., 0., 0., 0., 0., 32., 65., 0., 0., 128.,
          64., 0., 0., 0., 0., 0., 0. ]
      - [ 0., 0., 160., 65., 0., 0., 184., 65., 0., 0., 176., 65., 0.,
          0., 0., 0., 80., 65., 0., 0., 0., 0., 0., 0., 0., 0., 0., 0.,
          0., 0., 64., 65., 0., 0., 64., 64., 0., 0., 0., 0., 0., 0., 0.,
          0., 64., 64., 0., 0., 192., 65., 0., 0., 4., 66., 0., 0., 0.,
          0., 142., 66., 0., 0., 240., 65., 0., 0., 128., 64., 0., 0.,
          0., 0., 168., 65., 0., 0., 64., 65., 0., 0., 128., 64., 0., 0.,
          0., 0., 116., 66., 0., 0., 208., 65., 0., 0., 96., 65., 0., 0.,
          0., 0., 168., 65., 0., 0., 184., 65., 0., 0., 128., 65., 0.,
          0., 0., 0., 208., 65., 0., 0., 232., 65., 0., 0., 28., 66., 0.,
          0., 0., 0., 154., 66., 0., 0., 176., 65., 0., 0., 224., 64.,
          0., 0., 0., 0., 32., 65., 0., 0., 96., 65., 0., 0., 120., 66.,
          0., 0., 0., 0., 32., 66., 0., 0., 150., 66., 0., 0., 64., 66.,
          0., 0., 0., 0., 152., 66., 0., 0., 24., 66., 0., 0., 136., 65.,
          0., 0., 0., 0., 144., 65., 0., 0., 200., 65., 0., 0., 120.,
          66., 0., 0. ]
      - [ 0., 0., 200., 66., 0., 0., 160., 66., 0., 0., 80., 65., 0., 0.,
          0., 0., 240., 65., 0., 0., 64., 65., 0., 0., 48., 65., 0., 0.,
          0., 0., 224., 64., 0., 0., 0., 0., 0., 0., 128., 63., 0., 0.,
          0., 0., 128., 63., 0., 0., 48., 65., 0., 0., 252., 66., 0., 0.,
          0., 0., 128., 64., 0., 0., 0., 65., 0., 0., 128., 65., 0., 0.,
          0., 0., 80., 65., 0., 0., 96., 65., 0., 0., 120., 66., 0., 0.,
          0., 0., 180., 66., 0., 0., 128., 66., 0., 0., 28., 66., 0., 0.,
          0., 0., 128., 63., 0., 0., 0., 64., 0., 0., 240., 66., 0., 0.,
          0., 0., 192., 64., 0., 0., 128., 63., 0., 0., 0., 0., 0., 0.,
          0., 0., 250., 66., 0., 0., 108., 66., 0., 0., 248., 65., 0.,
          0., 0., 0., 250., 66., 0., 0., 250., 66., 0., 0., 216., 65.,
          0., 0., 0., 0., 8., 67., 0., 0., 216., 66., 0., 0., 0., 0., 0.,
          0., 0., 0., 210., 66., 0., 0., 136., 65., 0., 0., 0., 0., 0.,
          0., 0., 0., 152., 66., 0., 0., 136., 65., 0., 0., 0., 64., 0.,
          0. ]
      - [ 0., 0., 0., 64., 0., 0., 0., 0., 0., 0., 0., 0., 0., 0., 0.,
          0., 0., 0., 0., 0., 48., 65., 0., 0., 206., 66., 0., 0., 0.,
          0., 192., 65., 0., 0., 168., 66., 0., 0., 112., 66., 0., 0.,
          0., 0., 200., 65., 0., 0., 4., 66., 0., 0., 0., 64., 0., 0.,
          0., 0., 160., 64., 0., 0., 142., 66., 0., 0., 248., 65., 0.,
          0., 0., 0., 0., 0., 0., 0., 40., 66., 0., 0., 200., 65., 0.,
          0., 0., 0., 0., 0., 0., 0., 128., 63., 0., 0., 168., 65., 0.,
          0., 0., 0., 0., 0., 0., 0., 152., 65., 0., 0., 194., 66., 0.,
          0., 0., 0., 36., 66., 0., 0., 240., 65., 0., 0., 0., 0., 0.,
          0., 0., 0., 0., 65., 0., 0., 32., 65., 0., 0., 0., 64., 0., 0.,
          0., 0., 142., 66., 0., 0., 68., 66., 0., 0., 160., 64., 0., 0.,
          0., 0., 128., 64., 0., 0., 128., 64., 0., 0., 224., 64., 0.,
          0., 0., 0., 112., 65., 0., 0., 100., 66., 0., 0., 224., 64.,
          0., 0., 0., 0., 128., 63., 0., 0., 0., 0., 0., 0., 0., 0., 0.,
          0. ]
      - [ 0., 0., 224., 65., 0., 0., 136., 65., 0., 0., 96., 65., 0., 0.,
          0., 0., 152., 66., 0., 0., 32., 66., 0., 0., 0., 0., 0., 0.,
          0., 0., 64., 64., 0., 0., 152., 65., 0., 0., 252., 66., 0., 0.,
          0., 0., 168., 65., 0., 0., 48., 65., 0., 0., 0., 65., 0., 0.,
          0., 0., 64., 66., 0., 0., 100., 66., 0., 0., 60., 66., 0., 0.,
          0., 0., 192., 64., 0., 0., 236., 66., 0., 0., 236., 66., 0.,
          0., 0., 0., 16., 65., 0., 0., 152., 65., 0., 0., 64., 66., 0.,
          0., 0., 0., 250., 66., 0., 0., 8., 66., 0., 0., 0., 0., 0., 0.,
          0., 0., 16., 65., 0., 0., 48., 65., 0., 0., 0., 66., 0., 0.,
          0., 0., 48., 65., 0., 0., 112., 65., 0., 0., 176., 65., 0., 0.,
          0., 0., 176., 65., 0., 0., 124., 66., 0., 0., 16., 66., 0., 0.,
          0., 0., 128., 64., 0., 0., 160., 64., 0., 0., 128., 63., 0.,
          0., 0., 0., 64., 66., 0., 0., 16., 65., 0., 0., 216., 65., 0.,
          0., 0., 0., 144., 66., 0., 0., 28., 66., 0., 0., 96., 65., 0.,
          0. ]
      - [ 0., 0., 162., 66., 0., 0., 192., 64., 0., 0., 128., 63., 0.,
          0., 0., 0., 160., 65., 0., 0., 128., 63., 0., 0., 128., 63.,
          0., 0., 0., 0., 0., 64., 0., 0., 0., 0., 0., 0., 0., 0., 0.,
          0., 0., 0., 0., 0., 0., 0., 0., 0., 0., 0., 44., 66., 0., 0.,
          0., 0., 200., 65., 0., 0., 160., 64., 0., 0., 0., 65., 0., 0.,
          0., 0., 44., 66., 0., 0., 128., 63., 0., 0., 0., 0., 0., 0.,
          0., 0., 0., 0., 0., 0., 128., 63., 0., 0., 160., 65., 0., 0.,
          0., 0., 166., 66., 0., 0., 80., 65., 0., 0., 144., 65., 0., 0.,
          0., 0., 200., 65., 0., 0., 64., 64., 0., 0., 0., 64., 0., 0.,
          0., 0., 32., 66., 0., 0., 0., 0., 0., 0., 0., 0., 0., 0., 0.,
          0., 0., 0., 0., 0., 128., 63., 0., 0., 160., 64., 0., 0., 0.,
          0., 192., 64., 0., 0., 56., 66., 0., 0., 230., 66., 0., 0., 0.,
          0., 238., 66., 0., 0., 100., 66., 0., 0., 104., 66., 0., 0.,
          0., 0., 158., 66., 0., 0., 168., 65., 0., 0., 0., 0., 0., 0. ]
      - [ 0., 0., 160., 64., 0., 0., 192., 64., 0., 0., 64., 64., 0., 0.,
          0., 0., 128., 64., 0., 0., 224., 64., 0., 0., 104., 66., 0.,
          0., 0., 0., 64., 65., 0., 0., 192., 64., 0., 0., 248., 65., 0.,
          0., 0., 0., 242., 66., 0., 0., 242., 66., 0., 0., 248., 65.,
          0., 0., 0., 0., 112., 65., 0., 0., 128., 63., 0., 0., 128.,
          64., 0., 0., 0., 0., 11., 67., 0., 0., 136., 66., 0., 0., 168.,
          65., 0., 0., 0., 0., 176., 65., 0., 0., 208., 66., 0., 0., 68.,
          66., 0., 0., 0., 0., 32., 65., 0., 0., 248., 65., 0., 0., 192.,
          65., 0., 0., 0., 0., 112., 65., 0., 0., 244., 66., 0., 0.,
          160., 66., 0., 0., 0., 0., 76., 66., 0., 0., 60., 66., 0., 0.,
          48., 65., 0., 0., 0., 0., 96., 65., 0., 0., 16., 65., 0., 0.,
          128., 65., 0., 0., 0., 0., 96., 65., 0., 0., 146., 66., 0., 0.,
          4., 66., 0., 0., 0., 0., 208., 66., 0., 0., 162., 66., 0., 0.,
          0., 64., 0., 0., 0., 0., 200., 65., 0., 0., 8., 66., 0., 0.,
          112., 65., 0., 0. ]
      - [ 0., 0., 244., 66., 0., 0., 4., 66., 0., 0., 64., 65., 0., 0.,
          0., 0., 240., 66., 0., 0., 112., 65., 0., 0., 128., 63., 0.,
          0., 0., 0., 248., 65., 0., 0., 60., 66., 0., 0., 248., 66., 0.,
          0., 0., 0., 128., 64., 0., 0., 0., 0., 0., 0., 0., 0., 0., 0.,
          0., 0., 152., 65., 0., 0., 24., 66., 0., 0., 234., 66., 0., 0.,
          0., 0., 3., 67., 0., 0., 132., 66., 0., 0., 136., 65., 0., 0.,
          0., 0., 128., 64., 0., 0., 128., 63., 0., 0., 64., 65., 0., 0.,
          0., 0., 160., 64., 0., 0., 0., 0., 0., 0., 0., 0., 0., 0., 0.,
          0., 240., 66., 0., 0., 64., 65., 0., 0., 128., 64., 0., 0., 0.,
          0., 192., 64., 0., 0., 230., 66., 0., 0., 208., 65., 0., 0.,
          0., 0., 208., 65., 0., 0., 240., 65., 0., 0., 16., 65., 0., 0.,
          0., 0., 192., 64., 0., 0., 216., 65., 0., 0., 88., 66., 0., 0.,
          0., 0., 176., 65., 0., 0., 48., 65., 0., 0., 160., 64., 0., 0.,
          0., 0., 246., 66., 0., 0., 216., 65., 0., 0., 160., 64., 0.,
          0. ]
      - [ 0., 0., 0., 0., 0., 0., 16., 65., 0., 0., 236., 66., 0., 0.,
          0., 0., 0., 65., 0., 0., 92., 66., 0., 0., 96., 66., 0., 0.,
          0., 0., 104., 66., 0., 0., 224., 66., 0., 0., 232., 65., 0.,
          0., 0., 0., 128., 63., 0., 0., 0., 0., 0., 0., 0., 64., 0., 0.,
          0., 0., 0., 0., 0., 0., 128., 64., 0., 0., 72., 66., 0., 0.,
          0., 0., 160., 64., 0., 0., 112., 65., 0., 0., 64., 65., 0., 0.,
          0., 0., 0., 65., 0., 0., 216., 65., 0., 0., 192., 65., 0., 0.,
          0., 0., 112., 65., 0., 0., 248., 65., 0., 0., 224., 64., 0.,
          0., 0., 0., 56., 66., 0., 0., 160., 65., 0., 0., 0., 64., 0.,
          0., 0., 0., 190., 66., 0., 0., 9., 67., 0., 0., 0., 64., 0.,
          0., 0., 0., 240., 65., 0., 0., 224., 65., 0., 0., 56., 66., 0.,
          0., 0., 0., 32., 65., 0., 0., 168., 65., 0., 0., 24., 66., 0.,
          0., 0., 0., 190., 66., 0., 0., 152., 66., 0., 0., 0., 64., 0.,
          0., 0., 0., 80., 65., 0., 0., 0., 65., 0., 0., 184., 65., 0.,
          0. ]
      - [ 0., 0., 64., 65., 0., 0., 174., 66., 0., 0., 220., 66., 0., 0.,
          0., 0., 36., 66., 0., 0., 162., 66., 0., 0., 120., 66., 0., 0.,
          0., 0., 176., 66., 0., 0., 232., 65., 0., 0., 64., 65., 0., 0.,
          0., 0., 80., 65., 0., 0., 96., 65., 0., 0., 224., 65., 0., 0.,
          0., 0., 146., 66., 0., 0., 170., 66., 0., 0., 216., 65., 0.,
          0., 0., 0., 144., 65., 0., 0., 128., 64., 0., 0., 32., 65., 0.,
          0., 0., 0., 136., 65., 0., 0., 64., 65., 0., 0., 48., 65., 0.,
          0., 0., 0., 216., 65., 0., 0., 224., 65., 0., 0., 224., 64.,
          0., 0., 0., 0., 68., 66., 0., 0., 48., 65., 0., 0., 192., 65.,
          0., 0., 0., 0., 248., 65., 0., 0., 200., 65., 0., 0., 160.,
          64., 0., 0., 0., 0., 176., 65., 0., 0., 184., 65., 0., 0., 16.,
          65., 0., 0., 0., 0., 248., 65., 0., 0., 224., 66., 0., 0., 20.,
          66., 0., 0., 0., 0., 96., 65., 0., 0., 128., 63., 0., 0., 0.,
          64., 0., 0., 0., 0., 224., 64., 0., 0., 18., 67., 0., 0., 116.,
          66., 0., 0. ]
      - [ 0., 0., 200., 65., 0., 0., 8., 67., 0., 0., 48., 65., 0., 0.,
          0., 0., 248., 66., 0., 0., 72., 66., 0., 0., 136., 65., 0., 0.,
          0., 0., 72., 66., 0., 0., 72., 66., 0., 0., 80., 66., 0., 0.,
          0., 0., 128., 65., 0., 0., 176., 65., 0., 0., 192., 65., 0.,
          0., 0., 0., 112., 65., 0., 0., 32., 66., 0., 0., 40., 66., 0.,
          0., 0., 0., 88., 66., 0., 0., 100., 66., 0., 0., 4., 66., 0.,
          0., 0., 0., 128., 64., 0., 0., 236., 66., 0., 0., 192., 65.,
          0., 0., 0., 0., 76., 66., 0., 0., 232., 66., 0., 0., 184., 65.,
          0., 0., 0., 0., 8., 67., 0., 0., 152., 65., 0., 0., 64., 64.,
          0., 0., 0., 0., 0., 0., 0., 0., 128., 63., 0., 0., 254., 66.,
          0., 0., 0., 0., 128., 63., 0., 0., 48., 66., 0., 0., 238., 66.,
          0., 0., 0., 0., 128., 63., 0., 0., 0., 65., 0., 0., 192., 66.,
          0., 0., 0., 0., 64., 65., 0., 0., 208., 65., 0., 0., 214., 66.,
          0., 0., 0., 0., 190., 66., 0., 0., 170., 66., 0., 0., 128.,
          64., 0., 0. ]
      - [ 0., 0., 0., 64., 0., 0., 0., 0., 0., 0., 128., 63., 0., 0., 0.,
          0., 64., 64., 0., 0., 64., 64., 0., 0., 192., 64., 0., 0., 0.,
          0., 232., 65., 0., 0., 200., 65., 0., 0., 224., 64., 0., 0.,
          0., 0., 232., 65., 0., 0., 192., 64., 0., 0., 160., 64., 0.,
          0., 0., 0., 184., 65., 0., 0., 128., 63., 0., 0., 64., 64., 0.,
          0., 0., 0., 0., 65., 0., 0., 224., 64., 0., 0., 192., 64., 0.,
          0., 0., 0., 198., 66., 0., 0., 224., 64., 0., 0., 0., 0., 0.,
          0., 0., 0., 44., 66., 0., 0., 132., 66., 0., 0., 128., 64., 0.,
          0., 0., 0., 204., 66., 0., 0., 148., 66., 0., 0., 136., 65.,
          0., 0., 0., 0., 168., 65., 0., 0., 16., 65., 0., 0., 0., 64.,
          0., 0., 0., 0., 172., 66., 0., 0., 36., 66., 0., 0., 128., 63.,
          0., 0., 0., 0., 28., 66., 0., 0., 216., 65., 0., 0., 208., 66.,
          0., 0., 0., 0., 192., 64., 0., 0., 160., 64., 0., 0., 128.,
          63., 0., 0., 0., 0., 200., 65., 0., 0., 48., 65., 0., 0., 128.,
          63., 0., 0. ]
      - [ 0., 0., 208., 66., 0., 0., 136., 66., 0., 0., 184., 65., 0.,
          0., 0., 0., 12., 66., 0., 0., 226., 66., 0., 0., 100., 66., 0.,
          0., 0., 0., 192., 64., 0., 0., 168., 65., 0., 0., 206., 66.,
          0., 0., 0., 0., 72., 66., 0., 0., 40., 66., 0., 0., 144., 65.,
          0., 0., 0., 0., 32., 65., 0., 0., 216., 65., 0., 0., 144., 66.,
          0., 0., 0., 0., 128., 65., 0., 0., 224., 64., 0., 0., 0., 64.,
          0., 0., 0., 0., 128., 64., 0., 0., 160., 64., 0., 0., 200.,
          65., 0., 0., 0., 0., 224., 66., 0., 0., 224., 66., 0., 0.,
          192., 64., 0., 0., 0., 0., 128., 65., 0., 0., 168., 66., 0.,
          0., 68., 66., 0., 0., 0., 0., 24., 66., 0., 0., 152., 65., 0.,
          0., 48., 65., 0., 0., 0., 0., 1., 67., 0., 0., 152., 65., 0.,
          0., 0., 64., 0., 0., 0., 0., 136., 65., 0., 0., 112., 65., 0.,
          0., 112., 65., 0., 0., 0., 0., 152., 65., 0., 0., 152., 65.,
          0., 0., 224., 64., 0., 0., 0., 0., 16., 66., 0., 0., 16., 66.,
          0., 0., 240., 65., 0., 0. ]
      - [ 0., 0., 128., 64., 0., 0., 224., 64., 0., 0., 200., 65., 0.,
          0., 0., 0., 128., 65., 0., 0., 84., 66., 0., 0., 152., 66., 0.,
          0., 0., 0., 152., 66., 0., 0., 238., 66., 0., 0., 184., 65.,
          0., 0., 0., 0., 238., 66., 0., 0., 224., 64., 0., 0., 128.,
          63., 0., 0., 0., 0., 224., 64., 0., 0., 228., 66., 0., 0.,
          210., 66., 0., 0., 0., 0., 230., 66., 0., 0., 40., 66., 0., 0.,
          128., 63., 0., 0., 0., 0., 64., 64., 0., 0., 96., 65., 0., 0.,
          176., 65., 0., 0., 0., 0., 192., 65., 0., 0., 194., 66., 0.,
          0., 212., 66., 0., 0., 0., 0., 128., 63., 0., 0., 0., 0., 0.,
          0., 0., 0., 0., 0., 0., 0., 0., 0., 0., 0., 0., 0., 0., 0., 0.,
          0., 0., 0., 0., 0., 112., 65., 0., 0., 0., 64., 0., 0., 0.,
          64., 0., 0., 0., 0., 224., 65., 0., 0., 32., 66., 0., 0., 160.,
          64., 0., 0., 0., 0., 0., 0., 0., 0., 0., 64., 0., 0., 192.,
          64., 0., 0., 0., 0., 128., 65., 0., 0., 192., 64., 0., 0., 64.,
          64., 0., 0. ]
      - [ 0., 0., 36., 66., 0., 0., 192., 64., 0., 0., 224., 64., 0., 0.,
          0., 0., 200., 65., 0., 0., 32., 65., 0., 0., 208., 65., 0., 0.,
          0., 0., 240., 66., 0., 0., 12., 66., 0., 0., 0., 0., 0., 0.,
          0., 0., 92., 66., 0., 0., 112., 66., 0., 0., 224., 64., 0., 0.,
          0., 0., 72., 66., 0., 0., 240., 65., 0., 0., 36., 66., 0., 0.,
          0., 0., 134., 66., 0., 0., 138., 66., 0., 0., 160., 64., 0.,
          0., 0., 0., 136., 66., 0., 0., 144., 66., 0., 0., 128., 63.,
          0., 0., 0., 0., 198., 66., 0., 0., 222., 66., 0., 0., 0., 65.,
          0., 0., 0., 0., 144., 66., 0., 0., 232., 65., 0., 0., 144.,
          65., 0., 0., 0., 0., 16., 66., 0., 0., 108., 66., 0., 0., 176.,
          65., 0., 0., 0., 0., 112., 65., 0., 0., 240., 65., 0., 0., 64.,
          66., 0., 0., 0., 0., 128., 64., 0., 0., 160., 64., 0., 0.,
          192., 64., 0., 0., 0., 0., 128., 63., 0., 0., 128., 64., 0.,
          0., 16., 65., 0., 0., 0., 0., 0., 64., 0., 0., 0., 0., 0., 0.,
          0., 0., 0., 0. ]
      - [ 0., 0., 192., 65., 0., 0., 128., 63., 0., 0., 0., 0., 0., 0.,
          0., 0., 128., 63., 0., 0., 0., 0., 0., 0., 0., 0., 0., 0., 0.,
          0., 128., 66., 0., 0., 16., 65., 0., 0., 128., 64., 0., 0., 0.,
          0., 11., 67., 0., 0., 224., 64., 0., 0., 0., 0., 0., 0., 0.,
          0., 240., 65., 0., 0., 0., 0., 0., 0., 128., 63., 0., 0., 0.,
          0., 108., 66., 0., 0., 160., 65., 0., 0., 16., 65., 0., 0., 0.,
          0., 0., 0., 0., 0., 0., 0., 0., 0., 0., 0., 0., 0., 0., 0., 0.,
          0., 0., 0., 0., 64., 0., 0., 128., 63., 0., 0., 0., 0., 0., 0.,
          0., 0., 0., 0., 0., 0., 0., 0., 0., 0., 0., 0., 12., 66., 0.,
          0., 4., 66., 0., 0., 0., 64., 0., 0., 0., 0., 160., 65., 0.,
          0., 80., 65., 0., 0., 64., 64., 0., 0., 0., 0., 206., 66., 0.,
          0., 200., 65., 0., 0., 0., 0., 0., 0., 0., 0., 112., 65., 0.,
          0., 136., 65., 0., 0., 192., 64., 0., 0., 0., 0., 224., 64.,
          0., 0., 28., 66., 0., 0., 32., 65., 0., 0. ]
      - [ 0., 0., 182., 66., 0., 0., 112., 65., 0., 0., 128., 65., 0.,
          0., 0., 0., 64., 64., 0., 0., 64., 64., 0., 0., 0., 0., 0., 0.,
          0., 0., 0., 0., 0., 0., 0., 0., 0., 0., 0., 0., 0., 0., 0., 0.,
          248., 66., 0., 0., 20., 67., 0., 0., 192., 64., 0., 0., 0., 0.,
          176., 65., 0., 0., 6., 67., 0., 0., 72., 66., 0., 0., 0., 0.,
          64., 65., 0., 0., 112., 65., 0., 0., 64., 64., 0., 0., 0., 0.,
          128., 63., 0., 0., 0., 64., 0., 0., 240., 66., 0., 0., 0., 0.,
          192., 65., 0., 0., 160., 65., 0., 0., 128., 64., 0., 0., 0.,
          0., 144., 65., 0., 0., 80., 65., 0., 0., 160., 64., 0., 0., 0.,
          0., 224., 64., 0., 0., 100., 66., 0., 0., 246., 66., 0., 0.,
          0., 0., 192., 64., 0., 0., 236., 66., 0., 0., 104., 66., 0.,
          0., 0., 0., 0., 0., 0., 0., 0., 0., 0., 0., 0., 0., 0., 0., 0.,
          0., 232., 65., 0., 0., 252., 66., 0., 0., 60., 66., 0., 0., 0.,
          0., 0., 0., 0., 0., 0., 0., 0., 0., 0., 0., 0., 0. ]
      - [ 0., 0., 160., 64., 0., 0., 128., 64., 0., 0., 64., 64., 0., 0.,
          0., 0., 0., 0., 0., 0., 128., 63., 0., 0., 128., 63., 0., 0.,
          0., 0., 52., 66., 0., 0., 246., 66., 0., 0., 8., 66., 0., 0.,
          0., 0., 0., 0., 0., 0., 200., 65., 0., 0., 196., 66., 0., 0.,
          0., 0., 248., 65., 0., 0., 176., 65., 0., 0., 128., 63., 0.,
          0., 0., 0., 160., 64., 0., 0., 0., 0., 0., 0., 0., 0., 0., 0.,
          0., 0., 0., 65., 0., 0., 232., 65., 0., 0., 248., 65., 0., 0.,
          0., 0., 144., 65., 0., 0., 184., 66., 0., 0., 232., 66., 0.,
          0., 0., 0., 226., 66., 0., 0., 234., 66., 0., 0., 128., 63.,
          0., 0., 0., 0., 136., 65., 0., 0., 200., 65., 0., 0., 152.,
          65., 0., 0., 0., 0., 248., 65., 0., 0., 48., 65., 0., 0., 136.,
          65., 0., 0., 0., 0., 224., 64., 0., 0., 152., 65., 0., 0.,
          148., 66., 0., 0., 0., 0., 0., 0., 0., 0., 184., 65., 0., 0.,
          198., 66., 0., 0., 0., 0., 220., 66., 0., 0., 92., 66., 0., 0.,
          176., 65., 0., 0. ]
      - [ 0., 0., 0., 0., 0., 0., 0., 0., 0., 0., 0., 0., 0., 0., 0., 0.,
          0., 65., 0., 0., 20., 66., 0., 0., 8., 66., 0., 0., 0., 0., 0.,
          64., 0., 0., 224., 64., 0., 0., 248., 65., 0., 0., 0., 0.,
          216., 66., 0., 0., 224., 64., 0., 0., 0., 64., 0., 0., 0., 0.,
          48., 65., 0., 0., 96., 65., 0., 0., 160., 65., 0., 0., 0., 0.,
          48., 65., 0., 0., 32., 65., 0., 0., 0., 65., 0., 0., 0., 0.,
          16., 65., 0., 0., 208., 65., 0., 0., 240., 65., 0., 0., 0., 0.,
          128., 63., 0., 0., 0., 0., 0., 0., 0., 0., 0., 0., 0., 0.,
          192., 64., 0., 0., 44., 66., 0., 0., 8., 66., 0., 0., 0., 0.,
          128., 63., 0., 0., 0., 0., 0., 0., 0., 64., 0., 0., 0., 0.,
          168., 66., 0., 0., 64., 64., 0., 0., 0., 64., 0., 0., 0., 0.,
          168., 66., 0., 0., 2., 67., 0., 0., 64., 64., 0., 0., 0., 0.,
          192., 64., 0., 0., 160., 64., 0., 0., 192., 66., 0., 0., 0.,
          0., 0., 64., 0., 0., 48., 65., 0., 0., 48., 65., 0., 0. ]
      - [ 0., 0., 96., 65., 0., 0., 152., 66., 0., 0., 236., 66., 0., 0.,
          0., 0., 16., 66., 0., 0., 240., 65., 0., 0., 136., 65., 0., 0.,
          0., 0., 48., 65., 0., 0., 174., 66., 0., 0., 36., 66., 0., 0.,
          0., 0., 128., 63., 0., 0., 152., 66., 0., 0., 248., 65., 0.,
          0., 0., 0., 136., 65., 0., 0., 184., 65., 0., 0., 192., 65.,
          0., 0., 0., 0., 0., 0., 0., 0., 0., 0., 0., 0., 0., 0., 0., 0.,
          0., 0., 0., 64., 0., 0., 128., 63., 0., 0., 128., 63., 0., 0.,
          0., 0., 128., 63., 0., 0., 16., 65., 0., 0., 248., 65., 0., 0.,
          0., 0., 160., 64., 0., 0., 64., 65., 0., 0., 128., 64., 0., 0.,
          0., 0., 0., 0., 0., 0., 0., 0., 0., 0., 128., 63., 0., 0., 0.,
          0., 96., 65., 0., 0., 236., 66., 0., 0., 36., 66., 0., 0., 0.,
          0., 2., 67., 0., 0., 96., 66., 0., 0., 0., 0., 0., 0., 0., 0.,
          100., 66., 0., 0., 192., 64., 0., 0., 0., 0., 0., 0., 0., 0.,
          250., 66., 0., 0., 144., 65., 0., 0., 96., 65., 0., 0. ]
      - [ 0., 0., 64., 65., 0., 0., 128., 63., 0., 0., 0., 0., 0., 0.,
          0., 0., 162., 66., 0., 0., 112., 65., 0., 0., 128., 63., 0.,
          0., 0., 0., 210., 66., 0., 0., 208., 65., 0., 0., 128., 64.,
          0., 0., 0., 0., 16., 66., 0., 0., 246., 66., 0., 0., 80., 65.,
          0., 0., 0., 0., 64., 64., 0., 0., 192., 65., 0., 0., 32., 65.,
          0., 0., 0., 0., 196., 66., 0., 0., 96., 65., 0., 0., 0., 0.,
          0., 0., 0., 0., 15., 67., 0., 0., 168., 65., 0., 0., 0., 64.,
          0., 0., 0., 0., 168., 66., 0., 0., 224., 65., 0., 0., 0., 0.,
          0., 0., 0., 0., 224., 64., 0., 0., 128., 63., 0., 0., 0., 0.,
          0., 0., 0., 0., 0., 0., 0., 0., 0., 0., 0., 0., 0., 0., 0., 0.,
          0., 0., 146., 66., 0., 0., 16., 65., 0., 0., 0., 64., 0., 0.,
          0., 0., 184., 65., 0., 0., 112., 65., 0., 0., 0., 0., 0., 0.,
          0., 0., 130., 66., 0., 0., 232., 65., 0., 0., 0., 0., 0., 0.,
          0., 0., 20., 66., 0., 0., 32., 65., 0., 0., 128., 63., 0., 0. ]
      - [ 0., 0., 136., 66., 0., 0., 154., 66., 0., 0., 152., 65., 0.,
          0., 0., 0., 152., 65., 0., 0., 134., 66., 0., 0., 238., 66.,
          0., 0., 0., 0., 194., 66., 0., 0., 40., 66., 0., 0., 152., 65.,
          0., 0., 0., 0., 128., 63., 0., 0., 128., 63., 0., 0., 160.,
          64., 0., 0., 0., 0., 224., 64., 0., 0., 96., 65., 0., 0., 128.,
          65., 0., 0., 0., 0., 64., 64., 0., 0., 92., 66., 0., 0., 232.,
          65., 0., 0., 0., 0., 208., 65., 0., 0., 168., 65., 0., 0., 32.,
          65., 0., 0., 0., 0., 64., 64., 0., 0., 32., 65., 0., 0., 224.,
          64., 0., 0., 0., 0., 208., 65., 0., 0., 160., 64., 0., 0.,
          112., 65., 0., 0., 0., 0., 64., 65., 0., 0., 124., 66., 0., 0.,
          198., 66., 0., 0., 0., 0., 192., 66., 0., 0., 192., 64., 0.,
          0., 0., 0., 0., 0., 0., 0., 144., 66., 0., 0., 128., 65., 0.,
          0., 28., 66., 0., 0., 0., 0., 128., 64., 0., 0., 160., 64., 0.,
          0., 144., 65., 0., 0., 0., 0., 0., 66., 0., 0., 160., 66., 0.,
          0., 208., 65., 0., 0. ]
      - [ 0., 0., 248., 65., 0., 0., 124., 66., 0., 0., 168., 65., 0.,
          0., 0., 0., 232., 65., 0., 0., 160., 64., 0., 0., 96., 65., 0.,
          0., 0., 0., 152., 65., 0., 0., 184., 65., 0., 0., 80., 65., 0.,
          0., 0., 0., 96., 65., 0., 0., 150., 66., 0., 0., 16., 66., 0.,
          0., 0., 0., 60., 66., 0., 0., 224., 64., 0., 0., 64., 64., 0.,
          0., 0., 0., 176., 65., 0., 0., 160., 64., 0., 0., 0., 64., 0.,
          0., 0., 0., 240., 65., 0., 0., 220., 66., 0., 0., 192., 66.,
          0., 0., 0., 0., 234., 66., 0., 0., 220., 66., 0., 0., 80., 65.,
          0., 0., 0., 0., 0., 0., 0., 0., 0., 0., 0., 0., 0., 64., 0.,
          0., 0., 0., 232., 65., 0., 0., 224., 64., 0., 0., 128., 63.,
          0., 0., 0., 0., 178., 66., 0., 0., 206., 66., 0., 0., 16., 65.,
          0., 0., 0., 0., 224., 64., 0., 0., 176., 65., 0., 0., 112.,
          65., 0., 0., 0., 0., 100., 66., 0., 0., 128., 66., 0., 0.,
          128., 63., 0., 0., 0., 0., 100., 66., 0., 0., 232., 65., 0.,
          0., 16., 65., 0., 0. ]
      - [ 0., 0., 0., 0., 0., 0., 64., 64., 0., 0., 72., 66., 0., 0., 0.,
          0., 128., 63., 0., 0., 0., 64., 0., 0., 80., 65., 0., 0., 0.,
