%YAML:1.0
opencv_ml_svm:
   format: 3
   svmType: C_SVC
   kernel:
      type: POLY
      degree: 3.
      gamma: 1.
      coef0: 0.
   C: 1.
   term_criteria: { iterations:100 }
   var_count: 196
   class_count: 2
   class_labels: !!opencv-matrix
      rows: 2
      cols: 1
      dt: i
      data: [ -1, 1 ]
   sv_total: 39
   support_vectors:
      - [ 0., 0., 0., 0., 0., 0., 0., 0., 0., 0., 0., 64., 0., 0., 0.,
          0., 128., 64., 0., 0., 0., 0., 0., 0., 0., 0., 0., 0., 0., 0.,
          112., 65., 0., 0., 128., 63., 0., 0., 0., 0., 0., 0., 0., 0.,
          48., 65., 0., 0., 92., 66., 0., 0., 48., 65., 0., 0., 0., 0.,
          0., 0., 0., 0., 0., 0., 0., 0., 0., 0., 0., 0., 0., 0., 128.,
          64., 0., 0., 128., 63., 0., 0., 0., 0., 0., 0., 0., 0., 0., 0.,
          0., 0., 0., 0., 0., 0., 0., 0., 0., 0., 0., 0., 192., 64., 0.,
          0., 224., 64., 0., 0., 32., 65., 0., 0., 0., 0., 224., 65., 0.,
          0., 52., 66., 0., 0., 112., 65., 0., 0., 0., 0., 0., 0., 0.,
          0., 0., 0., 0., 0., 128., 63., 0., 0., 0., 0., 88., 66., 0.,
          0., 128., 63., 0., 0., 0., 0., 0., 0., 0., 0., 72., 66., 0.,
          0., 160., 65., 0., 0., 152., 65., 0., 0., 0., 0., 64., 64., 0.,
          0., 108., 66., 0., 0., 240., 66., 0., 0., 0., 0., 0., 64., 0.,
          0., 128., 63., 0., 0., 64., 64., 0., 0. ]
      - [ 0., 0., 0., 0., 0., 0., 128., 63., 0., 0., 192., 64., 0., 0.,
          0., 0., 160., 65., 0., 0., 160., 64., 0., 0., 0., 0., 0., 0.,
          0., 0., 144., 65., 0., 0., 248., 65., 0., 0., 160., 64., 0.,
          0., 0., 0., 0., 66., 0., 0., 232., 65., 0., 0., 16., 65., 0.,
          0., 0., 0., 48., 65., 0., 0., 176., 65., 0., 0., 48., 65., 0.,
          0., 0., 0., 160., 64., 0., 0., 128., 64., 0., 0., 192., 64.,
          0., 0., 0., 0., 128., 64., 0., 0., 32., 65., 0., 0., 192., 64.,
          0., 0., 0., 0., 128., 63., 0., 0., 0., 0., 0., 0., 0., 0., 0.,
          0., 0., 0., 112., 66., 0., 0., 192., 64., 0., 0., 0., 0., 0.,
          0., 0., 0., 0., 64., 0., 0., 128., 63., 0., 0., 48., 66., 0.,
          0., 0., 0., 128., 63., 0., 0., 0., 0., 0., 0., 0., 0., 0., 0.,
          0., 0., 16., 65., 0., 0., 152., 65., 0., 0., 152., 65., 0., 0.,
          0., 0., 160., 64., 0., 0., 32., 65., 0., 0., 232., 65., 0., 0.,
          0., 0., 192., 66., 0., 0., 128., 64., 0., 0., 0., 0., 0., 0. ]
      - [ 0., 0., 176., 65., 0., 0., 96., 65., 0., 0., 64., 64., 0., 0.,
          0., 0., 32., 65., 0., 0., 32., 65., 0., 0., 24., 66., 0., 0.,
          0., 0., 48., 65., 0., 0., 152., 65., 0., 0., 68., 66., 0., 0.,
          0., 0., 128., 64., 0., 0., 64., 64., 0., 0., 48., 65., 0., 0.,
          0., 0., 32., 65., 0., 0., 0., 0., 0., 0., 0., 0., 0., 0., 0.,
          0., 208., 65., 0., 0., 96., 65., 0., 0., 108., 66., 0., 0., 0.,
          0., 12., 66., 0., 0., 230., 66., 0., 0., 190., 66., 0., 0., 0.,
          0., 240., 66., 0., 0., 52., 66., 0., 0., 128., 64., 0., 0., 0.,
          0., 184., 65., 0., 0., 208., 65., 0., 0., 4., 66., 0., 0., 0.,
          0., 0., 65., 0., 0., 48., 65., 0., 0., 80., 65., 0., 0., 0.,
          0., 32., 66., 0., 0., 208., 66., 0., 0., 16., 65., 0., 0., 0.,
          0., 160., 64., 0., 0., 64., 64., 0., 0., 224., 64., 0., 0., 0.,
          0., 80., 65., 0., 0., 128., 64., 0., 0., 64., 64., 0., 0., 0.,
          0., 160., 65., 0., 0., 48., 65., 0., 0., 16., 66., 0., 0. ]
      - [ 0., 0., 192., 64., 0., 0., 44., 66., 0., 0., 6., 67., 0., 0.,
          0., 0., 160., 65., 0., 0., 56., 66., 0., 0., 80., 65., 0., 0.,
          0., 0., 132., 66., 0., 0., 9., 67., 0., 0., 224., 64., 0., 0.,
          0., 0., 0., 64., 0., 0., 48., 65., 0., 0., 112., 65., 0., 0.,
          0., 0., 64., 64., 0., 0., 128., 63., 0., 0., 128., 63., 0., 0.,
          0., 0., 0., 0., 0., 0., 0., 64., 0., 0., 32., 65., 0., 0., 0.,
          0., 0., 0., 0., 0., 0., 0., 0., 0., 0., 64., 0., 0., 0., 0.,
          0., 65., 0., 0., 164., 66., 0., 0., 232., 65., 0., 0., 0., 0.,
          0., 0., 0., 0., 128., 63., 0., 0., 0., 64., 0., 0., 0., 0.,
          176., 65., 0., 0., 144., 65., 0., 0., 100., 66., 0., 0., 0.,
          0., 112., 65., 0., 0., 144., 66., 0., 0., 64., 65., 0., 0., 0.,
          0., 144., 65., 0., 0., 188., 66., 0., 0., 48., 66., 0., 0., 0.,
          0., 160., 64., 0., 0., 80., 65., 0., 0., 128., 64., 0., 0., 0.,
          0., 128., 64., 0., 0., 0., 64., 0., 0., 184., 65., 0., 0. ]
      - [ 0., 0., 24., 66., 0., 0., 64., 64., 0., 0., 0., 64., 0., 0.,
          0., 0., 152., 66., 0., 0., 48., 65., 0., 0., 128., 63., 0., 0.,
          0., 0., 206., 66., 0., 0., 7., 67., 0., 0., 128., 64., 0., 0.,
          0., 0., 226., 66., 0., 0., 10., 67., 0., 0., 128., 64., 0., 0.,
          0., 0., 164., 66., 0., 0., 12., 66., 0., 0., 64., 64., 0., 0.,
          0., 0., 0., 0., 0., 0., 0., 64., 0., 0., 68., 66., 0., 0., 0.,
          0., 142., 66., 0., 0., 120., 66., 0., 0., 112., 65., 0., 0.,
          0., 0., 188., 66., 0., 0., 198., 66., 0., 0., 168., 65., 0.,
          0., 0., 0., 194., 66., 0., 0., 0., 64., 0., 0., 0., 0., 0., 0.,
          0., 0., 0., 0., 0., 0., 0., 0., 0., 0., 128., 63., 0., 0., 0.,
          0., 0., 0., 0., 0., 0., 0., 0., 0., 184., 65., 0., 0., 0., 0.,
          44., 66., 0., 0., 96., 66., 0., 0., 96., 65., 0., 0., 0., 0.,
          80., 65., 0., 0., 44., 66., 0., 0., 8., 66., 0., 0., 0., 0.,
          16., 65., 0., 0., 0., 0., 0., 0., 0., 64., 0., 0. ]
      - [ 0., 0., 128., 63., 0., 0., 0., 0., 0., 0., 0., 0., 0., 0., 0.,
          0., 64., 64., 0., 0., 44., 66., 0., 0., 28., 66., 0., 0., 0.,
          0., 0., 64., 0., 0., 0., 64., 0., 0., 64., 64., 0., 0., 0., 0.,
          212., 66., 0., 0., 128., 63., 0., 0., 0., 0., 0., 0., 0., 0.,
          128., 64., 0., 0., 16., 65., 0., 0., 216., 65., 0., 0., 0., 0.,
          162., 66., 0., 0., 16., 65., 0., 0., 0., 0., 0., 0., 0., 0.,
          0., 0., 0., 0., 128., 63., 0., 0., 80., 65., 0., 0., 0., 0.,
          48., 65., 0., 0., 168., 65., 0., 0., 224., 65., 0., 0., 0., 0.,
          240., 65., 0., 0., 130., 66., 0., 0., 80., 65., 0., 0., 0., 0.,
          0., 0., 0., 0., 0., 0., 0., 0., 0., 0., 0., 0., 0., 0., 144.,
          65., 0., 0., 0., 0., 0., 0., 0., 0., 0., 0., 0., 0., 240., 65.,
          0., 0., 0., 64., 0., 0., 128., 64., 0., 0., 0., 0., 0., 0., 0.,
          0., 48., 65., 0., 0., 0., 66., 0., 0., 0., 0., 80., 65., 0.,
          0., 96., 65., 0., 0., 48., 65., 0., 0. ]
      - [ 0., 0., 232., 65., 0., 0., 176., 65., 0., 0., 160., 64., 0.,
          0., 0., 0., 64., 65., 0., 0., 160., 64., 0., 0., 192., 64., 0.,
          0., 0., 0., 192., 65., 0., 0., 0., 65., 0., 0., 0., 64., 0.,
          0., 0., 0., 0., 0., 0., 0., 0., 0., 0., 0., 0., 0., 0., 0., 0.,
          0., 192., 64., 0., 0., 0., 64., 0., 0., 0., 64., 0., 0., 0.,
          0., 128., 63., 0., 0., 0., 0., 0., 0., 0., 0., 0., 0., 0., 0.,
          232., 66., 0., 0., 80., 65., 0., 0., 0., 0., 0., 0., 0., 0.,
          248., 65., 0., 0., 224., 64., 0., 0., 0., 0., 0., 0., 0., 0.,
          64., 65., 0., 0., 128., 63., 0., 0., 0., 0., 0., 0., 0., 0.,
          128., 63., 0., 0., 128., 64., 0., 0., 128., 64., 0., 0., 0.,
          0., 116., 66., 0., 0., 144., 66., 0., 0., 144., 65., 0., 0.,
          0., 0., 8., 66., 0., 0., 24., 66., 0., 0., 0., 0., 0., 0., 0.,
          0., 0., 64., 0., 0., 0., 64., 0., 0., 64., 64., 0., 0., 0., 0.,
          150., 66., 0., 0., 144., 65., 0., 0., 0., 64., 0., 0. ]
      - [ 0., 0., 0., 0., 0., 0., 0., 0., 0., 0., 0., 0., 0., 0., 0., 0.,
          0., 0., 0., 0., 0., 0., 0., 0., 0., 0., 0., 0., 0., 0., 80.,
          65., 0., 0., 32., 65., 0., 0., 128., 63., 0., 0., 0., 0., 0.,
          0., 0., 0., 0., 0., 0., 0., 0., 0., 0., 0., 0., 0., 208., 65.,
          0., 0., 216., 65., 0., 0., 136., 65., 0., 0., 0., 0., 96., 65.,
          0., 0., 0., 64., 0., 0., 0., 0., 0., 0., 0., 0., 176., 65., 0.,
          0., 48., 65., 0., 0., 0., 65., 0., 0., 0., 0., 128., 63., 0.,
          0., 0., 0., 0., 0., 0., 0., 0., 0., 0., 0., 0., 66., 0., 0.,
          64., 64., 0., 0., 64., 64., 0., 0., 0., 0., 0., 0., 0., 0., 0.,
          0., 0., 0., 0., 0., 0., 0., 0., 0., 224., 65., 0., 0., 128.,
          63., 0., 0., 128., 63., 0., 0., 0., 0., 128., 64., 0., 0., 0.,
          65., 0., 0., 184., 65., 0., 0., 0., 0., 224., 64., 0., 0.,
          250., 66., 0., 0., 132., 66., 0., 0., 0., 0., 232., 65., 0.,
          0., 128., 64., 0., 0., 160., 64., 0., 0. ]
      - [ 0., 0., 224., 64., 0., 0., 192., 64., 0., 0., 0., 65., 0., 0.,
          0., 0., 224., 64., 0., 0., 0., 64., 0., 0., 0., 0., 0., 0., 0.,
          0., 20., 66., 0., 0., 160., 64., 0., 0., 0., 65., 0., 0., 0.,
          0., 16., 65., 0., 0., 128., 63., 0., 0., 0., 64., 0., 0., 0.,
          0., 0., 0., 0., 0., 0., 0., 0., 0., 0., 0., 0., 0., 0., 0., 0.,
          0., 0., 0., 0., 0., 0., 0., 0., 0., 0., 0., 0., 0., 0., 0., 0.,
          0., 192., 64., 0., 0., 0., 65., 0., 0., 0., 0., 36., 66., 0.,
          0., 216., 66., 0., 0., 88., 66., 0., 0., 0., 0., 0., 0., 0.,
          0., 0., 0., 0., 0., 0., 0., 0., 0., 0., 0., 16., 66., 0., 0.,
          64., 64., 0., 0., 160., 64., 0., 0., 0., 0., 64., 64., 0., 0.,
          0., 0., 0., 0., 0., 0., 0., 0., 0., 0., 142., 66., 0., 0.,
          196., 66., 0., 0., 134., 66., 0., 0., 0., 0., 76., 66., 0., 0.,
          80., 66., 0., 0., 0., 65., 0., 0., 0., 0., 48., 65., 0., 0.,
          160., 64., 0., 0., 152., 65., 0., 0. ]
      - [ 0., 0., 168., 66., 0., 0., 192., 65., 0., 0., 128., 63., 0.,
          0., 0., 0., 0., 65., 0., 0., 0., 64., 0., 0., 128., 63., 0.,
          0., 0., 0., 0., 0., 0., 0., 0., 0., 0., 0., 0., 0., 0., 0., 0.,
          0., 240., 65., 0., 0., 64., 64., 0., 0., 0., 0., 0., 0., 0.,
          0., 240., 65., 0., 0., 64., 64., 0., 0., 0., 0., 0., 0., 0.,
          0., 0., 0., 0., 0., 0., 0., 0., 0., 64., 64., 0., 0., 0., 0.,
          154., 66., 0., 0., 154., 66., 0., 0., 168., 65., 0., 0., 0.,
          0., 64., 66., 0., 0., 172., 66., 0., 0., 224., 64., 0., 0., 0.,
          0., 100., 66., 0., 0., 136., 65., 0., 0., 192., 64., 0., 0.,
          0., 0., 0., 0., 0., 0., 0., 0., 0., 0., 0., 0., 0., 0., 0., 0.,
          80., 65., 0., 0., 208., 65., 0., 0., 176., 65., 0., 0., 0., 0.,
          200., 65., 0., 0., 128., 63., 0., 0., 128., 63., 0., 0., 0.,
          0., 64., 65., 0., 0., 0., 64., 0., 0., 128., 63., 0., 0., 0.,
          0., 192., 64., 0., 0., 32., 65., 0., 0., 192., 64., 0., 0. ]
      - [ 0., 0., 0., 64., 0., 0., 5., 67., 0., 0., 10., 67., 0., 0., 0.,
          0., 64., 65., 0., 0., 0., 0., 0., 0., 0., 0., 0., 0., 0., 0.,
          32., 65., 0., 0., 236., 66., 0., 0., 184., 66., 0., 0., 0., 0.,
          160., 64., 0., 0., 24., 66., 0., 0., 176., 65., 0., 0., 0., 0.,
          40., 67., 0., 0., 168., 65., 0., 0., 0., 0., 0., 0., 0., 0.,
          80., 66., 0., 0., 200., 65., 0., 0., 128., 64., 0., 0., 0., 0.,
          160., 65., 0., 0., 164., 66., 0., 0., 100., 66., 0., 0., 0.,
          0., 112., 65., 0., 0., 164., 66., 0., 0., 212., 66., 0., 0.,
          0., 0., 0., 64., 0., 0., 0., 0., 0., 0., 0., 0., 0., 0., 0.,
          0., 176., 65., 0., 0., 200., 65., 0., 0., 32., 65., 0., 0., 0.,
          0., 128., 63., 0., 0., 0., 0., 0., 0., 128., 63., 0., 0., 0.,
          0., 0., 0., 0., 0., 0., 0., 0., 0., 0., 0., 0., 0., 0., 0.,
          128., 63., 0., 0., 224., 64., 0., 0., 1., 67., 0., 0., 0., 0.,
          16., 65., 0., 0., 192., 64., 0., 0., 128., 63., 0., 0. ]
      - [ 0., 0., 6., 67., 0., 0., 188., 66., 0., 0., 128., 63., 0., 0.,
          0., 0., 108., 66., 0., 0., 128., 63., 0., 0., 0., 0., 0., 0.,
          0., 0., 248., 66., 0., 0., 8., 66., 0., 0., 0., 0., 0., 0., 0.,
          0., 0., 64., 0., 0., 0., 64., 0., 0., 176., 65., 0., 0., 0.,
          0., 80., 66., 0., 0., 176., 65., 0., 0., 192., 64., 0., 0., 0.,
          0., 224., 64., 0., 0., 192., 65., 0., 0., 44., 66., 0., 0., 0.,
          0., 80., 65., 0., 0., 64., 65., 0., 0., 64., 64., 0., 0., 0.,
          0., 80., 65., 0., 0., 208., 65., 0., 0., 172., 66., 0., 0., 0.,
          0., 0., 0., 0., 0., 0., 0., 0., 0., 112., 65., 0., 0., 0., 0.,
          0., 65., 0., 0., 192., 64., 0., 0., 112., 65., 0., 0., 0., 0.,
          20., 66., 0., 0., 216., 65., 0., 0., 248., 65., 0., 0., 0., 0.,
          64., 65., 0., 0., 32., 66., 0., 0., 166., 66., 0., 0., 0., 0.,
          184., 65., 0., 0., 88., 66., 0., 0., 40., 66., 0., 0., 0., 0.,
          200., 65., 0., 0., 132., 66., 0., 0., 112., 65., 0., 0. ]
      - [ 0., 0., 0., 66., 0., 0., 64., 65., 0., 0., 80., 65., 0., 0.,
          0., 0., 0., 64., 0., 0., 188., 66., 0., 0., 164., 66., 0., 0.,
          0., 0., 32., 65., 0., 0., 64., 64., 0., 0., 64., 64., 0., 0.,
          0., 0., 128., 63., 0., 0., 0., 0., 0., 0., 0., 0., 0., 0., 0.,
          0., 52., 66., 0., 0., 128., 63., 0., 0., 0., 0., 0., 0., 0.,
          0., 128., 64., 0., 0., 0., 65., 0., 0., 0., 65., 0., 0., 0.,
          0., 142., 66., 0., 0., 0., 66., 0., 0., 96., 65., 0., 0., 0.,
          0., 128., 64., 0., 0., 128., 63., 0., 0., 0., 0., 0., 0., 0.,
          0., 128., 63., 0., 0., 0., 64., 0., 0., 128., 64., 0., 0., 0.,
          0., 32., 65., 0., 0., 208., 65., 0., 0., 170., 66., 0., 0., 0.,
          0., 128., 63., 0., 0., 224., 64., 0., 0., 64., 65., 0., 0., 0.,
          0., 224., 64., 0., 0., 64., 64., 0., 0., 0., 64., 0., 0., 0.,
          0., 96., 66., 0., 0., 64., 65., 0., 0., 64., 64., 0., 0., 0.,
          0., 12., 66., 0., 0., 160., 65., 0., 0., 0., 0., 0., 0. ]
      - [ 0., 0., 32., 65., 0., 0., 0., 65., 0., 0., 144., 66., 0., 0.,
          0., 0., 128., 63., 0., 0., 0., 64., 0., 0., 0., 64., 0., 0.,
          0., 0., 196., 66., 0., 0., 128., 65., 0., 0., 64., 64., 0., 0.,
          0., 0., 160., 65., 0., 0., 16., 66., 0., 0., 0., 64., 0., 0.,
          0., 0., 0., 0., 0., 0., 240., 65., 0., 0., 6., 67., 0., 0., 0.,
          0., 72., 66., 0., 0., 160., 64., 0., 0., 128., 63., 0., 0., 0.,
          0., 224., 64., 0., 0., 136., 65., 0., 0., 192., 64., 0., 0.,
          0., 0., 128., 65., 0., 0., 32., 66., 0., 0., 16., 65., 0., 0.,
          0., 0., 156., 66., 0., 0., 64., 64., 0., 0., 0., 0., 0., 0.,
          0., 0., 192., 64., 0., 0., 0., 64., 0., 0., 64., 64., 0., 0.,
          0., 0., 136., 66., 0., 0., 80., 65., 0., 0., 0., 0., 0., 0.,
          0., 0., 64., 65., 0., 0., 128., 63., 0., 0., 0., 0., 0., 0.,
          0., 0., 216., 65., 0., 0., 0., 64., 0., 0., 64., 64., 0., 0.,
          0., 0., 152., 65., 0., 0., 64., 64., 0., 0., 128., 63., 0., 0. ]
      - [ 0., 0., 0., 0., 0., 0., 128., 63., 0., 0., 128., 63., 0., 0.,
          0., 0., 0., 0., 0., 0., 128., 63., 0., 0., 0., 64., 0., 0., 0.,
          0., 160., 64., 0., 0., 96., 66., 0., 0., 32., 66., 0., 0., 0.,
          0., 0., 64., 0., 0., 128., 64., 0., 0., 80., 65., 0., 0., 0.,
          0., 96., 66., 0., 0., 176., 65., 0., 0., 0., 64., 0., 0., 0.,
          0., 224., 64., 0., 0., 64., 64., 0., 0., 128., 64., 0., 0., 0.,
          0., 0., 64., 0., 0., 224., 64., 0., 0., 148., 66., 0., 0., 0.,
          0., 36., 66., 0., 0., 44., 66., 0., 0., 176., 65., 0., 0., 0.,
          0., 8., 66., 0., 0., 240., 65., 0., 0., 160., 64., 0., 0., 0.,
          0., 84., 66., 0., 0., 112., 66., 0., 0., 152., 66., 0., 0., 0.,
          0., 128., 63., 0., 0., 0., 0., 0., 0., 128., 63., 0., 0., 0.,
          0., 64., 64., 0., 0., 0., 64., 0., 0., 32., 65., 0., 0., 0.,
          0., 0., 65., 0., 0., 192., 64., 0., 0., 16., 65., 0., 0., 0.,
          0., 56., 66., 0., 0., 160., 64., 0., 0., 128., 63., 0., 0. ]
      - [ 0., 0., 176., 65., 0., 0., 0., 64., 0., 0., 64., 64., 0., 0.,
          0., 0., 96., 66., 0., 0., 80., 66., 0., 0., 48., 65., 0., 0.,
          0., 0., 0., 0., 0., 0., 0., 0., 0., 0., 0., 0., 0., 0., 0., 0.,
          0., 65., 0., 0., 128., 65., 0., 0., 216., 65., 0., 0., 0., 0.,
          248., 65., 0., 0., 128., 64., 0., 0., 192., 64., 0., 0., 0.,
          0., 204., 66., 0., 0., 0., 66., 0., 0., 128., 63., 0., 0., 0.,
          0., 248., 65., 0., 0., 192., 65., 0., 0., 0., 65., 0., 0., 0.,
          0., 144., 66., 0., 0., 160., 64., 0., 0., 0., 0., 0., 0., 0.,
          0., 142., 66., 0., 0., 76., 66., 0., 0., 128., 63., 0., 0., 0.,
          0., 96., 65., 0., 0., 192., 65., 0., 0., 128., 63., 0., 0., 0.,
          0., 128., 65., 0., 0., 224., 64., 0., 0., 0., 64., 0., 0., 0.,
          0., 134., 66., 0., 0., 48., 65., 0., 0., 160., 64., 0., 0., 0.,
          0., 240., 65., 0., 0., 16., 65., 0., 0., 0., 0., 0., 0., 0.,
          0., 5., 67., 0., 0., 112., 65., 0., 0., 128., 63., 0., 0. ]
      - [ 0., 0., 136., 65., 0., 0., 144., 66., 0., 0., 88., 66., 0., 0.,
          0., 0., 64., 64., 0., 0., 0., 65., 0., 0., 16., 65., 0., 0.,
          0., 0., 80., 65., 0., 0., 188., 66., 0., 0., 176., 65., 0., 0.,
          0., 0., 242., 66., 0., 0., 208., 65., 0., 0., 144., 65., 0.,
          0., 0., 0., 0., 66., 0., 0., 224., 65., 0., 0., 128., 66., 0.,
          0., 0., 0., 192., 64., 0., 0., 0., 64., 0., 0., 224., 64., 0.,
          0., 0., 0., 0., 0., 0., 0., 0., 0., 0., 0., 16., 65., 0., 0.,
          0., 0., 192., 65., 0., 0., 12., 66., 0., 0., 0., 65., 0., 0.,
          0., 0., 176., 66., 0., 0., 52., 66., 0., 0., 64., 64., 0., 0.,
          0., 0., 0., 65., 0., 0., 128., 63., 0., 0., 128., 63., 0., 0.,
          0., 0., 232., 65., 0., 0., 32., 66., 0., 0., 0., 65., 0., 0.,
          0., 0., 4., 67., 0., 0., 170., 66., 0., 0., 0., 0., 0., 0., 0.,
          0., 32., 65., 0., 0., 168., 65., 0., 0., 24., 66., 0., 0., 0.,
          0., 0., 64., 0., 0., 0., 64., 0., 0., 0., 64., 0., 0. ]
      - [ 0., 0., 0., 0., 0., 0., 32., 65., 0., 0., 170., 66., 0., 0.,
          0., 0., 0., 0., 0., 0., 128., 64., 0., 0., 64., 65., 0., 0.,
          0., 0., 160., 64., 0., 0., 192., 64., 0., 0., 64., 64., 0., 0.,
          0., 0., 0., 64., 0., 0., 192., 64., 0., 0., 64., 65., 0., 0.,
          0., 0., 128., 65., 0., 0., 128., 63., 0., 0., 128., 63., 0.,
          0., 0., 0., 160., 65., 0., 0., 28., 66., 0., 0., 224., 64., 0.,
          0., 0., 0., 0., 0., 0., 0., 0., 0., 0., 0., 0., 0., 0., 0., 0.,
          0., 128., 63., 0., 0., 128., 63., 0., 0., 224., 64., 0., 0.,
          0., 0., 64., 65., 0., 0., 128., 63., 0., 0., 0., 0., 0., 0.,
          0., 0., 128., 64., 0., 0., 194., 66., 0., 0., 24., 66., 0., 0.,
          0., 0., 128., 64., 0., 0., 0., 0., 0., 0., 0., 0., 0., 0., 0.,
          0., 0., 64., 0., 0., 192., 64., 0., 0., 128., 65., 0., 0., 0.,
          0., 240., 65., 0., 0., 0., 0., 0., 0., 0., 0., 0., 0., 0., 0.,
          0., 0., 0., 0., 0., 0., 0., 0., 0., 0., 0., 0. ]
      - [ 0., 0., 152., 66., 0., 0., 192., 65., 0., 0., 0., 64., 0., 0.,
          0., 0., 64., 64., 0., 0., 0., 64., 0., 0., 64., 64., 0., 0.,
          0., 0., 160., 64., 0., 0., 0., 64., 0., 0., 0., 0., 0., 0., 0.,
          0., 160., 64., 0., 0., 128., 63., 0., 0., 0., 0., 0., 0., 0.,
          0., 32., 65., 0., 0., 160., 64., 0., 0., 64., 64., 0., 0., 0.,
          0., 0., 64., 0., 0., 0., 0., 0., 0., 0., 0., 0., 0., 0., 0.,
          200., 65., 0., 0., 160., 64., 0., 0., 0., 0., 0., 0., 0., 0.,
          168., 65., 0., 0., 0., 64., 0., 0., 128., 63., 0., 0., 0., 0.,
          170., 66., 0., 0., 136., 65., 0., 0., 0., 0., 0., 0., 0., 0.,
          160., 64., 0., 0., 0., 64., 0., 0., 128., 63., 0., 0., 0., 0.,
          11., 67., 0., 0., 64., 64., 0., 0., 0., 0., 0., 0., 0., 0.,
          168., 66., 0., 0., 136., 65., 0., 0., 0., 0., 0., 0., 0., 0.,
          96., 65., 0., 0., 128., 63., 0., 0., 0., 0., 0., 0., 0., 0.,
          144., 65., 0., 0., 160., 64., 0., 0., 0., 0., 0., 0. ]
      - [ 0., 0., 192., 65., 0., 0., 48., 65., 0., 0., 0., 0., 0., 0.,
          0., 0., 112., 65., 0., 0., 128., 63., 0., 0., 0., 0., 0., 0.,
          0., 0., 160., 64., 0., 0., 0., 0., 0., 0., 0., 0., 0., 0., 0.,
          0., 128., 66., 0., 0., 180., 66., 0., 0., 176., 65., 0., 0.,
          0., 0., 0., 0., 0., 0., 0., 0., 0., 0., 128., 63., 0., 0., 0.,
          0., 136., 65., 0., 0., 160., 64., 0., 0., 0., 0., 0., 0., 0.,
          0., 216., 65., 0., 0., 0., 0., 0., 0., 0., 0., 0., 0., 0., 0.,
          100., 66., 0., 0., 128., 63., 0., 0., 0., 0., 0., 0., 0., 0.,
          3., 67., 0., 0., 190., 66., 0., 0., 0., 0., 0., 0., 0., 0.,
          192., 64., 0., 0., 128., 63., 0., 0., 0., 64., 0., 0., 0., 0.,
          250., 66., 0., 0., 56., 66., 0., 0., 128., 63., 0., 0., 0., 0.,
          128., 63., 0., 0., 132., 66., 0., 0., 178., 66., 0., 0., 0.,
          0., 248., 65., 0., 0., 136., 65., 0., 0., 64., 65., 0., 0., 0.,
          0., 56., 66., 0., 0., 232., 65., 0., 0., 0., 0., 0., 0. ]
      - [ 0., 0., 0., 0., 0., 0., 0., 0., 0., 0., 0., 0., 0., 0., 0., 0.,
          174., 66., 0., 0., 80., 66., 0., 0., 128., 64., 0., 0., 0., 0.,
          236., 66., 0., 0., 0., 0., 0., 0., 0., 0., 0., 0., 0., 0.,
          156., 66., 0., 0., 96., 65., 0., 0., 128., 63., 0., 0., 0., 0.,
          192., 64., 0., 0., 192., 65., 0., 0., 200., 65., 0., 0., 0.,
          0., 128., 63., 0., 0., 0., 0., 0., 0., 0., 0., 0., 0., 0., 0.,
          128., 63., 0., 0., 0., 0., 0., 0., 0., 0., 0., 0., 0., 0., 0.,
          0., 0., 0., 0., 64., 0., 0., 128., 64., 0., 0., 0., 0., 128.,
          64., 0., 0., 64., 64., 0., 0., 192., 64., 0., 0., 0., 0., 128.,
          63., 0., 0., 16., 66., 0., 0., 234., 66., 0., 0., 0., 0., 56.,
          66., 0., 0., 144., 65., 0., 0., 0., 65., 0., 0., 0., 0., 0.,
          0., 0., 0., 170., 66., 0., 0., 208., 65., 0., 0., 0., 0., 128.,
          63., 0., 0., 0., 0., 0., 0., 64., 64., 0., 0., 0., 0., 216.,
          65., 0., 0., 194., 66., 0., 0., 202., 66., 0., 0. ]
      - [ 0., 0., 190., 66., 0., 0., 224., 64., 0., 0., 0., 0., 0., 0.,
          0., 0., 174., 66., 0., 0., 216., 65., 0., 0., 128., 64., 0.,
          0., 0., 0., 64., 64., 0., 0., 160., 64., 0., 0., 128., 63., 0.,
          0., 0., 0., 0., 0., 0., 0., 0., 0., 0., 0., 128., 64., 0., 0.,
          0., 0., 224., 65., 0., 0., 16., 66., 0., 0., 144., 65., 0., 0.,
          0., 0., 192., 64., 0., 0., 216., 65., 0., 0., 160., 65., 0.,
          0., 0., 0., 0., 65., 0., 0., 128., 65., 0., 0., 64., 66., 0.,
          0., 0., 0., 192., 65., 0., 0., 64., 64., 0., 0., 128., 64., 0.,
          0., 0., 0., 176., 65., 0., 0., 232., 65., 0., 0., 96., 65., 0.,
          0., 0., 0., 128., 63., 0., 0., 128., 64., 0., 0., 16., 66., 0.,
          0., 0., 0., 128., 64., 0., 0., 160., 64., 0., 0., 128., 63.,
          0., 0., 0., 0., 16., 65., 0., 0., 128., 64., 0., 0., 0., 65.,
          0., 0., 0., 0., 32., 66., 0., 0., 48., 65., 0., 0., 192., 64.,
          0., 0., 0., 0., 48., 65., 0., 0., 192., 64., 0., 0., 64., 64.,
          0., 0. ]
      - [ 0., 0., 0., 64., 0., 0., 128., 63., 0., 0., 0., 0., 0., 0., 0.,
          0., 138., 66., 0., 0., 0., 0., 0., 0., 0., 0., 0., 0., 0., 0.,
          88., 66., 0., 0., 128., 63., 0., 0., 128., 63., 0., 0., 0., 0.,
          80., 65., 0., 0., 160., 64., 0., 0., 48., 65., 0., 0., 0., 0.,
          16., 65., 0., 0., 0., 0., 0., 0., 0., 0., 0., 0., 0., 0., 0.,
          0., 0., 0., 0., 0., 0., 0., 128., 63., 0., 0., 0., 0., 32.,
          66., 0., 0., 64., 64., 0., 0., 0., 0., 0., 0., 0., 0., 0., 0.,
          0., 0., 64., 64., 0., 0., 80., 65., 0., 0., 0., 0., 48., 65.,
          0., 0., 48., 65., 0., 0., 0., 65., 0., 0., 0., 0., 112., 65.,
          0., 0., 128., 63., 0., 0., 0., 0., 0., 0., 0., 0., 128., 65.,
          0., 0., 192., 65., 0., 0., 192., 65., 0., 0., 0., 0., 184.,
          65., 0., 0., 0., 64., 0., 0., 128., 63., 0., 0., 0., 0., 176.,
          65., 0., 0., 64., 65., 0., 0., 192., 64., 0., 0., 0., 0., 32.,
          65., 0., 0., 0., 0., 0., 0., 0., 0., 0., 0. ]
      - [ 0., 0., 232., 65., 0., 0., 208., 65., 0., 0., 0., 0., 0., 0.,
          0., 0., 0., 0., 0., 0., 0., 0., 0., 0., 0., 0., 0., 0., 0., 0.,
          0., 0., 0., 0., 0., 0., 0., 0., 0., 0., 0., 0., 0., 0., 0.,
          64., 0., 0., 160., 65., 0., 0., 224., 64., 0., 0., 0., 0., 0.,
          0., 0., 0., 128., 63., 0., 0., 160., 64., 0., 0., 0., 0., 128.,
          64., 0., 0., 0., 64., 0., 0., 192., 64., 0., 0., 0., 0., 152.,
          65., 0., 0., 136., 65., 0., 0., 224., 65., 0., 0., 0., 0.,
          128., 64., 0., 0., 112., 65., 0., 0., 166., 66., 0., 0., 0.,
          0., 96., 65., 0., 0., 0., 66., 0., 0., 68., 66., 0., 0., 0.,
          0., 14., 67., 0., 0., 0., 64., 0., 0., 0., 0., 0., 0., 0., 0.,
          0., 0., 0., 0., 0., 0., 0., 0., 88., 66., 0., 0., 0., 0., 48.,
          65., 0., 0., 144., 65., 0., 0., 16., 65., 0., 0., 0., 0., 16.,
          66., 0., 0., 64., 66., 0., 0., 20., 66., 0., 0., 0., 0., 224.,
          64., 0., 0., 0., 0., 0., 0., 0., 0., 0., 0. ]
      - [ 0., 0., 4., 66., 0., 0., 224., 64., 0., 0., 192., 64., 0., 0.,
          0., 0., 200., 65., 0., 0., 134., 66., 0., 0., 60., 66., 0., 0.,
          0., 0., 128., 63., 0., 0., 48., 65., 0., 0., 192., 65., 0., 0.,
          0., 0., 210., 66., 0., 0., 176., 65., 0., 0., 128., 64., 0.,
          0., 0., 0., 174., 66., 0., 0., 56., 66., 0., 0., 0., 66., 0.,
          0., 0., 0., 160., 65., 0., 0., 64., 65., 0., 0., 160., 65., 0.,
          0., 0., 0., 190., 66., 0., 0., 128., 65., 0., 0., 128., 63.,
          0., 0., 0., 0., 128., 66., 0., 0., 208., 65., 0., 0., 64., 64.,
          0., 0., 0., 0., 130., 66., 0., 0., 170., 66., 0., 0., 184.,
          65., 0., 0., 0., 0., 224., 65., 0., 0., 184., 65., 0., 0., 0.,
          65., 0., 0., 0., 0., 248., 65., 0., 0., 224., 65., 0., 0.,
          152., 65., 0., 0., 0., 0., 128., 63., 0., 0., 128., 65., 0.,
          0., 64., 65., 0., 0., 0., 0., 186., 66., 0., 0., 84., 66., 0.,
          0., 0., 65., 0., 0., 0., 0., 0., 0., 0., 0., 0., 0., 0., 0.,
          0., 0., 0., 0. ]
      - [ 0., 0., 36., 66., 0., 0., 176., 65., 0., 0., 0., 0., 0., 0.,
          0., 0., 0., 0., 0., 0., 0., 0., 0., 0., 0., 0., 0., 0., 0., 0.,
          130., 66., 0., 0., 0., 0., 0., 0., 0., 0., 0., 0., 0., 0., 64.,
          65., 0., 0., 32., 65., 0., 0., 0., 64., 0., 0., 0., 0., 92.,
          66., 0., 0., 168., 66., 0., 0., 128., 63., 0., 0., 0., 0.,
          128., 63., 0., 0., 128., 64., 0., 0., 64., 64., 0., 0., 0., 0.,
          128., 63., 0., 0., 128., 64., 0., 0., 16., 66., 0., 0., 0., 0.,
          0., 0., 0., 0., 128., 63., 0., 0., 96., 66., 0., 0., 0., 0.,
          200., 65., 0., 0., 68., 66., 0., 0., 160., 64., 0., 0., 0., 0.,
          0., 65., 0., 0., 48., 65., 0., 0., 192., 64., 0., 0., 0., 0.,
          32., 65., 0., 0., 128., 65., 0., 0., 160., 65., 0., 0., 0., 0.,
          0., 0., 0., 0., 64., 64., 0., 0., 64., 65., 0., 0., 0., 0.,
          192., 65., 0., 0., 160., 65., 0., 0., 0., 64., 0., 0., 0., 0.,
          36., 66., 0., 0., 96., 65., 0., 0., 128., 63., 0., 0. ]
      - [ 0., 0., 208., 65., 0., 0., 142., 66., 0., 0., 206., 66., 0.,
          0., 0., 0., 48., 66., 0., 0., 64., 64., 0., 0., 128., 64., 0.,
          0., 0., 0., 128., 63., 0., 0., 200., 65., 0., 0., 24., 66., 0.,
          0., 0., 0., 64., 64., 0., 0., 0., 0., 0., 0., 0., 0., 0., 0.,
          0., 0., 184., 65., 0., 0., 16., 65., 0., 0., 112., 65., 0., 0.,
          0., 0., 224., 64., 0., 0., 128., 65., 0., 0., 28., 66., 0., 0.,
          0., 0., 128., 63., 0., 0., 160., 64., 0., 0., 232., 65., 0.,
          0., 0., 0., 48., 65., 0., 0., 0., 66., 0., 0., 128., 66., 0.,
          0., 0., 0., 128., 64., 0., 0., 128., 63., 0., 0., 96., 65., 0.,
          0., 0., 0., 254., 66., 0., 0., 216., 65., 0., 0., 128., 64.,
          0., 0., 0., 0., 64., 64., 0., 0., 136., 65., 0., 0., 192., 64.,
          0., 0., 0., 0., 160., 64., 0., 0., 16., 65., 0., 0., 160., 64.,
          0., 0., 0., 0., 64., 64., 0., 0., 248., 66., 0., 0., 3., 67.,
          0., 0., 0., 0., 48., 65., 0., 0., 160., 65., 0., 0., 0., 66.,
          0., 0. ]
      - [ 0., 0., 186., 66., 0., 0., 0., 64., 0., 0., 0., 0., 0., 0., 0.,
          0., 128., 64., 0., 0., 0., 64., 0., 0., 0., 0., 0., 0., 0., 0.,
          248., 65., 0., 0., 128., 63., 0., 0., 0., 64., 0., 0., 0., 0.,
          144., 66., 0., 0., 216., 65., 0., 0., 0., 0., 0., 0., 0., 0.,
          192., 64., 0., 0., 0., 0., 0., 0., 0., 0., 0., 0., 0., 0.,
          192., 64., 0., 0., 0., 0., 0., 0., 0., 0., 0., 0., 0., 0., 28.,
          66., 0., 0., 64., 64., 0., 0., 0., 65., 0., 0., 0., 0., 152.,
          66., 0., 0., 32., 65., 0., 0., 64., 64., 0., 0., 0., 0., 144.,
          65., 0., 0., 64., 65., 0., 0., 0., 64., 0., 0., 0., 0., 184.,
          65., 0., 0., 144., 65., 0., 0., 128., 64., 0., 0., 0., 0.,
          216., 65., 0., 0., 208., 65., 0., 0., 152., 65., 0., 0., 0.,
          0., 160., 64., 0., 0., 184., 65., 0., 0., 136., 65., 0., 0.,
          0., 0., 20., 66., 0., 0., 128., 65., 0., 0., 136., 65., 0., 0.,
          0., 0., 192., 66., 0., 0., 128., 63., 0., 0., 0., 0., 0., 0. ]
      - [ 0., 0., 0., 0., 0., 0., 0., 0., 0., 0., 0., 0., 0., 0., 0., 0.,
          28., 66., 0., 0., 192., 64., 0., 0., 128., 63., 0., 0., 0., 0.,
          68., 66., 0., 0., 0., 64., 0., 0., 0., 0., 0., 0., 0., 0.,
          128., 65., 0., 0., 0., 64., 0., 0., 0., 0., 0., 0., 0., 0.,
          152., 65., 0., 0., 0., 64., 0., 0., 0., 0., 0., 0., 0., 0.,
          130., 66., 0., 0., 208., 65., 0., 0., 128., 63., 0., 0., 0.,
          0., 44., 66., 0., 0., 64., 64., 0., 0., 0., 0., 0., 0., 0., 0.,
          72., 66., 0., 0., 152., 65., 0., 0., 0., 0., 0., 0., 0., 0.,
          0., 0., 0., 0., 0., 0., 0., 0., 0., 0., 0., 0., 0., 0., 28.,
          66., 0., 0., 128., 63., 0., 0., 0., 0., 0., 0., 0., 0., 0., 0.,
          0., 0., 0., 0., 0., 0., 194., 66., 0., 0., 0., 0., 120., 66.,
          0., 0., 192., 64., 0., 0., 0., 64., 0., 0., 0., 0., 4., 66.,
          0., 0., 224., 64., 0., 0., 0., 0., 0., 0., 0., 0., 128., 63.,
          0., 0., 0., 0., 0., 0., 128., 63., 0., 0. ]
      - [ 0., 0., 96., 65., 0., 0., 176., 65., 0., 0., 16., 65., 0., 0.,
          0., 0., 16., 65., 0., 0., 80., 65., 0., 0., 168., 65., 0., 0.,
          0., 0., 72., 66., 0., 0., 64., 65., 0., 0., 64., 64., 0., 0.,
          0., 0., 64., 64., 0., 0., 128., 63., 0., 0., 128., 63., 0., 0.,
          0., 0., 80., 65., 0., 0., 152., 66., 0., 0., 168., 65., 0., 0.,
          0., 0., 128., 63., 0., 0., 192., 64., 0., 0., 136., 65., 0.,
          0., 0., 0., 0., 64., 0., 0., 168., 66., 0., 0., 168., 65., 0.,
          0., 0., 0., 16., 65., 0., 0., 116., 66., 0., 0., 216., 65., 0.,
          0., 0., 0., 108., 66., 0., 0., 12., 66., 0., 0., 0., 0., 0.,
          0., 0., 0., 120., 66., 0., 0., 134., 66., 0., 0., 128., 64.,
          0., 0., 0., 0., 0., 0., 0., 0., 0., 64., 0., 0., 128., 63., 0.,
          0., 0., 0., 232., 65., 0., 0., 112., 65., 0., 0., 80., 65., 0.,
          0., 0., 0., 176., 66., 0., 0., 80., 65., 0., 0., 0., 0., 0.,
          0., 0., 0., 52., 66., 0., 0., 172., 66., 0., 0., 144., 65., 0.,
          0. ]
      - [ 0., 0., 48., 65., 0., 0., 64., 64., 0., 0., 128., 63., 0., 0.,
          0., 0., 80., 65., 0., 0., 200., 65., 0., 0., 128., 64., 0., 0.,
          0., 0., 16., 65., 0., 0., 0., 0., 0., 0., 0., 0., 0., 0., 0.,
          0., 0., 64., 0., 0., 0., 0., 0., 0., 128., 63., 0., 0., 0., 0.,
          248., 65., 0., 0., 128., 64., 0., 0., 0., 0., 0., 0., 0., 0.,
          0., 0., 0., 0., 0., 0., 0., 0., 0., 0., 0., 0., 0., 0., 162.,
          66., 0., 0., 192., 64., 0., 0., 128., 63., 0., 0., 0., 0.,
          104., 66., 0., 0., 76., 66., 0., 0., 64., 65., 0., 0., 0., 0.,
          244., 66., 0., 0., 5., 67., 0., 0., 190., 66., 0., 0., 0., 0.,
          144., 66., 0., 0., 116., 66., 0., 0., 0., 64., 0., 0., 0., 0.,
          80., 65., 0., 0., 128., 66., 0., 0., 174., 66., 0., 0., 0., 0.,
          160., 66., 0., 0., 162., 66., 0., 0., 32., 65., 0., 0., 0., 0.,
          128., 63., 0., 0., 128., 64., 0., 0., 192., 65., 0., 0., 0.,
          0., 128., 63., 0., 0., 128., 65., 0., 0., 92., 66., 0., 0. ]
      - [ 0., 0., 64., 65., 0., 0., 128., 65., 0., 0., 16., 65., 0., 0.,
          0., 0., 80., 65., 0., 0., 158., 66., 0., 0., 224., 64., 0., 0.,
          0., 0., 152., 65., 0., 0., 128., 63., 0., 0., 0., 0., 0., 0.,
          0., 0., 128., 63., 0., 0., 32., 65., 0., 0., 164., 66., 0., 0.,
          0., 0., 0., 65., 0., 0., 3., 67., 0., 0., 36., 66., 0., 0., 0.,
          0., 64., 64., 0., 0., 56., 66., 0., 0., 196., 66., 0., 0., 0.,
          0., 0., 0., 0., 0., 0., 0., 0., 0., 0., 0., 0., 0., 0., 0.,
          176., 65., 0., 0., 228., 66., 0., 0., 6., 67., 0., 0., 0., 0.,
          192., 64., 0., 0., 144., 65., 0., 0., 176., 65., 0., 0., 0.,
          0., 160., 64., 0., 0., 0., 0., 0., 0., 128., 63., 0., 0., 0.,
          0., 0., 0., 0., 0., 0., 0., 0., 0., 0., 0., 0., 0., 0., 0.,
          134., 66., 0., 0., 136., 65., 0., 0., 128., 64., 0., 0., 0.,
          0., 128., 63., 0., 0., 0., 0., 0., 0., 0., 0., 0., 0., 0., 0.,
          128., 63., 0., 0., 0., 64., 0., 0., 64., 64., 0., 0. ]
      - [ 0., 0., 128., 65., 0., 0., 224., 64., 0., 0., 0., 0., 0., 0.,
          0., 0., 64., 64., 0., 0., 152., 65., 0., 0., 138., 66., 0., 0.,
          0., 0., 134., 66., 0., 0., 232., 65., 0., 0., 0., 0., 0., 0.,
          0., 0., 130., 66., 0., 0., 128., 63., 0., 0., 0., 0., 0., 0.,
          0., 0., 128., 63., 0., 0., 224., 64., 0., 0., 224., 64., 0.,
          0., 0., 0., 44., 66., 0., 0., 64., 64., 0., 0., 0., 0., 0., 0.,
          0., 0., 64., 64., 0., 0., 128., 63., 0., 0., 128., 64., 0., 0.,
          0., 0., 0., 65., 0., 0., 152., 65., 0., 0., 64., 64., 0., 0.,
          0., 0., 160., 65., 0., 0., 128., 63., 0., 0., 0., 0., 0., 0.,
          0., 0., 0., 0., 0., 0., 0., 0., 0., 0., 160., 64., 0., 0., 0.,
          0., 160., 64., 0., 0., 48., 65., 0., 0., 64., 64., 0., 0., 0.,
          0., 176., 66., 0., 0., 48., 66., 0., 0., 128., 64., 0., 0., 0.,
          0., 192., 64., 0., 0., 64., 64., 0., 0., 64., 64., 0., 0., 0.,
          0., 232., 65., 0., 0., 128., 63., 0., 0., 0., 0., 0., 0. ]
      - [ 0., 0., 56., 66., 0., 0., 0., 64., 0., 0., 0., 0., 0., 0., 0.,
          0., 144., 65., 0., 0., 152., 65., 0., 0., 0., 64., 0., 0., 0.,
          0., 0., 0., 0., 0., 0., 0., 0., 0., 0., 0., 0., 0., 0., 0.,
          48., 65., 0., 0., 128., 63., 0., 0., 128., 63., 0., 0., 0., 0.,
          112., 65., 0., 0., 128., 63., 0., 0., 0., 0., 0., 0., 0., 0.,
          0., 67., 0., 0., 128., 63., 0., 0., 0., 0., 0., 0., 0., 0., 0.,
          67., 0., 0., 96., 65., 0., 0., 0., 0., 0., 0., 0., 0., 0., 0.,
          0., 0., 0., 0., 0., 0., 0., 0., 0., 0., 0., 0., 0., 0., 0., 0.,
          0., 0., 0., 0., 168., 65., 0., 0., 0., 0., 0., 67., 0., 0., 6.,
          67., 0., 0., 0., 0., 0., 0., 0., 0., 0., 0., 0., 0., 0., 0.,
          0., 0., 0., 0., 0., 0., 0., 0., 144., 65., 0., 0., 128., 63.,
          0., 0., 0., 64., 0., 0., 0., 0., 0., 0., 0., 0., 0., 0., 0.,
          0., 0., 0., 0., 0., 0., 0., 32., 66., 0., 0., 80., 65., 0., 0.,
          198., 66., 0., 0. ]
      - [ 0., 0., 64., 64., 0., 0., 0., 64., 0., 0., 0., 0., 0., 0., 0.,
          0., 0., 64., 0., 0., 128., 63., 0., 0., 128., 63., 0., 0., 0.,
          0., 92., 66., 0., 0., 112., 65., 0., 0., 128., 63., 0., 0., 0.,
          0., 128., 63., 0., 0., 64., 64., 0., 0., 128., 64., 0., 0., 0.,
          0., 108., 66., 0., 0., 224., 64., 0., 0., 160., 64., 0., 0.,
          0., 0., 206., 66., 0., 0., 8., 66., 0., 0., 0., 0., 0., 0., 0.,
          0., 216., 65., 0., 0., 64., 64., 0., 0., 128., 63., 0., 0., 0.,
          0., 72., 66., 0., 0., 64., 64., 0., 0., 128., 63., 0., 0., 0.,
          0., 0., 64., 0., 0., 128., 63., 0., 0., 128., 63., 0., 0., 0.,
          0., 128., 63., 0., 0., 128., 63., 0., 0., 128., 63., 0., 0.,
          0., 0., 64., 65., 0., 0., 64., 64., 0., 0., 128., 63., 0., 0.,
          0., 0., 0., 65., 0., 0., 0., 64., 0., 0., 64., 64., 0., 0., 0.,
          0., 0., 64., 0., 0., 96., 65., 0., 0., 12., 66., 0., 0., 0.,
          0., 0., 64., 0., 0., 64., 64., 0., 0., 64., 64., 0., 0. ]
      - [ 0., 0., 0., 65., 0., 0., 64., 64., 0., 0., 0., 0., 0., 0., 0.,
          0., 128., 63., 0., 0., 128., 64., 0., 0., 128., 63., 0., 0.,
          0., 0., 9., 67., 0., 0., 128., 65., 0., 0., 0., 0., 0., 0., 0.,
          0., 128., 64., 0., 0., 128., 64., 0., 0., 0., 0., 0., 0., 0.,
          0., 0., 64., 0., 0., 0., 65., 0., 0., 196., 66., 0., 0., 0.,
          0., 0., 0., 0., 0., 0., 0., 0., 0., 0., 0., 0., 0., 0., 0.,
          40., 66., 0., 0., 136., 65., 0., 0., 112., 66., 0., 0., 0., 0.,
          144., 65., 0., 0., 128., 63., 0., 0., 0., 0., 0., 0., 0., 0.,
          64., 64., 0., 0., 0., 0., 0., 0., 0., 0., 0., 0., 0., 0., 10.,
          67., 0., 0., 168., 65., 0., 0., 0., 64., 0., 0., 0., 0., 44.,
          66., 0., 0., 0., 0., 0., 0., 0., 0., 0., 0., 0., 0., 80., 65.,
          0., 0., 32., 65., 0., 0., 0., 64., 0., 0., 0., 0., 80., 65.,
          0., 0., 16., 65., 0., 0., 0., 0., 0., 0., 0., 0., 64., 66., 0.,
          0., 14., 67., 0., 0., 0., 0., 0., 0. ]
      - [ 0., 0., 240., 65., 0., 0., 52., 66., 0., 0., 84., 66., 0., 0.,
          0., 0., 24., 66., 0., 0., 232., 65., 0., 0., 160., 64., 0., 0.,
          0., 0., 16., 65., 0., 0., 128., 64., 0., 0., 16., 65., 0., 0.,
          0., 0., 192., 64., 0., 0., 160., 64., 0., 0., 0., 65., 0., 0.,
          0., 0., 92., 66., 0., 0., 152., 65., 0., 0., 128., 63., 0., 0.,
          0., 0., 112., 65., 0., 0., 0., 0., 0., 0., 0., 0., 0., 0., 0.,
          0., 128., 63., 0., 0., 144., 65., 0., 0., 0., 66., 0., 0., 0.,
          0., 0., 0., 0., 0., 128., 63., 0., 0., 0., 0., 0., 0., 0., 0.,
          96., 65., 0., 0., 232., 65., 0., 0., 240., 65., 0., 0., 0., 0.,
          138., 66., 0., 0., 188., 66., 0., 0., 32., 65., 0., 0., 0., 0.,
          0., 0., 0., 0., 0., 64., 0., 0., 32., 65., 0., 0., 0., 0.,
          210., 66., 0., 0., 136., 65., 0., 0., 64., 64., 0., 0., 0., 0.,
          178., 66., 0., 0., 80., 65., 0., 0., 0., 0., 0., 0., 0., 0.,
          48., 65., 0., 0., 32., 65., 0., 0., 0., 65., 0., 0. ]
      - [ 0., 0., 128., 64., 0., 0., 0., 0., 0., 0., 0., 0., 0., 0., 0.,
          0., 96., 65., 0., 0., 0., 0., 0., 0., 0., 0., 0., 0., 0., 0.,
          130., 66., 0., 0., 216., 65., 0., 0., 0., 0., 0., 0., 0., 0.,
          64., 65., 0., 0., 56., 66., 0., 0., 168., 65., 0., 0., 0., 0.,
          36., 66., 0., 0., 64., 64., 0., 0., 0., 0., 0., 0., 0., 0.,
          64., 65., 0., 0., 0., 64., 0., 0., 128., 63., 0., 0., 0., 0.,
          28., 66., 0., 0., 192., 64., 0., 0., 128., 63., 0., 0., 0., 0.,
          142., 66., 0., 0., 0., 64., 0., 0., 0., 0., 0., 0., 0., 0., 0.,
          64., 0., 0., 156., 66., 0., 0., 150., 66., 0., 0., 0., 0.,
          156., 66., 0., 0., 16., 65., 0., 0., 0., 0., 0., 0., 0., 0.,
          108., 66., 0., 0., 128., 63., 0., 0., 0., 0., 0., 0., 0., 0.,
          160., 64., 0., 0., 0., 0., 0., 0., 0., 0., 0., 0., 0., 0., 16.,
          65., 0., 0., 0., 0., 0., 0., 0., 0., 0., 0., 0., 0., 0., 0.,
          0., 0., 128., 65., 0., 0., 240., 65., 0., 0. ]
      - [ 0., 0., 0., 64., 0., 0., 128., 64., 0., 0., 160., 64., 0., 0.,
          0., 0., 0., 0., 0., 0., 0., 0., 0., 0., 0., 0., 0., 0., 0., 0.,
          16., 65., 0., 0., 0., 0., 0., 0., 0., 0., 0., 0., 0., 0., 64.,
          64., 0., 0., 0., 64., 0., 0., 0., 0., 0., 0., 0., 0., 250.,
          66., 0., 0., 128., 63., 0., 0., 0., 0., 0., 0., 0., 0., 144.,
          65., 0., 0., 160., 64., 0., 0., 0., 64., 0., 0., 0., 0., 112.,
          65., 0., 0., 96., 66., 0., 0., 48., 65., 0., 0., 0., 0., 120.,
          66., 0., 0., 248., 66., 0., 0., 144., 65., 0., 0., 0., 0., 32.,
          65., 0., 0., 48., 65., 0., 0., 48., 65., 0., 0., 0., 0., 128.,
          64., 0., 0., 176., 65., 0., 0., 0., 64., 0., 0., 0., 0., 224.,
          64., 0., 0., 64., 64., 0., 0., 64., 64., 0., 0., 0., 0., 0.,
          0., 0., 0., 0., 0., 0., 0., 184., 65., 0., 0., 0., 0., 188.,
          66., 0., 0., 182., 66., 0., 0., 128., 64., 0., 0., 0., 0., 8.,
          66., 0., 0., 224., 65., 0., 0., 160., 64., 0., 0. ]
   decision_functions:
      -
         sv_count: 39
         rho: -5.4540505103177872e-01
         alpha: [ 9.1582776468849355e-18, 9.1230667670692764e-19,
             5.1116157982893818e-18, 3.8716801382936912e-18,
             4.1101560867450655e-18, 1.0868511419868063e-17,
             5.4250311566902784e-19, 8.7696041454701952e-18,
             3.6485942543838758e-18, 6.1872879604240647e-18,
             4.3082777230340812e-18, 7.2052610930912093e-18,
             5.5713977090254709e-18, 1.2540096004754938e-17,
             1.4295653824632872e-17, 1.3348650289579896e-17,
             8.4599326680193146e-20, 6.8548812601862650e-18,
             -4.1592050020187875e-18, -9.1082939155818060e-18,
             -2.1877865637020163e-19, -1.3844281138841056e-18,
             -3.0251037106252300e-18, -8.6352556639478033e-18,
             -8.2932980299503459e-18, -3.6937717098255211e-18,
             -6.4059098372035543e-18, -8.8945044103084164e-18,
             -4.4404385904200092e-18, -6.7431123508258212e-18,
             -3.6268141676030195e-18, -1.2451527787869880e-17,
             -2.6884215402406801e-18, -9.9490344952994745e-18,
             -3.5018173971387611e-18, -2.8384813033741338e-18,
             -5.9496070555043480e-18, -7.6847543158581148e-18,
             -3.6967964198701420e-18 ]
