%YAML:1.0
opencv_ml_svm:
   format: 3
   svmType: C_SVC
   kernel:
      type: POLY
      degree: 3.
      gamma: 1.
      coef0: 0.
   C: 1.
   term_criteria: { iterations:100 }
   var_count: 196
   class_count: 2
   class_labels: !!opencv-matrix
      rows: 2
      cols: 1
      dt: i
      data: [ 0, 1 ]
   sv_total: 20
   support_vectors:
      - [ 5.43900579e-03, 1.16550121e-02, 7.77000794e-03, 8.54700897e-03,
          3.88500397e-03, 2.33100238e-03, 3.18570323e-02, 3.10800318e-03,
          1.55400159e-02, 7.77000794e-04, 1.55400159e-03, 1.01010101e-02,
          3.88500397e-03, 6.99300691e-03, 4.66200477e-03, 1.63170174e-02,
          5.43900579e-03, 4.66200477e-03, 2.33100238e-03, 2.33100238e-03,
          3.88500397e-03, 3.88500397e-03, 3.88500397e-03, 9.32400953e-03,
          2.33100238e-03, 3.88500397e-03, 7.77000794e-04, 2.33100238e-03,
          3.10800318e-03, 1.94250196e-02, 1.55400159e-03, 3.88500397e-03,
          2.33100238e-03, 5.43900579e-03, 1.08780116e-02, 6.21600635e-03,
          3.88500397e-03, 7.77000794e-04, 1.55400159e-03, 4.66200477e-03,
          3.10800318e-03, 3.88500397e-03, 1.47630153e-02, 3.10800318e-03,
          1.55400159e-03, 6.21600635e-03, 6.21600635e-03, 3.10800318e-03,
          6.21600635e-03, 1.55400159e-03, 2.33100238e-03, 2.33100238e-03,
          9.32400953e-03, 4.66200477e-03, 1.55400159e-03, 1.55400159e-03,
          7.77000794e-04, 2.33100238e-03, 1.63170174e-02, 2.33100238e-03,
          2.33100238e-03, 6.21600635e-03, 3.10800318e-03, 7.77000794e-04,
          3.88500397e-03, 7.77000794e-03, 3.10800318e-03, 8.54700897e-03,
          5.43900579e-03, 1.01010101e-02, 4.66200477e-03, 4.66200477e-03,
          3.10800318e-03, 6.99300691e-03, 3.10800318e-03, 5.43900579e-03,
          3.10800318e-03, 5.43900579e-03, 1.08780116e-02, 6.21600635e-03,
          5.43900579e-03, 4.66200477e-03, 5.43900579e-03, 1.55400159e-03,
          1.55400159e-02, 3.10800318e-03, 6.99300691e-03, 3.10800318e-03,
          7.77000794e-04, 3.10800318e-03, 2.33100238e-03, 1.08780116e-02,
          6.21600635e-03, 3.10800318e-03, 3.88500397e-03, 3.10800318e-03,
          2.33100238e-03, 3.88500397e-03, 3.10800318e-03, 6.99300691e-03,
          5.43900579e-03, 3.88500397e-03, 3.10800318e-03, 2.33100238e-03,
          6.21600635e-03, 4.66200477e-03, 7.77000794e-04, 1.24320127e-02,
          3.10800318e-03, 2.33100238e-03, 1.01010101e-02, 5.43900579e-03,
          1.55400159e-03, 9.32400953e-03, 2.33100238e-03, 3.88500397e-03,
          2.33100238e-03, 0., 4.66200477e-03, 5.43900579e-03,
          2.33100238e-03, 2.33100238e-03, 3.88500397e-03, 2.33100238e-03,
          1.55400159e-03, 7.77000794e-03, 2.56410260e-02, 2.33100238e-03,
          7.77000794e-04, 3.10800318e-03, 2.33100238e-03, 5.43900579e-03,
          2.33100238e-03, 3.88500397e-03, 2.33100238e-03, 2.02020202e-02,
          2.33100238e-03, 3.10800318e-03, 5.43900579e-03, 6.99300691e-03,
          7.77000794e-04, 2.33100238e-03, 3.10800318e-03, 2.33100238e-03,
          6.21600635e-03, 3.10800318e-03, 4.66200477e-03, 2.33100238e-03,
          3.10800318e-03, 0., 4.66200477e-03, 2.33100238e-03,
          6.21600635e-03, 6.21600635e-03, 3.88500397e-03, 4.66200477e-03,
          3.10800318e-03, 7.77000794e-03, 6.21600635e-03, 2.33100238e-03,
          2.33100238e-03, 6.99300691e-03, 1.32090133e-02, 1.63170174e-02,
          3.88500397e-03, 1.08780116e-02, 3.88500397e-03, 7.77000794e-04,
          8.54700897e-03, 2.33100238e-03, 6.21600635e-03, 8.54700897e-03,
          2.33100238e-03, 3.88500397e-03, 4.66200477e-03, 7.77000794e-03,
          6.21600635e-03, 1.55400159e-03, 3.88500397e-03, 6.99300691e-03,
          3.10800318e-03, 3.10800318e-03, 0., 7.77000794e-03,
          2.33100238e-03, 9.32400953e-03, 4.66200477e-03, 3.10800318e-03,
          2.33100238e-03, 3.10800318e-03, 6.21600635e-03, 1.16550121e-02,
          5.43900579e-03, 1.55400159e-03, 3.10800318e-03, 3.88500397e-03 ]
      - [ 3.41880345e-03, 3.41880345e-03, 6.83760690e-03, 2.56410264e-03,
          1.70940172e-03, 3.41880345e-03, 3.41880345e-03, 8.54700862e-04,
          5.12820529e-03, 1.70940172e-03, 3.41880345e-03, 8.54700897e-03,
          0., 5.12820529e-03, 6.83760690e-03, 4.27350448e-03,
          1.28205130e-02, 5.12820529e-03, 1.70940172e-03, 2.56410264e-03,
          3.41880345e-03, 4.27350448e-03, 3.41880345e-03, 3.41880345e-03,
          6.83760690e-03, 3.41880345e-03, 8.54700862e-04, 1.70940172e-03,
          5.12820529e-03, 6.83760690e-03, 1.70940172e-03, 4.27350448e-03,
          8.54700862e-04, 1.70940172e-03, 1.70940179e-02, 1.11111114e-02,
          8.54700862e-04, 2.56410264e-03, 1.70940172e-03, 5.12820529e-03,
          3.41880345e-03, 5.98290609e-03, 5.12820529e-03, 1.70940172e-03,
          4.27350448e-03, 2.56410264e-03, 6.83760690e-03, 8.54700862e-04,
          4.27350448e-03, 2.56410264e-03, 3.41880345e-03, 8.54700862e-04,
          2.47863252e-02, 8.54700862e-04, 1.70940172e-03, 2.56410264e-03,
          8.54700862e-04, 1.36752138e-02, 1.11111114e-02, 0.,
          2.13675220e-02, 7.69230770e-03, 0., 1.28205130e-02,
          3.41880345e-03, 9.40170977e-03, 8.54700862e-04, 3.41880345e-03,
          2.56410264e-03, 4.27350448e-03, 2.05128212e-02, 3.41880345e-03,
          8.54700862e-04, 3.41880345e-03, 2.56410264e-03, 2.56410264e-03,
          2.56410264e-03, 6.83760690e-03, 9.40170977e-03, 1.19658122e-02,
          4.27350448e-03, 5.12820529e-03, 5.12820529e-03, 2.56410264e-03,
          2.30769236e-02, 3.41880345e-03, 8.54700862e-04, 0.,
          4.27350448e-03, 5.12820529e-03, 1.70940172e-03, 8.54700862e-04,
          3.41880345e-03, 8.54700862e-04, 0., 2.56410264e-03,
          8.54700862e-04, 2.56410264e-03, 1.70940172e-03, 3.41880345e-03,
          2.56410264e-03, 8.54700862e-04, 3.41880345e-03, 2.56410260e-02,
          3.58974375e-02, 2.56410264e-03, 2.82051284e-02, 1.70940172e-03,
          3.41880345e-03, 3.41880345e-03, 1.70940172e-03, 3.41880345e-03,
          0., 5.12820529e-03, 1.70940172e-03, 5.98290609e-03,
          8.54700862e-04, 4.27350448e-03, 2.39316244e-02, 4.27350448e-03,
          1.70940172e-03, 0., 4.27350448e-03, 8.54700862e-04,
          2.56410264e-03, 3.07692308e-02, 1.19658122e-02, 4.27350448e-03,
          2.56410264e-03, 8.54700862e-04, 0., 1.62393171e-02,
          6.83760690e-03, 2.56410264e-03, 0., 2.56410264e-03,
          8.54700862e-04, 1.70940172e-03, 3.41880345e-03, 5.12820529e-03,
          1.79487187e-02, 8.54700862e-04, 3.41880345e-03, 1.70940172e-03,
          4.27350448e-03, 6.83760690e-03, 1.45299146e-02, 8.54700862e-04,
          2.56410264e-03, 0., 9.40170977e-03, 4.27350448e-03,
          5.98290609e-03, 8.54700862e-04, 2.56410264e-03, 0.,
          1.88034195e-02, 5.12820529e-03, 4.27350448e-03, 8.54700862e-04,
          2.56410264e-03, 3.41880345e-03, 1.79487187e-02, 1.70940172e-03,
          2.56410264e-03, 4.27350448e-03, 4.27350448e-03, 2.56410264e-03,
          1.11111114e-02, 7.69230770e-03, 3.41880345e-03, 9.40170977e-03,
          1.28205130e-02, 1.70940172e-03, 4.27350448e-03, 3.41880345e-03,
          1.36752138e-02, 1.70940172e-03, 5.12820529e-03, 8.54700862e-04,
          6.83760690e-03, 8.54700862e-04, 1.70940172e-03, 3.41880345e-03,
          2.56410264e-03, 8.54700862e-04, 2.56410264e-03, 1.70940172e-03,
          2.56410264e-03, 2.56410264e-03, 2.56410264e-03, 6.83760690e-03,
          4.27350448e-03, 4.27350448e-03, 0., 1.02564106e-02 ]
      - [ 1.42857144e-02, 3.57142859e-03, 3.57142859e-03, 0.,
          1.07142860e-02, 0., 1.42857144e-02, 3.57142859e-03,
          3.57142859e-03, 3.57142859e-03, 1.78571437e-02, 7.14285718e-03,
          7.14285718e-03, 0., 7.14285718e-03, 3.57142859e-03,
          3.57142859e-03, 0., 3.57142859e-03, 1.07142860e-02,
          7.14285718e-03, 3.57142859e-03, 3.57142859e-03, 0., 0., 0.,
          3.57142859e-03, 7.14285718e-03, 0., 3.57142859e-03,
          7.14285718e-03, 0., 0., 3.57142859e-03, 1.42857144e-02,
          1.07142860e-02, 7.14285718e-03, 7.14285718e-03, 3.57142859e-03,
          1.07142860e-02, 7.14285718e-03, 7.14285718e-03, 0., 0.,
          3.57142859e-03, 0., 7.14285718e-03, 0., 0., 7.14285718e-03, 0.,
          0., 1.42857144e-02, 7.14285718e-03, 1.07142860e-02, 0.,
          1.07142860e-02, 1.78571437e-02, 1.07142860e-02, 3.57142859e-03,
          3.57142859e-03, 7.14285718e-03, 7.14285718e-03, 0.,
          3.57142859e-03, 7.14285718e-03, 7.14285718e-03, 0.,
          3.57142859e-03, 3.57142859e-03, 3.57142859e-03, 0.,
          3.57142859e-03, 7.14285718e-03, 3.57142859e-03, 3.57142859e-03,
          7.14285718e-03, 1.42857144e-02, 7.14285718e-03, 3.57142859e-03,
          1.42857144e-02, 0., 7.14285718e-03, 3.57142859e-03,
          1.42857144e-02, 1.07142860e-02, 3.57142859e-03, 7.14285718e-03,
          7.14285718e-03, 3.57142859e-03, 3.57142859e-03, 3.57142859e-03,
          1.42857144e-02, 3.57142859e-03, 3.57142859e-03, 1.07142860e-02,
          7.14285718e-03, 0., 0., 0., 3.57142859e-03, 3.57142859e-03,
          3.57142859e-03, 3.57142859e-03, 0., 1.07142860e-02, 0.,
          1.07142860e-02, 3.57142859e-03, 3.57142859e-03, 0., 0.,
          7.14285718e-03, 1.07142860e-02, 1.07142860e-02, 7.14285718e-03,
          3.57142859e-03, 1.07142860e-02, 3.57142859e-03, 3.57142859e-03,
          1.07142860e-02, 3.57142859e-03, 3.57142859e-03, 1.07142860e-02,
          7.14285718e-03, 3.57142859e-03, 3.57142859e-03, 3.57142859e-03,
          0., 0., 0., 0., 1.07142860e-02, 3.57142859e-03, 7.14285718e-03,
          7.14285718e-03, 7.14285718e-03, 3.57142859e-03, 0.,
          3.57142859e-03, 0., 0., 1.07142860e-02, 1.07142860e-02,
          3.57142859e-03, 7.14285718e-03, 1.42857144e-02, 3.57142859e-03,
          3.57142859e-03, 0., 3.57142859e-03, 0., 1.07142860e-02,
          7.14285718e-03, 3.57142859e-03, 7.14285718e-03, 3.57142859e-03,
          0., 3.57142859e-03, 7.14285718e-03, 3.57142859e-03, 0.,
          3.57142859e-03, 1.07142860e-02, 3.57142859e-03, 1.07142860e-02,
          7.14285718e-03, 0., 0., 3.57142859e-03, 3.57142859e-03,
          3.57142859e-03, 7.14285718e-03, 3.57142859e-03, 3.57142859e-03,
          0., 7.14285718e-03, 0., 0., 0., 7.14285718e-03, 3.57142859e-03,
          7.14285718e-03, 1.07142860e-02, 1.07142860e-02, 0.,
          3.57142859e-03, 1.07142860e-02, 0., 0., 0., 2.50000004e-02,
          7.14285718e-03, 3.57142859e-03, 1.07142860e-02, 7.14285718e-03 ]
      - [ 3.12304823e-03, 1.24921929e-03, 7.49531575e-03, 3.74765787e-03,
          1.18675828e-02, 2.49843858e-03, 1.24921929e-03, 8.11992586e-03,
          1.24921929e-03, 1.06183644e-02, 1.12429736e-02, 4.37226752e-03,
          3.12304823e-03, 2.49843858e-03, 1.24921929e-03, 4.37226752e-03,
          6.87070610e-03, 8.11992586e-03, 1.24921929e-03, 6.24609645e-03,
          2.49843858e-03, 8.74453504e-03, 1.87382894e-03, 8.74453504e-03,
          8.11992586e-03, 6.24609645e-03, 9.99375433e-03, 3.12304823e-03,
          4.37226752e-03, 4.37226752e-03, 3.74765787e-03, 3.74765787e-03,
          4.37226752e-03, 6.24609645e-04, 4.99687716e-03, 6.24609645e-03,
          7.49531575e-03, 1.56152416e-02, 4.37226752e-03, 1.87382894e-03,
          4.99687716e-03, 4.99687716e-03, 6.24609645e-04, 6.24609645e-03,
          3.74765787e-03, 1.87382894e-03, 5.62148681e-03, 4.99687716e-03,
          3.12304823e-03, 1.24921929e-03, 4.99687716e-03, 3.12304823e-03,
          6.87070610e-03, 3.12304823e-03, 7.49531575e-03, 9.99375433e-03,
          5.62148681e-03, 1.12429736e-02, 0., 6.87070610e-03,
          3.74765787e-03, 1.87382894e-03, 6.24609645e-03, 2.49843858e-03,
          1.43660214e-02, 1.87382894e-03, 2.49843858e-03, 1.24921929e-03,
          1.24921929e-03, 2.49843858e-03, 2.49843858e-03, 5.62148681e-03,
          3.12304823e-03, 1.87382894e-03, 6.24609645e-04, 3.12304823e-03,
          1.87382894e-03, 4.37226752e-03, 5.62148681e-03, 1.24921929e-03,
          4.99687716e-03, 6.87070610e-03, 4.99687716e-03, 9.99375433e-03,
          7.49531575e-03, 6.87070610e-03, 2.49843858e-03, 2.49843858e-03,
          1.06183644e-02, 5.62148681e-03, 1.31168030e-02, 1.24921929e-03,
          3.74765787e-03, 6.24609645e-03, 7.49531575e-03, 2.49843858e-03,
          4.99687716e-03, 8.74453504e-03, 5.62148681e-03, 4.99687716e-03,
          1.87382894e-03, 4.37226752e-03, 3.12304823e-03, 6.24609645e-04,
          6.24609645e-04, 4.37226752e-03, 0., 3.74765787e-03,
          3.74765787e-03, 6.24609645e-03, 0., 2.49843858e-03,
          8.74453504e-03, 4.99687716e-03, 6.24609645e-04, 1.24921929e-03,
          5.62148681e-03, 1.49906315e-02, 0., 4.99687716e-03,
          7.49531575e-03, 2.49843858e-03, 2.49843858e-03, 6.24609645e-03,
          1.24921929e-02, 3.74765787e-03, 1.24921929e-03, 2.49843858e-03,
          1.24921929e-02, 7.49531575e-03, 4.99687716e-03, 7.49531575e-03,
          8.11992586e-03, 6.24609645e-03, 6.87070610e-03, 0.,
          8.11992586e-03, 2.49843858e-03, 4.99687716e-03, 8.74453504e-03,
          0., 5.62148681e-03, 4.37226752e-03, 5.62148681e-03,
          6.87070610e-03, 1.18675828e-02, 2.49843858e-03, 1.12429736e-02,
          1.06183644e-02, 6.87070610e-03, 6.87070610e-03, 6.87070610e-03,
          4.99687716e-03, 4.37226752e-03, 2.49843858e-03, 1.87382894e-03,
          1.87382894e-03, 4.37226752e-03, 4.99687716e-03, 1.24921929e-02,
          7.49531575e-03, 6.24609645e-03, 1.24921929e-03, 0.,
          8.74453504e-03, 6.24609645e-04, 5.62148681e-03, 4.99687716e-03,
          2.49843858e-03, 6.24609645e-03, 9.36914422e-03, 5.62148681e-03,
          0., 1.87382894e-03, 8.74453504e-03, 1.24921929e-03,
          3.12304823e-03, 4.99687716e-03, 2.49843858e-03, 7.49531575e-03,
          2.49843858e-03, 0., 4.37226752e-03, 2.49843858e-03,
          1.87382894e-03, 9.36914422e-03, 5.62148681e-03, 6.24609645e-04,
          4.99687716e-03, 1.24921929e-02, 4.99687716e-03, 5.62148681e-03,
          9.36914422e-03, 1.18675828e-02, 1.81136802e-02, 1.31168030e-02 ]
      - [ 6.21118024e-03, 4.14078683e-03, 0., 4.14078683e-03,
          2.07039341e-03, 0., 0., 0., 0., 0., 2.07039341e-03,
          1.86335407e-02, 1.03519671e-02, 6.21118024e-03, 8.28157365e-03,
          2.07039341e-03, 4.14078683e-03, 6.21118024e-03, 0.,
          8.28157365e-03, 1.65631473e-02, 6.21118024e-03, 8.28157365e-03,
          4.14078683e-03, 2.07039341e-03, 2.07039341e-03, 2.07039341e-03,
          2.07039341e-03, 0., 6.21118024e-03, 8.28157365e-03,
          1.44927539e-02, 4.14078683e-03, 2.07039341e-03, 1.24223605e-02,
          4.14078683e-03, 6.21118024e-03, 0., 1.03519671e-02,
          4.14078683e-03, 2.07039341e-03, 6.21118024e-03, 0.,
          2.07039341e-03, 8.28157365e-03, 4.14078683e-03, 0.,
          2.07039341e-03, 4.14078683e-03, 1.44927539e-02, 2.07039341e-03,
          0., 1.03519671e-02, 0., 8.28157365e-03, 2.07039341e-03, 0.,
          8.28157365e-03, 4.14078683e-03, 4.14078683e-03, 1.24223605e-02,
          8.28157365e-03, 4.14078683e-03, 0., 0., 2.07039341e-03,
          8.28157365e-03, 2.07039341e-03, 4.14078683e-03, 2.07039341e-03,
          6.21118024e-03, 0., 2.07039341e-03, 6.21118024e-03,
          8.28157365e-03, 4.14078683e-03, 6.21118024e-03, 1.65631473e-02,
          2.07039341e-02, 1.03519671e-02, 2.07039341e-03, 1.03519671e-02,
          2.07039341e-03, 2.07039341e-03, 1.24223605e-02, 0.,
          2.07039341e-03, 8.28157365e-03, 2.07039341e-03, 0.,
          2.07039341e-03, 0., 6.21118024e-03, 0., 0., 4.14078683e-03,
          1.44927539e-02, 2.27743275e-02, 2.07039341e-03, 6.21118024e-03,
          2.07039341e-02, 0., 0., 0., 2.07039341e-03, 2.07039341e-03,
          4.14078683e-03, 6.21118024e-03, 1.44927539e-02, 0.,
          1.03519671e-02, 8.28157365e-03, 0., 8.28157365e-03,
          6.21118024e-03, 4.14078683e-03, 2.07039341e-03, 0.,
          2.07039341e-03, 2.07039341e-03, 2.07039341e-03, 2.07039341e-03,
          8.28157365e-03, 2.07039341e-03, 2.07039341e-03, 0.,
          8.28157365e-03, 8.28157365e-03, 6.21118024e-03, 4.14078683e-03,
          2.07039341e-03, 4.14078683e-03, 2.07039341e-03, 6.21118024e-03,
          4.14078683e-03, 6.21118024e-03, 0., 6.21118024e-03, 0.,
          2.07039341e-03, 2.07039341e-03, 4.14078683e-03, 2.07039341e-03,
          0., 6.21118024e-03, 4.14078683e-03, 1.65631473e-02, 0.,
          4.14078683e-03, 2.07039341e-03, 0., 2.07039341e-03,
          8.28157365e-03, 4.14078683e-03, 8.28157365e-03, 2.07039341e-03,
          2.07039341e-03, 2.07039341e-03, 0., 4.14078683e-03,
          8.28157365e-03, 0., 0., 1.24223605e-02, 2.07039341e-03,
          1.44927539e-02, 1.65631473e-02, 2.07039341e-03, 8.28157365e-03,
          4.14078683e-03, 8.28157365e-03, 1.03519671e-02, 1.24223605e-02,
          6.21118024e-03, 1.03519671e-02, 1.03519671e-02, 8.28157365e-03,
          6.21118024e-03, 4.14078683e-03, 2.07039341e-03, 1.03519671e-02,
          6.21118024e-03, 8.28157365e-03, 1.03519671e-02, 0.,
          4.14078683e-03, 8.28157365e-03, 1.44927539e-02, 0., 0., 0.,
          1.44927539e-02, 2.07039341e-03, 4.14078683e-03, 2.07039341e-03,
          1.86335407e-02 ]
      - [ 7.73694366e-03, 4.51321714e-03, 4.51321714e-03, 1.28949061e-03,
          5.80270775e-03, 3.86847183e-03, 3.22372653e-03, 1.03159249e-02,
          4.51321714e-03, 7.09219836e-03, 3.22372653e-03, 3.22372653e-03,
          2.57898122e-03, 6.44745305e-03, 7.09219836e-03, 1.22501608e-02,
          3.22372653e-03, 2.57898122e-03, 2.57898122e-03, 1.28949061e-03,
          3.22372653e-03, 5.15796244e-03, 2.57898122e-03, 7.09219836e-03,
          5.80270775e-03, 1.09606702e-02, 2.57898122e-03, 2.57898122e-03,
          1.28949061e-03, 8.38168897e-03, 8.38168897e-03, 3.22372653e-03,
          4.51321714e-03, 5.15796244e-03, 7.73694366e-03, 7.09219836e-03,
          4.51321714e-03, 9.02643427e-03, 3.86847183e-03, 1.93423592e-03,
          7.09219836e-03, 3.22372653e-03, 8.38168897e-03, 3.86847183e-03,
          4.51321714e-03, 9.02643427e-03, 9.67117958e-03, 2.57898122e-03,
          1.28949061e-03, 4.51321714e-03, 7.73694366e-03, 2.57898122e-03,
          8.38168897e-03, 1.03159249e-02, 4.51321714e-03, 1.28949061e-03,
          4.51321714e-03, 3.86847183e-03, 5.15796244e-03, 2.57898122e-03,
          1.93423592e-03, 4.51321714e-03, 5.80270775e-03, 3.22372653e-03,
          3.86847183e-03, 3.22372653e-03, 2.57898122e-03, 1.03159249e-02,
          4.51321714e-03, 5.15796244e-03, 6.44745305e-04, 1.93423592e-03,
          2.57898122e-03, 5.15796244e-03, 3.86847183e-03, 5.80270775e-03,
          1.93423592e-03, 3.86847183e-03, 3.22372653e-03, 5.80270775e-03,
          3.22372653e-03, 5.80270775e-03, 6.44745305e-03, 6.44745305e-03,
          1.16054155e-02, 5.15796244e-03, 3.86847183e-03, 7.73694366e-03,
          5.15796244e-03, 7.09219836e-03, 1.16054155e-02, 9.67117958e-03,
          4.51321714e-03, 3.86847183e-03, 1.93423592e-03, 6.44745305e-03,
          1.28949061e-03, 2.57898122e-03, 3.22372653e-03, 3.86847183e-03,
          4.51321714e-03, 5.80270775e-03, 5.80270775e-03, 3.86847183e-03,
          1.28949061e-03, 6.44745305e-03, 6.44745305e-04, 3.86847183e-03,
          1.28949061e-03, 7.09219836e-03, 5.80270775e-03, 2.57898122e-03,
          1.41843967e-02, 2.57898122e-03, 6.44745305e-03, 3.86847183e-03,
          1.09606702e-02, 4.51321714e-03, 0., 7.09219836e-03,
          6.44745305e-04, 5.15796244e-03, 4.51321714e-03, 3.22372653e-03,
          5.15796244e-03, 6.44745305e-04, 5.80270775e-03, 1.28949061e-03,
          4.51321714e-03, 1.03159249e-02, 2.57898122e-03, 5.15796244e-03,
          7.73694366e-03, 7.09219836e-03, 6.44745305e-03, 1.35396514e-02,
          1.09606702e-02, 1.28949061e-03, 3.86847183e-03, 3.22372653e-03,
          0., 6.44745305e-03, 2.57898122e-03, 1.03159249e-02,
          1.28949061e-03, 3.86847183e-03, 1.28949061e-03, 6.44745305e-03,
          8.38168897e-03, 5.80270775e-03, 3.22372653e-03, 4.51321714e-03,
          2.57898122e-03, 9.02643427e-03, 1.93423592e-03, 7.73694366e-03,
          6.44745305e-04, 5.15796244e-03, 1.28949061e-02, 7.09219836e-03,
          2.57898122e-03, 5.15796244e-03, 3.22372653e-03, 8.38168897e-03,
          7.73694366e-03, 1.93423592e-02, 4.51321714e-03, 8.38168897e-03,
          5.15796244e-03, 1.03159249e-02, 5.80270775e-03, 5.80270775e-03,
          0., 7.09219836e-03, 1.93423592e-03, 1.03159249e-02,
          4.51321714e-03, 3.86847183e-03, 3.86847183e-03, 4.51321714e-03,
          4.51321714e-03, 6.44745305e-03, 1.28949061e-03, 4.51321714e-03,
          1.28949061e-03, 5.15796244e-03, 8.38168897e-03, 5.15796244e-03,
          5.15796244e-03, 3.22372653e-03, 1.28949061e-03, 6.44745305e-03,
          8.38168897e-03, 5.80270775e-03, 5.80270775e-03, 2.57898122e-03 ]
      - [ 4.04448947e-03, 7.07785645e-03, 5.05561195e-03, 6.06673397e-03,
          3.03336699e-03, 6.06673397e-03, 4.04448947e-03, 4.04448947e-03,
          1.51668359e-02, 3.03336699e-03, 6.06673397e-03, 6.06673397e-03,
          3.03336699e-03, 9.10010096e-03, 1.21334679e-02, 4.04448947e-03,
          7.07785645e-03, 2.02224473e-03, 1.31445909e-02, 2.02224473e-03,
          1.11223459e-02, 1.11223459e-02, 8.08897894e-03, 5.05561195e-03,
          2.02224473e-03, 9.10010096e-03, 4.04448947e-03, 3.03336699e-03,
          5.05561195e-03, 1.21334679e-02, 4.04448947e-03, 3.03336699e-03,
          8.08897894e-03, 6.06673397e-03, 1.11223459e-02, 4.04448947e-03,
          4.04448947e-03, 3.03336699e-03, 2.02224473e-03, 3.03336699e-03,
          3.03336699e-03, 8.08897894e-03, 6.06673397e-03, 2.02224473e-03,
          9.10010096e-03, 7.07785645e-03, 3.03336699e-03, 3.03336699e-03,
          6.06673397e-03, 4.04448947e-03, 3.03336699e-03, 3.03336699e-03,
          9.10010096e-03, 7.07785645e-03, 6.06673397e-03, 5.05561195e-03,
          6.06673397e-03, 9.10010096e-03, 1.31445909e-02, 7.07785645e-03,
          4.04448947e-03, 5.05561195e-03, 5.05561195e-03, 2.02224473e-03,
          3.03336699e-03, 6.06673397e-03, 2.02224473e-03, 6.06673397e-03,
          2.02224473e-03, 1.01112239e-02, 2.02224473e-03, 3.03336699e-03,
          4.04448947e-03, 1.01112237e-03, 6.06673397e-03, 2.02224473e-03,
          2.02224473e-03, 5.05561195e-03, 8.08897894e-03, 2.02224473e-03,
          5.05561195e-03, 6.06673397e-03, 1.11223459e-02, 3.03336699e-03,
          4.04448947e-03, 0., 4.04448947e-03, 5.05561195e-03,
          5.05561195e-03, 6.06673397e-03, 2.02224473e-03, 3.03336699e-03,
          4.04448947e-03, 8.08897894e-03, 5.05561195e-03, 2.02224473e-03,
          5.05561195e-03, 2.02224473e-03, 3.03336699e-03, 4.04448947e-03,
          3.03336699e-03, 4.04448947e-03, 3.03336699e-03, 4.04448947e-03,
          5.05561195e-03, 5.05561195e-03, 9.10010096e-03, 3.03336699e-03,
          7.07785645e-03, 4.04448947e-03, 7.07785645e-03, 9.10010096e-03,
          8.08897894e-03, 1.01112239e-02, 6.06673397e-03, 4.04448947e-03,
          4.04448947e-03, 5.05561195e-03, 4.04448947e-03, 6.06673397e-03,
          2.02224473e-03, 6.06673397e-03, 8.08897894e-03, 3.03336699e-03,
          6.06673397e-03, 4.04448947e-03, 4.04448947e-03, 1.01112237e-03,
          6.06673397e-03, 5.05561195e-03, 1.01112237e-03, 1.01112237e-03,
          2.02224473e-03, 2.02224473e-03, 6.06673397e-03, 3.03336699e-03,
          5.05561195e-03, 3.03336699e-03, 6.06673397e-03, 0., 0.,
          2.02224473e-03, 4.04448947e-03, 2.02224473e-03, 5.05561195e-03,
          2.02224473e-03, 2.02224473e-03, 6.06673397e-03, 2.02224473e-03,
          6.06673397e-03, 6.06673397e-03, 1.01112239e-02, 6.06673397e-03,
          6.06673397e-03, 4.04448947e-03, 3.03336699e-03, 4.04448947e-03,
          4.04448947e-03, 4.04448947e-03, 5.05561195e-03, 5.05561195e-03,
          6.06673397e-03, 8.08897894e-03, 5.05561195e-03, 7.07785645e-03,
          4.04448947e-03, 5.05561195e-03, 9.10010096e-03, 1.11223459e-02,
          3.03336699e-03, 4.04448947e-03, 8.08897894e-03, 8.08897894e-03,
          8.08897894e-03, 3.03336699e-03, 7.07785645e-03, 8.08897894e-03,
          2.02224473e-03, 5.05561195e-03, 2.02224473e-03, 1.11223459e-02,
          6.06673397e-03, 1.01112237e-03, 8.08897894e-03, 1.01112237e-03,
          5.05561195e-03, 6.06673397e-03, 4.04448947e-03, 1.01112237e-03,
          3.03336699e-03, 4.04448947e-03, 7.07785645e-03, 4.04448947e-03,
          2.02224473e-03, 6.06673397e-03, 1.01112239e-02 ]
      - [ 7.35294120e-03, 3.67647060e-03, 0., 5.51470602e-03,
          3.67647060e-03, 1.83823530e-03, 7.35294120e-03, 5.51470602e-03,
          1.28676472e-02, 3.67647060e-03, 3.67647060e-03, 1.65441185e-02,
          7.35294120e-03, 0., 9.19117685e-03, 0., 5.51470602e-03,
          1.83823530e-03, 5.51470602e-03, 1.83823530e-03, 7.35294120e-03,
          9.19117685e-03, 7.35294120e-03, 0., 0., 3.67647060e-03, 0.,
          1.83823530e-03, 5.51470602e-03, 3.67647060e-03, 3.67647060e-03,
          7.35294120e-03, 1.10294120e-02, 9.19117685e-03, 1.10294120e-02,
          1.83823530e-03, 1.83823530e-03, 9.19117685e-03, 3.67647060e-03,
          0., 7.35294120e-03, 5.51470602e-03, 1.83823530e-03,
          3.67647060e-03, 5.51470602e-03, 3.67647060e-03, 1.83823530e-03,
          1.83823530e-03, 2.02205889e-02, 1.10294120e-02, 5.51470602e-03,
          7.35294120e-03, 2.20588241e-02, 1.83823530e-03, 1.83823530e-03,
          7.35294120e-03, 3.67647060e-03, 7.35294120e-03, 1.10294120e-02,
          5.51470602e-03, 0., 3.67647060e-03, 1.83823530e-03,
          3.67647060e-03, 0., 1.83823530e-03, 3.67647060e-03,
          9.19117685e-03, 0., 7.35294120e-03, 1.83823530e-03,
          1.83823530e-03, 5.51470602e-03, 3.67647060e-03, 5.51470602e-03,
          1.83823530e-03, 1.83823530e-03, 3.67647060e-03, 1.28676472e-02,
          7.35294120e-03, 1.83823530e-03, 9.19117685e-03, 3.67647060e-03,
          3.67647060e-03, 2.38970593e-02, 7.35294120e-03, 3.67647060e-03,
          1.10294120e-02, 1.83823530e-03, 1.83823530e-03, 3.67647060e-03,
          3.67647060e-03, 0., 1.83823530e-03, 0., 7.35294120e-03,
          7.35294120e-03, 5.51470602e-03, 3.67647060e-03, 1.83823530e-03,
          9.19117685e-03, 5.51470602e-03, 0., 3.67647060e-03,
          1.10294120e-02, 1.83823530e-03, 0., 3.67647060e-03,
          3.67647060e-03, 0., 1.28676472e-02, 3.67647060e-03,
          3.67647060e-03, 5.51470602e-03, 3.67647060e-03, 7.35294120e-03,
          1.83823530e-03, 7.35294120e-03, 1.10294120e-02, 3.67647060e-03,
          7.35294120e-03, 5.51470602e-03, 3.67647060e-03, 5.51470602e-03,
          7.35294120e-03, 0., 1.28676472e-02, 1.83823530e-03, 0.,
          3.67647060e-03, 3.67647060e-03, 3.67647060e-03, 0.,
          3.67647060e-03, 0., 1.65441185e-02, 1.83823530e-03,
          7.35294120e-03, 5.51470602e-03, 1.83823530e-03, 0.,
          5.51470602e-03, 7.35294120e-03, 3.67647060e-03, 0.,
          1.83823530e-03, 1.83823537e-02, 5.51470602e-03, 5.51470602e-03,
          0., 1.83823530e-03, 1.83823530e-03, 1.83823530e-03,
          3.67647060e-03, 9.19117685e-03, 1.83823530e-03, 1.10294120e-02,
          5.51470602e-03, 1.83823530e-03, 7.35294120e-03, 0.,
          3.67647060e-03, 1.28676472e-02, 1.47058824e-02, 0.,
          3.67647060e-03, 0., 5.51470602e-03, 1.65441185e-02,
          7.35294120e-03, 1.83823530e-03, 1.10294120e-02, 0.,
          5.51470602e-03, 1.83823530e-03, 1.10294120e-02, 1.83823530e-03,
          1.83823530e-03, 9.19117685e-03, 5.51470602e-03, 3.67647060e-03,
          1.83823530e-03, 9.19117685e-03, 7.35294120e-03, 0., 0.,
          1.47058824e-02, 3.67647060e-03, 1.83823530e-03, 1.83823530e-03,
          1.83823530e-03, 1.47058824e-02, 3.67647060e-03, 1.83823530e-03,
          0., 1.83823537e-02 ]
      - [ 5.29661030e-03, 3.53107345e-03, 3.53107345e-03, 1.41242938e-03,
          6.00282475e-03, 9.53389797e-03, 2.82485876e-03, 4.94350307e-03,
          8.12146906e-03, 6.00282475e-03, 1.05932206e-02, 3.53107345e-03,
          7.06214691e-03, 4.23728814e-03, 6.70903968e-03, 4.59039537e-03,
          1.41242938e-03, 4.59039537e-03, 4.23728814e-03, 2.82485876e-03,
          6.00282475e-03, 2.11864407e-03, 6.35593198e-03, 6.70903968e-03,
          7.76836183e-03, 8.47457629e-03, 4.94350307e-03, 7.06214691e-03,
          7.41525413e-03, 9.18079074e-03, 8.12146906e-03, 4.59039537e-03,
          8.47457629e-03, 4.23728814e-03, 2.82485876e-03, 5.29661030e-03,
          9.88700613e-03, 7.06214691e-03, 5.64971752e-03, 3.88418091e-03,
          6.35593198e-03, 3.53107345e-03, 2.47175153e-03, 8.47457629e-03,
          3.88418091e-03, 4.59039537e-03, 6.00282475e-03, 7.06214691e-03,
          3.53107345e-03, 2.82485876e-03, 8.47457629e-03, 5.64971752e-03,
          1.76553673e-03, 6.35593198e-03, 5.64971752e-03, 6.00282475e-03,
          8.12146906e-03, 6.35593198e-03, 2.11864407e-03, 4.94350307e-03,
          2.11864407e-03, 3.17796599e-03, 4.94350307e-03, 3.53107345e-03,
          8.12146906e-03, 2.11864407e-03, 3.17796599e-03, 4.94350307e-03,
          2.82485876e-03, 3.17796599e-03, 7.06214691e-04, 3.88418091e-03,
          6.00282475e-03, 2.11864407e-03, 3.17796599e-03, 3.53107345e-03,
          6.70903968e-03, 3.17796599e-03, 3.53107345e-03, 1.76553673e-03,
          5.64971752e-03, 3.88418091e-03, 3.88418091e-03, 7.41525413e-03,
          3.17796599e-03, 8.47457629e-03, 5.64971752e-03, 3.88418091e-03,
          7.76836183e-03, 9.88700613e-03, 9.18079074e-03, 2.47175153e-03,
          2.11864407e-03, 3.88418091e-03, 6.70903968e-03, 6.70903968e-03,
          3.53107345e-03, 2.82485876e-03, 5.64971752e-03, 5.64971752e-03,
          7.06214691e-03, 9.53389797e-03, 4.59039537e-03, 7.06214691e-04,
          2.82485876e-03, 8.82768352e-03, 7.06214691e-04, 5.64971752e-03,
          8.12146906e-03, 4.59039537e-03, 3.53107345e-03, 3.17796599e-03,
          7.76836183e-03, 4.59039537e-03, 5.29661030e-03, 2.47175153e-03,
          7.06214691e-03, 7.41525413e-03, 0., 2.82485876e-03,
          2.82485876e-03, 9.88700613e-03, 3.17796599e-03, 6.70903968e-03,
          3.53107345e-03, 1.76553673e-03, 3.17796599e-03, 4.59039537e-03,
          5.64971752e-03, 7.41525413e-03, 2.82485876e-03, 4.59039537e-03,
          6.00282475e-03, 4.23728814e-03, 5.29661030e-03, 3.17796599e-03,
          1.20056495e-02, 1.76553673e-03, 8.47457629e-03, 3.17796599e-03,
          1.05932204e-03, 1.02401134e-02, 3.17796599e-03, 6.35593198e-03,
          3.53107345e-04, 1.76553673e-03, 7.06214691e-04, 8.47457629e-03,
          7.76836183e-03, 1.23587567e-02, 2.11864407e-03, 4.59039537e-03,
          1.76553673e-03, 8.47457629e-03, 4.59039537e-03, 4.94350307e-03,
          3.53107345e-03, 1.76553673e-03, 7.41525413e-03, 7.76836183e-03,
          7.06214691e-03, 3.17796599e-03, 7.06214691e-04, 1.41242938e-03,
          1.12994350e-02, 5.64971752e-03, 3.53107345e-03, 6.00282475e-03,
          6.35593198e-03, 9.88700613e-03, 6.00282475e-03, 2.47175153e-03,
          1.41242938e-03, 9.18079074e-03, 2.47175153e-03, 5.64971752e-03,
          1.76553673e-03, 5.29661030e-03, 4.94350307e-03, 7.06214691e-03,
          2.11864407e-03, 6.35593198e-03, 4.59039537e-03, 2.82485876e-03,
          7.41525413e-03, 1.23587567e-02, 8.82768352e-03, 6.35593198e-03,
          3.53107345e-03, 4.94350307e-03, 4.59039537e-03, 4.94350307e-03,
          8.12146906e-03, 3.17796599e-03, 6.70903968e-03, 3.17796599e-03 ]
      - [ 5.91278635e-03, 6.65188488e-03, 2.21729488e-03, 5.91278635e-03,
          8.86917952e-03, 6.65188488e-03, 1.47819659e-03, 8.86917952e-03,
          6.65188488e-03, 5.17368782e-03, 1.03473756e-02, 1.77383590e-02,
          2.95639317e-03, 2.21729488e-03, 7.39098294e-04, 8.86917952e-03,
          1.47819659e-03, 6.65188488e-03, 2.21729488e-03, 3.69549147e-03,
          5.17368782e-03, 3.69549147e-03, 8.13008100e-03, 5.17368782e-03,
          8.13008100e-03, 2.95639317e-03, 5.17368782e-03, 3.69549147e-03,
          7.39098294e-03, 1.33037698e-02, 3.69549147e-03, 5.17368782e-03,
          3.69549147e-03, 4.43458976e-03, 7.39098294e-03, 1.47819659e-03,
          3.69549147e-03, 7.39098294e-03, 3.69549147e-03, 5.17368782e-03,
          3.69549147e-03, 4.43458976e-03, 5.17368782e-03, 7.39098294e-03,
          3.69549147e-03, 3.69549147e-03, 5.91278635e-03, 5.91278635e-03,
          3.69549147e-03, 2.95639317e-03, 2.95639317e-03, 5.91278635e-03,
          8.13008100e-03, 6.65188488e-03, 1.47819659e-03, 6.65188488e-03,
          3.69549147e-03, 1.47819659e-03, 9.60827805e-03, 5.91278635e-03,
          6.65188488e-03, 8.86917952e-03, 2.95639317e-03, 2.95639317e-03,
          5.91278635e-03, 1.47819659e-03, 1.47819659e-03, 5.17368782e-03,
          6.65188488e-03, 8.13008100e-03, 6.65188488e-03, 6.65188488e-03,
          5.17368782e-03, 2.95639317e-03, 2.95639317e-03, 4.43458976e-03,
          7.39098294e-04, 5.91278635e-03, 5.17368782e-03, 3.69549147e-03,
          5.91278635e-03, 5.17368782e-03, 5.17368782e-03, 6.65188488e-03,
          4.43458976e-03, 5.91278635e-03, 4.43458976e-03, 8.86917952e-03,
          7.39098294e-03, 6.65188488e-03, 6.65188488e-03, 5.17368782e-03,
          2.95639317e-03, 4.43458976e-03, 5.17368782e-03, 5.17368782e-03,
          5.91278635e-03, 5.17368782e-03, 2.95639317e-03, 2.21729488e-03,
          5.17368782e-03, 3.69549147e-03, 2.95639317e-03, 7.39098294e-04,
          5.17368782e-03, 6.65188488e-03, 7.39098294e-04, 3.69549147e-03,
          4.43458976e-03, 7.39098294e-03, 2.95639317e-03, 8.13008100e-03,
          8.86917952e-03, 3.69549147e-03, 5.17368782e-03, 2.21729488e-03,
          6.65188488e-03, 5.17368782e-03, 5.17368782e-03, 5.17368782e-03,
          2.95639317e-03, 5.17368782e-03, 5.17368782e-03, 8.86917952e-03,
          5.17368782e-03, 2.95639317e-03, 5.17368782e-03, 5.91278635e-03,
          1.03473756e-02, 2.95639317e-03, 5.91278635e-03, 2.95639317e-03,
          4.43458976e-03, 2.21729488e-03, 5.17368782e-03, 2.21729488e-03,
          9.60827805e-03, 2.21729488e-03, 1.03473756e-02, 6.65188488e-03,
          0., 4.43458976e-03, 4.43458976e-03, 2.21729488e-03,
          6.65188488e-03, 2.95639317e-03, 7.39098294e-04, 5.91278635e-03,
          3.69549147e-03, 5.91278635e-03, 1.47819659e-03, 4.43458976e-03,
          3.69549147e-03, 5.17368782e-03, 5.17368782e-03, 3.69549147e-03,
          7.39098294e-03, 2.21729488e-03, 2.95639317e-03, 4.43458976e-03,
          5.17368782e-03, 5.17368782e-03, 2.21729488e-03, 2.21729488e-03,
          2.95639317e-03, 2.21729488e-03, 1.47819659e-03, 4.43458976e-03,
          2.95639317e-03, 6.65188488e-03, 5.91278635e-03, 5.91278635e-03,
          0., 2.21729488e-03, 3.69549147e-03, 7.39098294e-03,
          2.21729488e-03, 1.10864742e-02, 6.65188488e-03, 1.10864742e-02,
          2.21729488e-03, 5.91278635e-03, 5.91278635e-03, 1.62601620e-02,
          1.03473756e-02, 2.95639317e-03, 4.43458976e-03, 5.91278635e-03,
          3.69549147e-03, 7.39098294e-03, 6.65188488e-03, 1.55210644e-02,
          7.39098294e-03, 2.95639317e-03, 2.95639317e-03, 5.91278635e-03 ]
      - [ 1.13636367e-02, 0., 2.27272734e-02, 1.13636367e-02, 0., 0., 0.,
          1.13636367e-02, 0., 0., 0., 1.13636367e-02, 1.13636367e-02, 0.,
          0., 1.13636367e-02, 0., 0., 0., 0., 2.27272734e-02, 0.,
          5.68181835e-02, 0., 1.13636367e-02, 1.13636367e-02, 0., 0.,
          1.13636367e-02, 1.13636367e-02, 0., 4.54545468e-02,
          1.13636367e-02, 0., 0., 0., 0., 0., 3.40909101e-02,
          1.13636367e-02, 0., 0., 2.27272734e-02, 0., 1.13636367e-02, 0.,
          0., 0., 1.13636367e-02, 1.13636367e-02, 0., 0., 0., 0., 0., 0.,
          0., 0., 0., 0., 0., 0., 0., 0., 0., 0., 2.27272734e-02, 0., 0.,
          0., 0., 2.27272734e-02, 1.13636367e-02, 0., 1.13636367e-02, 0.,
          0., 0., 1.13636367e-02, 0., 0., 0., 0., 0., 0., 0., 0.,
          1.13636367e-02, 0., 0., 0., 1.13636367e-02, 0., 0., 0.,
          1.13636367e-02, 0., 1.13636367e-02, 0., 0., 1.13636367e-02, 0.,
          0., 0., 0., 0., 1.13636367e-02, 0., 1.13636367e-02, 0., 0.,
          3.40909101e-02, 0., 1.13636367e-02, 0., 2.27272734e-02, 0., 0.,
          0., 0., 0., 0., 1.13636367e-02, 1.13636367e-02, 0.,
          1.13636367e-02, 3.40909101e-02, 0., 0., 0., 0., 0., 0., 0., 0.,
          1.13636367e-02, 0., 0., 0., 0., 0., 0., 0., 0., 1.13636367e-02,
          0., 1.13636367e-02, 0., 1.13636367e-02, 1.13636367e-02, 0., 0.,
          3.40909101e-02, 0., 0., 0., 0., 0., 0., 1.13636367e-02, 0., 0.,
          1.13636367e-02, 2.27272734e-02, 0., 0., 0., 0., 0., 0.,
          2.27272734e-02, 1.13636367e-02, 0., 2.27272734e-02,
          1.13636367e-02, 2.27272734e-02, 4.54545468e-02, 1.13636367e-02,
          0., 0., 0., 0., 0., 0., 0., 0., 1.13636367e-02, 0.,
          1.13636367e-02, 1.13636367e-02, 0., 1.13636367e-02, 0., 0., 0.,
          0. ]
      - [ 1.65289256e-03, 0., 1.65289249e-02, 6.61157025e-03,
          6.61157025e-03, 1.65289256e-03, 1.65289256e-03, 1.65289256e-03,
          1.15702478e-02, 6.61157025e-03, 6.61157025e-03, 4.95867757e-03,
          3.30578513e-03, 3.30578513e-03, 9.91735514e-03, 1.15702478e-02,
          6.61157025e-03, 9.91735514e-03, 6.61157025e-03, 8.26446246e-03,
          6.61157025e-03, 1.65289256e-03, 6.61157025e-03, 6.61157025e-03,
          1.32231405e-02, 6.61157025e-03, 0., 1.65289256e-03,
          9.91735514e-03, 1.48760332e-02, 8.26446246e-03, 9.91735514e-03,
          3.30578513e-03, 6.61157025e-03, 0., 1.32231405e-02,
          6.61157025e-03, 3.30578513e-03, 1.65289256e-03, 4.95867757e-03,
          3.30578513e-03, 8.26446246e-03, 1.65289256e-03, 4.95867757e-03,
          4.95867757e-03, 1.65289256e-03, 1.15702478e-02, 6.61157025e-03,
          1.65289256e-03, 1.65289256e-03, 4.95867757e-03, 1.65289256e-03,
          3.30578513e-03, 1.65289256e-03, 4.95867757e-03, 9.91735514e-03,
          8.26446246e-03, 3.30578513e-03, 8.26446246e-03, 8.26446246e-03,
          1.81818176e-02, 0., 3.30578513e-03, 4.95867757e-03,
          4.95867757e-03, 4.95867757e-03, 3.30578513e-03, 1.65289256e-03,
          3.30578513e-03, 1.65289256e-03, 1.65289256e-03, 0.,
          1.65289256e-03, 3.30578513e-03, 1.65289256e-03, 3.30578513e-03,
          6.61157025e-03, 0., 1.65289256e-03, 1.65289256e-03,
          1.65289256e-03, 4.95867757e-03, 4.95867757e-03, 4.95867757e-03,
          4.95867757e-03, 3.30578513e-03, 9.91735514e-03, 0.,
          6.61157025e-03, 1.65289256e-03, 8.26446246e-03, 6.61157025e-03,
          8.26446246e-03, 3.30578513e-03, 8.26446246e-03, 4.95867757e-03,
          1.65289256e-03, 8.26446246e-03, 4.95867757e-03, 1.65289256e-03,
          4.95867757e-03, 3.30578513e-03, 3.30578513e-03, 1.32231405e-02,
          0., 0., 1.65289256e-03, 3.30578513e-03, 1.15702478e-02,
          6.61157025e-03, 0., 1.65289256e-03, 8.26446246e-03,
          3.30578513e-03, 0., 4.95867757e-03, 6.61157025e-03,
          6.61157025e-03, 1.65289256e-03, 1.15702478e-02, 3.30578513e-03,
          1.15702478e-02, 3.30578513e-03, 0., 4.95867757e-03,
          6.61157025e-03, 1.65289256e-03, 3.30578513e-03, 3.30578513e-03,
          6.61157025e-03, 3.30578513e-03, 6.61157025e-03, 3.30578513e-03,
          1.65289256e-03, 4.95867757e-03, 1.65289256e-03, 3.30578513e-03,
          1.65289256e-03, 8.26446246e-03, 1.48760332e-02, 1.65289256e-03,
          0., 4.95867757e-03, 6.61157025e-03, 1.65289256e-03,
          1.15702478e-02, 1.65289256e-03, 6.61157025e-03, 6.61157025e-03,
          3.30578513e-03, 0., 9.91735514e-03, 1.48760332e-02,
          6.61157025e-03, 1.65289256e-03, 1.65289256e-03, 1.15702478e-02,
          3.30578513e-03, 4.95867757e-03, 0., 6.61157025e-03, 0.,
          9.91735514e-03, 1.65289256e-03, 3.30578513e-03, 1.15702478e-02,
          4.95867757e-03, 8.26446246e-03, 1.65289256e-03, 8.26446246e-03,
          1.65289256e-03, 1.65289256e-03, 3.30578513e-03, 6.61157025e-03,
          4.95867757e-03, 9.91735514e-03, 1.32231405e-02, 1.65289256e-03,
          1.65289256e-03, 8.26446246e-03, 6.61157025e-03, 1.65289256e-03,
          3.30578513e-03, 4.95867757e-03, 6.61157025e-03, 8.26446246e-03,
          8.26446246e-03, 0., 6.61157025e-03, 4.95867757e-03,
          4.95867757e-03, 4.95867757e-03, 6.61157025e-03, 4.95867757e-03,
          1.15702478e-02, 1.65289256e-03 ]
      - [ 4.31965431e-03, 3.23974062e-03, 1.07991360e-02, 9.71922185e-03,
          3.23974062e-03, 0., 2.15982716e-03, 2.15982716e-03,
          8.63930862e-03, 2.15982716e-03, 1.07991358e-03, 9.71922185e-03,
          8.63930862e-03, 3.23974062e-03, 7.55939493e-03, 3.23974062e-03,
          8.63930862e-03, 4.31965431e-03, 4.31965431e-03, 2.15982716e-03,
          3.23974062e-03, 6.47948124e-03, 4.31965431e-03, 4.31965431e-03,
          3.23974062e-03, 2.15982716e-03, 1.07991358e-03, 5.39956801e-03,
          2.15982716e-03, 8.63930862e-03, 2.15982716e-03, 8.63930862e-03,
          2.15982716e-03, 4.31965431e-03, 6.47948124e-03, 7.55939493e-03,
          1.07991358e-03, 0., 6.47948124e-03, 4.31965431e-03,
          1.07991358e-03, 7.55939493e-03, 2.15982716e-03, 2.15982716e-03,
          5.39956801e-03, 1.07991358e-03, 4.31965431e-03, 5.39956801e-03,
          5.39956801e-03, 3.23974062e-03, 1.07991358e-03, 2.15982716e-03,
          2.15982720e-02, 1.07991358e-03, 5.39956801e-03, 2.15982716e-03,
          0., 5.39956801e-03, 7.55939493e-03, 1.07991358e-03,
          2.15982716e-03, 5.39956801e-03, 1.07991358e-03, 7.55939493e-03,
          5.39956801e-03, 2.15982716e-03, 6.47948124e-03, 0.,
          4.31965431e-03, 2.15982716e-03, 4.31965431e-03, 5.39956801e-03,
          1.07991358e-03, 4.31965431e-03, 2.15982716e-03, 0.,
          1.07991358e-03, 3.23974062e-03, 8.63930862e-03, 2.48380117e-02,
          0., 1.07991360e-02, 6.47948124e-03, 0., 3.23974062e-03,
          6.47948124e-03, 0., 5.39956801e-03, 2.15982716e-03,
          1.07991358e-03, 2.15982716e-03, 0., 8.63930862e-03,
          2.15982716e-03, 6.47948124e-03, 2.15982716e-03, 9.71922185e-03,
          4.31965431e-03, 5.39956801e-03, 2.15982716e-03, 2.15982716e-03,
          0., 4.31965431e-03, 1.51187899e-02, 1.02591790e-01,
          1.07991358e-03, 1.83585305e-02, 4.31965431e-03, 6.47948124e-03,
          2.15982716e-03, 1.07991358e-03, 6.47948124e-03, 2.15982716e-03,
          7.55939493e-03, 3.23974062e-03, 1.18790492e-02, 0.,
          3.23974062e-03, 6.47948124e-03, 1.94384437e-02, 2.15982716e-03,
          4.31965431e-03, 1.07991358e-03, 3.23974062e-03, 3.23974062e-03,
          1.61987040e-02, 3.23974062e-03, 1.07991358e-03, 4.31965431e-03,
          2.15982716e-03, 2.15982716e-03, 6.47948124e-03, 4.31965431e-03,
          1.07991358e-03, 1.07991358e-03, 3.23974062e-03, 0.,
          2.15982716e-03, 1.07991358e-03, 7.55939493e-03, 6.47948124e-03,
          0., 4.31965431e-03, 1.07991358e-03, 1.40388766e-02,
          6.47948124e-03, 0., 1.07991358e-03, 1.07991358e-03, 0.,
          2.15982716e-03, 7.55939493e-03, 6.47948124e-03, 1.07991358e-03,
          4.31965431e-03, 4.31965431e-03, 6.47948124e-03, 3.23974062e-03,
          1.07991358e-03, 3.23974062e-03, 2.15982716e-03, 3.23974062e-03,
          2.80777533e-02, 4.31965431e-03, 1.07991358e-03, 1.07991358e-03,
          1.07991358e-03, 1.18790492e-02, 5.39956801e-03, 4.31965431e-03,
          2.15982716e-03, 8.63930862e-03, 9.71922185e-03, 4.31965431e-03,
          3.23974062e-03, 4.31965431e-03, 1.51187899e-02, 5.39956801e-03,
          8.63930862e-03, 3.23974062e-03, 6.47948124e-03, 1.07991358e-03,
          3.23974062e-03, 7.55939493e-03, 1.07991358e-03, 2.15982716e-03,
          4.31965431e-03, 9.71922185e-03, 4.31965431e-03, 3.23974062e-03,
          2.15982716e-03, 6.47948124e-03, 0., 6.47948124e-03,
          1.07991358e-03, 1.07991360e-02 ]
      - [ 1.10011001e-03, 1.10011001e-03, 5.50054992e-03, 8.80088005e-03,
          7.70077016e-03, 2.20022001e-03, 2.20022001e-03, 0.,
          5.50054992e-03, 6.60066027e-03, 4.40044003e-03, 2.09020898e-02,
          7.70077016e-03, 1.10011001e-03, 0., 4.40044003e-03,
          1.10011001e-03, 2.20022001e-03, 2.20022001e-03, 6.60066027e-03,
          5.50054992e-03, 2.20022001e-03, 8.80088005e-03, 8.80088005e-03,
          4.40044003e-03, 5.50054992e-03, 5.50054992e-03, 3.30033014e-03,
          2.20022001e-03, 9.90098994e-03, 4.40044003e-03, 6.60066027e-03,
          5.50054992e-03, 5.50054992e-03, 2.97029708e-02, 7.70077016e-03,
          4.40044003e-03, 1.76017601e-02, 7.70077016e-03, 4.40044003e-03,
          1.10011001e-03, 3.30033014e-03, 0., 3.30033014e-03,
          7.70077016e-03, 4.40044003e-03, 3.30033014e-03, 2.20022001e-03,
          2.20022001e-03, 6.60066027e-03, 2.20022001e-03, 2.20022001e-03,
          1.65016502e-02, 8.80088005e-03, 3.30033014e-03, 6.60066027e-03,
          8.80088005e-03, 9.90098994e-03, 1.21012097e-02, 1.10011001e-03,
          2.20022001e-03, 1.98019799e-02, 1.10011001e-03, 3.30033014e-03,
          6.60066027e-03, 1.10011001e-03, 0., 3.30033014e-03, 0.,
          5.50054992e-03, 1.10011001e-03, 4.40044003e-03, 2.20022001e-03,
          3.30033014e-03, 2.20022001e-03, 1.10011001e-03, 5.50054992e-03,
          3.30033014e-03, 6.60066027e-03, 1.10010998e-02, 2.20022001e-03,
          3.30033014e-03, 2.20022001e-03, 9.90098994e-03, 1.21012097e-02,
          6.60066027e-03, 3.30033014e-03, 5.50054992e-03, 0.,
          1.10011001e-03, 6.60066027e-03, 0., 3.30033014e-03,
          5.50054992e-03, 3.30033014e-03, 5.50054992e-03, 3.30033014e-03,
          7.70077016e-03, 0., 0., 9.90098994e-03, 4.40044003e-03, 0.,
          2.20022001e-03, 3.19031887e-02, 9.90098994e-03, 1.10011001e-03,
          6.60066027e-03, 2.20022001e-03, 0., 7.70077016e-03,
          4.40044003e-03, 6.60066027e-03, 3.30033014e-03, 4.40044003e-03,
          6.60066027e-03, 2.20022001e-03, 1.10010998e-02, 2.20022001e-03,
          0., 2.20022001e-03, 0., 5.50054992e-03, 4.40044003e-03,
          2.20022001e-03, 5.50054992e-03, 5.50054992e-03, 3.30033014e-03,
          7.70077016e-03, 3.30033014e-03, 2.20022001e-03, 0.,
          5.50054992e-03, 1.10011001e-03, 6.60066027e-03, 0.,
          8.80088005e-03, 3.30033014e-03, 3.30033014e-03, 2.20022001e-03,
          1.10011001e-03, 1.10011001e-03, 7.70077016e-03, 2.20022001e-03,
          5.50054992e-03, 5.50054992e-03, 7.70077016e-03, 4.40044003e-03,
          6.60066027e-03, 1.10011001e-03, 4.40044003e-03, 5.50054992e-03,
          4.40044003e-03, 1.10011001e-03, 2.20022001e-03, 3.30033014e-03,
          5.50054992e-03, 9.90098994e-03, 3.30033014e-03, 5.50054992e-03,
          4.40044003e-03, 5.50054992e-03, 3.19031887e-02, 3.30033014e-03,
          3.30033014e-03, 9.90098994e-03, 4.40044003e-03, 2.20022001e-03,
          1.21012097e-02, 4.40044003e-03, 0., 9.90098994e-03,
          2.20022001e-03, 2.20022001e-03, 5.50054992e-03, 7.70077016e-03,
          1.21012097e-02, 2.20022001e-03, 0., 0., 1.10011001e-03,
          2.20022001e-03, 7.70077016e-03, 5.50054992e-03, 2.20022001e-03,
          4.40044003e-03, 2.20022001e-03, 4.40044003e-03, 2.20022001e-03,
          3.30033014e-03, 3.30033014e-03, 1.65016502e-02, 3.30033014e-03,
          4.40044003e-03, 8.80088005e-03, 1.65016502e-02 ]
      - [ 7.66871125e-03, 6.13496918e-03, 1.53374230e-03, 3.06748459e-03,
          1.53374230e-03, 1.53374230e-03, 1.07361963e-02, 0.,
          1.38036804e-02, 3.06748459e-03, 1.53374230e-03, 1.07361963e-02,
          6.13496918e-03, 1.53374230e-03, 4.60122712e-03, 6.13496918e-03,
          4.60122712e-03, 1.53374230e-03, 1.53374230e-03, 7.66871125e-03,
          3.06748459e-03, 6.13496918e-03, 4.60122712e-03, 4.60122712e-03,
          1.53374230e-03, 0., 0., 4.60122712e-03, 6.13496918e-03,
          4.60122712e-03, 1.53374230e-03, 9.20245424e-03, 1.53374230e-03,
          6.13496918e-03, 2.45398767e-02, 1.53374230e-03, 1.53374230e-03,
          3.06748459e-03, 4.60122712e-03, 3.06748459e-03, 0., 0., 0., 0.,
          6.13496918e-03, 3.06748459e-03, 1.53374230e-03, 0.,
          1.53374230e-03, 1.22699384e-02, 4.60122712e-03, 3.06748459e-03,
          4.14110422e-02, 4.60122712e-03, 3.06748459e-03, 0.,
          1.53374230e-03, 7.66871125e-03, 7.66871125e-03, 0.,
          9.20245424e-03, 0., 4.60122712e-03, 3.06748459e-03,
          1.53374230e-03, 3.06748459e-03, 4.60122712e-03, 0.,
          1.53374230e-03, 2.76073609e-02, 1.53374230e-03, 0.,
          7.66871125e-03, 3.06748459e-03, 1.53374230e-03, 3.06748459e-03,
          0., 9.20245424e-03, 4.60122712e-03, 6.13496918e-03,
          6.13496918e-03, 3.06748459e-03, 0., 1.53374230e-03,
          5.98159507e-02, 6.13496918e-03, 0., 1.53374230e-03,
          1.53374230e-03, 1.53374230e-03, 4.60122712e-03, 1.53374230e-03,
          0., 3.06748459e-03, 6.13496918e-03, 1.53374230e-03,
          9.20245424e-03, 1.53374230e-03, 9.20245424e-03, 1.53374230e-03,
          3.06748459e-03, 1.53374230e-03, 4.60122712e-03, 1.53374225e-02,
          1.53374230e-03, 0., 0., 4.60122712e-03, 1.07361963e-02,
          3.06748459e-03, 3.06748459e-03, 7.66871125e-03, 4.60122712e-03,
          1.53374230e-03, 0., 0., 7.66871125e-03, 1.38036804e-02,
          7.66871125e-03, 3.06748459e-03, 4.60122712e-03, 4.60122712e-03,
          1.38036804e-02, 4.60122712e-03, 1.53374230e-03, 4.60122712e-03,
          1.38036804e-02, 4.60122712e-03, 3.06748459e-03, 3.06748459e-03,
          1.53374230e-03, 3.06748459e-03, 6.13496918e-03, 0.,
          3.06748459e-03, 9.20245424e-03, 3.06748459e-03, 1.53374230e-03,
          0., 3.06748459e-03, 0., 1.53374230e-03, 4.60122712e-03,
          4.60122712e-03, 1.22699384e-02, 9.20245424e-03, 7.66871125e-03,
          3.06748459e-03, 3.06748459e-03, 1.53374230e-03, 7.66871125e-03,
          4.60122712e-03, 3.06748459e-03, 4.60122712e-03, 0.,
          3.06748459e-03, 3.06748459e-03, 6.13496918e-03, 2.30061337e-02,
          0., 0., 3.06748459e-03, 9.20245424e-03, 1.07361963e-02,
          1.53374230e-03, 5.52147217e-02, 0., 1.53374230e-03,
          1.07361963e-02, 1.53374230e-03, 3.06748459e-03, 7.66871125e-03,
          4.60122712e-03, 3.06748459e-03, 1.53374230e-03, 1.53374230e-03,
          7.66871125e-03, 6.13496918e-03, 7.66871125e-03, 6.13496918e-03,
          1.53374230e-03, 7.66871125e-03, 1.53374230e-03, 6.13496918e-03,
          3.06748459e-03, 6.13496918e-03, 1.53374230e-03, 6.13496918e-03,
          0., 0., 1.53374230e-03, 1.07361963e-02, 1.53374230e-03,
          3.06748459e-03, 4.60122712e-03, 1.99386496e-02 ]
      - [ 1.22950813e-02, 0., 4.09836043e-03, 8.19672085e-03,
          8.19672085e-03, 1.22950813e-02, 4.09836043e-03, 0., 0., 0.,
          4.09836043e-03, 1.22950813e-02, 8.19672085e-03, 0., 0., 0.,
          4.09836043e-03, 0., 8.19672085e-03, 4.09836043e-03,
          4.09836043e-03, 1.22950813e-02, 1.63934417e-02, 0., 0.,
          8.19672085e-03, 0., 0., 4.09836043e-03, 0., 0., 4.09836043e-03,
          0., 0., 1.63934417e-02, 1.22950813e-02, 4.09836043e-03, 0., 0.,
          1.22950813e-02, 4.09836043e-03, 0., 8.19672085e-03,
          4.09836043e-03, 1.22950813e-02, 4.09836043e-03, 4.09836043e-03,
          0., 1.22950813e-02, 1.22950813e-02, 0., 0., 8.19672085e-03, 0.,
          4.09836043e-03, 4.09836043e-03, 0., 4.09836043e-03, 0., 0.,
          4.09836043e-03, 8.19672085e-03, 8.19672085e-03, 4.09836043e-03,
          0., 1.63934417e-02, 4.09836043e-03, 4.09836043e-03,
          4.09836043e-03, 4.09836043e-03, 0., 1.22950813e-02,
          8.19672085e-03, 4.09836043e-03, 4.09836043e-03, 4.09836043e-03,
          8.19672085e-03, 2.04918012e-02, 8.19672085e-03, 4.09836043e-03,
          4.09836043e-03, 0., 1.22950813e-02, 4.09836043e-03,
          1.22950813e-02, 4.09836043e-03, 8.19672085e-03, 8.19672085e-03,
          1.22950813e-02, 4.09836043e-03, 0., 1.63934417e-02, 0., 0., 0.,
          4.09836043e-03, 0., 8.19672085e-03, 8.19672085e-03,
          8.19672085e-03, 1.22950813e-02, 0., 1.63934417e-02, 0.,
          1.63934417e-02, 0., 0., 8.19672085e-03, 1.22950813e-02,
          4.09836043e-03, 4.09836043e-03, 2.45901626e-02, 0., 0.,
          4.09836043e-03, 4.09836043e-03, 0., 4.09836043e-03, 0., 0.,
          8.19672085e-03, 1.22950813e-02, 1.63934417e-02, 0.,
          8.19672085e-03, 0., 4.09836043e-03, 8.19672085e-03,
          8.19672085e-03, 4.09836043e-03, 0., 0., 0., 0., 0.,
          1.63934417e-02, 0., 4.09836043e-03, 0., 0., 0., 0., 0.,
          8.19672085e-03, 0., 4.09836043e-03, 4.09836043e-03, 0., 0., 0.,
          0., 4.09836043e-03, 8.19672085e-03, 4.09836043e-03, 0.,
          4.09836043e-03, 0., 4.09836043e-03, 0., 4.09836043e-03,
          4.09836043e-03, 8.19672085e-03, 3.27868834e-02, 1.22950813e-02,
          0., 0., 4.09836043e-03, 0., 1.22950813e-02, 8.19672085e-03,
          4.09836043e-03, 1.22950813e-02, 4.09836043e-03, 4.09836043e-03,
          1.22950813e-02, 1.63934417e-02, 8.19672085e-03, 0.,
          1.22950813e-02, 4.09836043e-03, 0., 4.09836043e-03, 0.,
          1.22950813e-02, 0., 4.09836043e-03, 0., 4.09836043e-03, 0., 0.,
          1.22950813e-02, 2.45901626e-02, 0., 1.22950813e-02, 0.,
          8.19672085e-03 ]
      - [ 2.33281497e-03, 7.77604990e-04, 7.77604990e-03, 3.88802495e-03,
          3.88802495e-03, 6.99844491e-03, 7.77604990e-04, 3.11041996e-03,
          7.77604990e-04, 4.66562994e-03, 6.99844491e-03, 5.44323493e-03,
          3.88802495e-03, 3.88802495e-03, 2.33281497e-03, 1.55520998e-03,
          4.66562994e-03, 7.77604990e-03, 3.11041996e-03, 4.66562994e-03,
          7.77604990e-04, 1.55520998e-03, 1.55520998e-03, 1.55520998e-03,
          3.11041996e-03, 0., 3.11041996e-03, 3.88802495e-03,
          6.22083992e-03, 4.66562994e-03, 3.11041996e-03, 3.88802495e-03,
          1.24416798e-02, 1.55520998e-03, 1.32192848e-02, 2.33281497e-03,
          6.99844491e-03, 2.72161737e-02, 1.63297057e-02, 1.55520998e-03,
          5.44323493e-03, 2.33281497e-03, 2.33281497e-03, 9.33125988e-03,
          2.33281497e-03, 0., 2.33281497e-03, 1.01088649e-02,
          5.44323493e-03, 8.55365489e-03, 6.22083992e-03, 8.55365489e-03,
          4.66562994e-03, 2.33281497e-03, 6.99844491e-03, 1.47744948e-02,
          1.78849138e-02, 9.33125988e-03, 1.55520998e-03, 3.88802495e-03,
          2.33281497e-03, 5.44323493e-03, 2.33281497e-03, 7.77604990e-04,
          2.33281497e-03, 1.55520998e-03, 3.11041996e-03, 2.33281497e-03,
          1.55520998e-03, 0., 0., 9.33125988e-03, 3.11041996e-03,
          1.55520998e-03, 1.55520998e-03, 2.33281497e-03, 5.44323493e-03,
          6.99844491e-03, 2.33281497e-03, 7.77604990e-04, 1.55520998e-03,
          2.33281497e-03, 7.77604990e-03, 4.66562994e-03, 1.55520998e-02,
          5.44323493e-03, 7.77604990e-04, 0., 4.66562994e-03,
          7.77604990e-04, 1.01088649e-02, 7.77604990e-04, 7.77604990e-04,
          5.44323493e-03, 6.22083992e-03, 3.88802495e-03, 1.39968898e-02,
          1.55520998e-02, 3.88802495e-03, 1.55520998e-03, 4.66562994e-03,
          1.24416798e-02, 7.77604990e-03, 1.55520998e-03, 7.77604990e-04,
          3.88802495e-03, 2.33281497e-03, 7.77604990e-04, 6.22083992e-03,
          5.44323493e-03, 1.55520998e-03, 5.44323493e-03, 1.55520998e-03,
          2.33281497e-03, 3.88802495e-03, 3.88802495e-03, 7.77604990e-04,
          6.99844491e-03, 2.33281497e-03, 3.88802495e-03, 3.11041996e-03,
          4.66562994e-03, 1.08864699e-02, 2.25505456e-02, 3.88802495e-03,
          2.33281497e-03, 4.66562994e-03, 3.88802495e-03, 1.08864699e-02,
          4.66562994e-03, 1.24416798e-02, 1.55520998e-03, 5.44323493e-03,
          6.99844491e-03, 5.44323493e-03, 3.11041996e-03, 8.55365489e-03,
          1.24416798e-02, 1.32192848e-02, 7.77604990e-04, 0.,
          2.33281497e-03, 3.11041996e-03, 1.55520998e-03, 6.99844491e-03,
          9.33125988e-03, 3.88802495e-03, 8.55365489e-03, 1.01088649e-02,
          4.66562994e-03, 9.33125988e-03, 3.88802495e-03, 4.66562994e-03,
          3.11041996e-03, 8.55365489e-03, 1.55520998e-03, 1.55520998e-03,
          3.88802495e-03, 7.77604990e-04, 9.33125988e-03, 1.08864699e-02,
          2.33281497e-03, 2.33281497e-03, 3.88802495e-03, 7.77604990e-03,
          0., 5.44323493e-03, 3.88802495e-03, 7.77604990e-03,
          3.88802495e-03, 1.47744948e-02, 5.44323493e-03, 0.,
          4.66562994e-03, 1.39968898e-02, 3.11041996e-03, 7.77604990e-04,
          7.77604990e-03, 1.55520998e-03, 1.55520998e-03, 2.33281497e-03,
          3.88802495e-03, 1.94401257e-02, 3.11041996e-03, 3.88802495e-03,
          7.77604990e-04, 7.77604990e-03, 1.55520998e-03, 9.33125988e-03,
          6.22083992e-03, 3.88802495e-03, 6.22083992e-03, 3.11041996e-03,
          9.33125988e-03, 5.44323493e-03, 1.47744948e-02 ]
      - [ 5.80383057e-04, 1.74114923e-03, 9.28612892e-03, 2.32153223e-03,
          2.32153223e-03, 3.48229846e-03, 2.90191523e-03, 3.48229846e-03,
          4.64306446e-03, 3.48229846e-03, 5.80383057e-04, 4.64306446e-03,
          4.06268146e-03, 4.64306446e-03, 5.22344746e-03, 2.90191523e-03,
          9.28612892e-03, 5.80383046e-03, 4.64306446e-03, 3.48229846e-03,
          6.96459692e-03, 8.70574545e-03, 5.80383046e-03, 3.48229846e-03,
          9.86651238e-03, 3.48229846e-03, 2.32153223e-03, 4.06268146e-03,
          6.38421346e-03, 5.80383046e-03, 3.48229846e-03, 3.48229846e-03,
          2.32153223e-03, 1.16076611e-03, 5.80383046e-03, 8.12536292e-03,
          2.90191523e-03, 2.32153223e-03, 5.22344746e-03, 5.22344746e-03,
          5.22344746e-03, 1.33488104e-02, 1.16076611e-03, 6.38421346e-03,
          4.64306446e-03, 1.16076611e-03, 6.38421346e-03, 4.64306446e-03,
          5.22344746e-03, 2.90191523e-03, 5.80383046e-03, 4.64306446e-03,
          4.64306446e-03, 3.48229846e-03, 4.06268146e-03, 5.80383046e-03,
          1.74114923e-03, 4.06268146e-03, 5.80383057e-04, 2.90191523e-03,
          9.86651238e-03, 5.80383046e-03, 2.32153223e-03, 3.48229846e-03,
          5.80383046e-03, 9.86651238e-03, 5.22344746e-03, 4.64306446e-03,
          2.32153223e-03, 4.64306446e-03, 9.28612892e-03, 3.48229846e-03,
          3.48229846e-03, 7.54497992e-03, 1.74114923e-03, 2.90191523e-03,
          5.80383057e-04, 1.16076611e-03, 5.80383046e-03, 7.54497992e-03,
          5.22344746e-03, 7.54497992e-03, 6.96459692e-03, 4.64306446e-03,
          1.33488104e-02, 6.38421346e-03, 4.06268146e-03, 4.64306446e-03,
          7.54497992e-03, 3.48229846e-03, 9.28612892e-03, 0.,
          9.28612892e-03, 4.64306446e-03, 2.32153223e-03, 6.38421346e-03,
          4.06268146e-03, 5.80383046e-03, 3.48229846e-03, 2.32153223e-03,
          2.90191523e-03, 1.74114923e-03, 4.64306446e-03, 8.70574545e-03,
          2.32153223e-03, 6.38421346e-03, 6.38421346e-03, 6.38421346e-03,
          6.96459692e-03, 5.22344746e-03, 1.16076611e-03, 4.64306446e-03,
          3.48229846e-03, 8.70574545e-03, 2.32153223e-03, 2.90191523e-03,
          1.74114923e-03, 5.22344746e-03, 4.64306446e-03, 4.06268146e-03,
          3.48229846e-03, 4.64306446e-03, 3.48229846e-03, 1.74114923e-03,
          8.12536292e-03, 9.86651238e-03, 8.12536292e-03, 5.80383046e-03,
          2.32153223e-03, 2.90191523e-03, 1.74114923e-03, 1.39291938e-02,
          1.16076609e-02, 1.74114923e-03, 4.64306446e-03, 2.32153223e-03,
          1.74114923e-03, 4.64306446e-03, 3.48229846e-03, 1.10272784e-02,
          2.90191523e-03, 1.16076611e-03, 6.38421346e-03, 3.48229846e-03,
          7.54497992e-03, 6.38421346e-03, 1.16076611e-03, 5.22344746e-03,
          2.90191523e-03, 5.80383046e-03, 1.21880444e-02, 8.70574545e-03,
          1.04468949e-02, 5.22344746e-03, 4.06268146e-03, 4.64306446e-03,
          1.33488104e-02, 1.68311093e-02, 4.06268146e-03, 3.48229846e-03,
          7.54497992e-03, 7.54497992e-03, 6.96459692e-03, 6.96459692e-03,
          1.74114923e-03, 4.06268146e-03, 4.06268146e-03, 4.06268146e-03,
          5.22344746e-03, 1.04468949e-02, 5.22344746e-03, 5.80383046e-03,
          6.96459692e-03, 4.06268146e-03, 5.80383046e-03, 9.86651238e-03,
          9.86651238e-03, 8.70574545e-03, 4.64306446e-03, 3.48229846e-03,
          7.54497992e-03, 2.90191523e-03, 1.16076611e-03, 4.64306446e-03,
          5.80383046e-03, 3.48229846e-03, 5.22344746e-03, 4.64306446e-03,
          2.90191523e-03, 7.54497992e-03, 2.32153223e-03, 7.54497992e-03,
          5.80383046e-03, 8.12536292e-03, 5.80383046e-03, 3.48229846e-03 ]
      - [ 4.19580424e-03, 2.79720291e-03, 5.59440581e-03, 6.99300738e-03,
          1.39860145e-03, 0., 0., 1.39860145e-03, 5.59440581e-03,
          1.39860145e-03, 1.39860145e-03, 3.35664339e-02, 2.79720291e-03,
          1.39860145e-03, 6.99300738e-03, 1.39860145e-03, 2.79720291e-03,
          9.79021005e-03, 2.79720291e-03, 4.19580424e-03, 5.59440581e-03,
          2.79720291e-03, 0., 2.79720291e-03, 1.39860145e-03,
          2.79720291e-03, 0., 5.59440581e-03, 4.19580424e-03,
          6.99300738e-03, 5.59440581e-03, 1.11888116e-02, 2.79720291e-03,
          4.19580424e-03, 2.09790226e-02, 2.79720291e-03, 1.39860145e-03,
          0., 5.59440581e-03, 2.79720291e-03, 1.39860145e-03,
          6.99300738e-03, 4.19580424e-03, 5.59440581e-03, 1.39860145e-03,
          4.19580424e-03, 1.11888116e-02, 4.19580424e-03, 6.99300738e-03,
          6.99300738e-03, 1.39860145e-03, 1.39860145e-03, 3.77622396e-02,
          2.79720291e-03, 0., 1.39860145e-03, 1.39860145e-03,
          8.39160848e-03, 2.79720291e-03, 2.79720291e-03, 1.25874132e-02,
          5.59440581e-03, 2.79720291e-03, 8.39160848e-03, 5.59440581e-03,
          2.79720291e-03, 5.59440581e-03, 2.79720291e-03, 8.39160848e-03,
          4.19580424e-03, 6.99300738e-03, 0., 4.19580424e-03,
          8.39160848e-03, 6.99300738e-03, 4.19580424e-03, 2.79720291e-03,
          6.99300738e-03, 1.25874132e-02, 2.79720291e-03, 1.39860145e-03,
          1.39860145e-03, 2.79720291e-03, 5.59440581e-03, 3.07692327e-02,
          5.59440581e-03, 9.79021005e-03, 2.79720291e-03, 1.39860145e-03,
          1.39860145e-03, 5.59440581e-03, 2.79720291e-03, 4.19580424e-03,
          6.99300738e-03, 4.19580424e-03, 4.19580424e-03, 2.79720291e-03,
          4.19580424e-03, 4.19580424e-03, 9.79021005e-03, 2.79720291e-03,
          4.19580424e-03, 1.39860145e-03, 2.79720291e-03, 1.81818195e-02,
          8.39160848e-03, 0., 6.99300738e-03, 1.67832170e-02,
          5.59440581e-03, 1.39860145e-03, 4.19580424e-03, 2.79720291e-03,
          0., 5.59440581e-03, 1.39860145e-03, 5.59440581e-03,
          5.59440581e-03, 8.39160848e-03, 1.25874132e-02, 2.79720291e-03,
          6.99300738e-03, 5.59440581e-03, 2.79720291e-03, 6.99300738e-03,
          6.99300738e-03, 1.39860148e-02, 0., 5.59440581e-03,
          6.99300738e-03, 5.59440581e-03, 6.99300738e-03, 0., 0.,
          2.79720291e-03, 2.79720291e-03, 6.99300738e-03, 0.,
          4.19580424e-03, 1.39860145e-03, 1.39860145e-03, 1.11888116e-02,
          2.79720291e-03, 4.19580424e-03, 9.79021005e-03, 4.19580424e-03,
          2.79720291e-03, 6.99300738e-03, 2.79720291e-03, 2.79720291e-03,
          2.79720291e-03, 5.59440581e-03, 2.79720291e-03, 1.39860145e-03,
          1.39860145e-03, 4.19580424e-03, 2.79720291e-03, 6.99300738e-03,
          1.39860145e-03, 0., 4.19580424e-03, 2.79720291e-03,
          1.11888116e-02, 6.99300738e-03, 0., 1.39860145e-03,
          5.59440581e-03, 0., 1.53846163e-02, 6.99300738e-03,
          1.39860145e-03, 1.95804201e-02, 4.19580424e-03, 5.59440581e-03,
          1.39860145e-03, 6.99300738e-03, 2.79720291e-03, 0.,
          2.79720291e-03, 1.39860145e-03, 5.59440581e-03, 1.39860145e-03,
          0., 6.99300738e-03, 5.59440581e-03, 5.59440581e-03,
          5.59440581e-03, 2.79720291e-03, 8.39160848e-03, 5.59440581e-03,
          1.39860145e-03, 1.39860148e-02, 2.79720291e-03, 1.39860145e-03,
          4.19580424e-03, 1.95804201e-02 ]
      - [ 0., 0., 3.43642617e-03, 0., 0., 0., 1.37457047e-02, 0.,
          3.43642617e-03, 6.87285233e-03, 3.43642617e-03, 3.78006883e-02,
          0., 0., 3.43642617e-03, 3.43642617e-03, 3.43642617e-03, 0., 0.,
          0., 2.40549836e-02, 3.43642617e-03, 1.37457047e-02, 0., 0., 0.,
          0., 6.87285233e-03, 0., 3.43642617e-03, 3.43642617e-03,
          3.43642617e-03, 3.43642617e-03, 6.87285233e-03, 4.12371159e-02,
          3.43642617e-03, 0., 0., 0., 1.03092790e-02, 3.43642617e-03,
          1.37457047e-02, 3.43642617e-03, 1.03092790e-02, 6.87285233e-03,
          0., 0., 0., 6.87285233e-03, 3.43642617e-03, 0., 1.03092790e-02,
          1.37457047e-02, 0., 3.43642617e-03, 6.87285233e-03,
          3.43642617e-03, 0., 0., 3.43642617e-03, 6.87285233e-03,
          1.71821304e-02, 0., 0., 3.43642617e-03, 1.71821304e-02,
          6.87285233e-03, 1.37457047e-02, 0., 1.03092790e-02,
          3.43642617e-03, 3.43642617e-03, 3.43642617e-03, 0.,
          6.87285233e-03, 0., 3.43642617e-03, 3.43642617e-03,
          1.37457047e-02, 0., 1.37457047e-02, 3.43642617e-03,
          6.87285233e-03, 0., 2.06185579e-02, 3.43642617e-03,
          3.43642617e-03, 0., 0., 0., 1.03092790e-02, 0., 3.43642617e-03,
          6.87285233e-03, 0., 1.71821304e-02, 1.37457047e-02, 0.,
          6.87285233e-03, 0., 3.43642617e-03, 3.43642617e-03, 0.,
          1.03092790e-02, 3.43642617e-03, 3.43642617e-03, 3.43642617e-03,
          0., 3.43642617e-03, 0., 3.43642617e-03, 3.43642607e-02, 0.,
          3.43642617e-03, 0., 0., 0., 1.03092790e-02, 1.71821304e-02,
          1.03092790e-02, 0., 3.43642617e-03, 1.03092790e-02,
          6.87285233e-03, 0., 3.43642617e-03, 2.40549836e-02,
          3.43642617e-03, 3.43642617e-03, 0., 0., 3.43642617e-03,
          1.37457047e-02, 6.87285233e-03, 3.43642617e-03, 0., 0.,
          3.43642617e-03, 6.87285233e-03, 3.43642617e-03, 0., 0.,
          1.03092790e-02, 0., 6.87285233e-03, 0., 3.09278350e-02, 0.,
          3.43642617e-03, 3.43642617e-03, 3.43642617e-03, 3.43642617e-03,
          1.03092790e-02, 0., 3.43642617e-03, 0., 1.37457047e-02,
          3.43642617e-03, 0., 3.43642617e-03, 0., 3.43642617e-03,
          1.37457047e-02, 0., 0., 0., 3.43642617e-03, 0., 1.03092790e-02,
          0., 3.43642617e-03, 2.40549836e-02, 6.87285233e-03, 0.,
          3.43642617e-03, 1.03092790e-02, 2.74914093e-02, 6.87285233e-03,
          0., 0., 0., 0., 1.37457047e-02, 0., 0., 3.43642617e-03, 0.,
          6.87285233e-03, 3.43642617e-03, 3.43642617e-03, 3.43642617e-03,
          2.06185579e-02, 0., 0., 6.87285233e-03, 6.87285233e-03 ]
   decision_functions:
      -
         sv_count: 20
         rho: 9.9999979145579743e-01
         alpha: [ 1., 1., 1., 1., 1., 1., 1., 1., 1., -1., -1.,
             -7.8615939109578237e-01, -1., -1., -7.8970498921509968e-01,
             -1., -1., -3.4262131913318622e-01, -1.,
             -8.1514300555931826e-02 ]
